{
  "name": "double integrator",
  "W1": [
    [
      0.09738681465387344,
      -0.3335672616958618,
      -0.09113998711109161,
      0.16456463932991028,
      -0.045741353183984756
    ],
    [
      -0.12212621420621872,
      -0.10726436972618103,
      0.0520038940012455,
      -0.0645153746008873,
      -0.0021952937822788954
    ],
    [
      -0.003318657400086522,
      0.1531255543231964,
      -0.014683765359222889,
      0.07170861959457397,
      0.004033885896205902
    ],
    [
      -0.03883858025074005,
      -0.5519287586212158,
      -0.03067832626402378,
      0.026764262467622757,
      -0.01135176420211792
    ],
    [
      -0.027312571182847023,
      -0.13667376339435577,
      -0.018469274044036865,
      -0.08470207452774048,
      -0.0035847779363393784
    ],
    [
      -0.06465465575456619,
      0.14709126949310303,
      -0.04738776385784149,
      -0.07065445929765701,
      -0.010057973675429821
    ],
    [
      -0.02187834307551384,
      0.7816013097763062,
      -0.04842942953109741,
      0.05074585601687431,
      0.01493086013942957
    ],
    [
      0.013839109800755978,
      0.21862564980983734,
      -0.22863329946994781,
      0.29692941904067993,
      0.04008350893855095
    ],
    [
      -0.02269476279616356,
      0.17710630595684052,
      -0.07071148604154587,
      0.0847838968038559,
      0.0032908585853874683
    ],
    [
      -0.058660294860601425,
      -0.13577184081077576,
      0.12826739251613617,
      -0.044580601155757904,
      0.0010900766355916858
    ],
    [
      0.04381060600280762,
      0.0947904884815216,
      0.08089658617973328,
      -0.10040512681007385,
      -0.0003999818000011146
    ],
    [
      0.09014276415109634,
      0.2693619728088379,
      -0.024947943165898323,
      0.029678359627723694,
      -0.015806198120117188
    ],
    [
      0.030873537063598633,
      -0.085654616355896,
      -0.0825529545545578,
      -0.03044227324426174,
      -0.008298547007143497
    ],
    [
      0.050025857985019684,
      -0.13005179166793823,
      0.04294595122337341,
      -0.07033878564834595,
      -0.002714663278311491
    ],
    [
      -0.21896713972091675,
      0.43775269389152527,
      0.1032077744603157,
      -0.18162602186203003,
      0.030691836029291153
    ],
    [
      0.12645553052425385,
      0.08518451452255249,
      0.059559568762779236,
      0.003101806854829192,
      0.0007690131315030158
    ],
    [
      0.052925292402505875,
      0.19452054798603058,
      0.014605909585952759,
      0.005454209633171558,
      0.003236328484490514
    ],
    [
      0.0131980637088418,
      -0.7104366421699524,
      -0.008591107092797756,
      -0.05008735880255699,
      0.027633249759674072
    ],
    [
      -0.015244850888848305,
      -0.2042856365442276,
      0.024087848141789436,
      -0.08386462926864624,
      -0.002407473511993885
    ],
    [
      -0.1455356478691101,
      0.15199902653694153,
      -0.01272389106452465,
      -0.07597627490758896,
      0.014320463873445988
    ],
    [
      0.08002856373786926,
      -0.2325892597436905,
      -0.12451619654893875,
      0.16794370114803314,
      -0.004620634485036135
    ],
    [
      -0.06541231274604797,
      -0.012900814414024353,
      -0.002777494490146637,
      0.04472790285944939,
      0.05735304579138756
    ],
    [
      0.09139051288366318,
      -0.31729981303215027,
      0.09345652163028717,
      -0.11121158301830292,
      -0.028661251068115234
    ],
    [
      0.07107996940612793,
      0.26028481125831604,
      -0.007112943567335606,
      -0.07827713340520859,
      -0.017336072400212288
    ],
    [
      0.008300983346998692,
      -0.20798325538635254,
      -0.10107415914535522,
      0.10270612686872482,
      0.020845241844654083
    ],
    [
      -0.06082534417510033,
      -0.7387818098068237,
      -0.03722774237394333,
      0.12722206115722656,
      0.02416122518479824
    ],
    [
      -0.06823412328958511,
      0.18957766890525818,
      0.011560317128896713,
      0.04496972635388374,
      0.0015948094660416245
    ],
    [
      -0.13156646490097046,
      0.17721228301525116,
      -0.07200147211551666,
      0.046194564551115036,
      -0.0006531449034810066
    ],
    [
      -0.12120269238948822,
      -0.24497410655021667,
      -0.2050630748271942,
      0.05847495049238205,
      -0.020385194569826126
    ],
    [
      -0.03452533483505249,
      -0.18082721531391144,
      0.03288533538579941,
      0.10273227840662003,
      0.03758633881807327
    ],
    [
      -0.2158452719449997,
      0.12290740013122559,
      0.04359648376703262,
      0.007541189435869455,
      -0.002263902220875025
    ],
    [
      0.062470849603414536,
      0.14611636102199554,
      -0.06790097802877426,
      0.0012414477532729506,
      0.0015402029966935515
    ]
  ],
  "b1": [
    -0.060255225747823715,
    0.2579024136066437,
    0.09669408202171326,
    -0.16997575759887695,
    -0.24452589452266693,
    0.11671260744333267,
    -0.07968056201934814,
    0.13972479104995728,
    -0.24796050786972046,
    -0.3640294373035431,
    -0.09682618081569672,
    -0.6682881116867065,
    -0.09809374809265137,
    -0.19778616726398468,
    0.24867422878742218,
    0.03916661813855171,
    -0.4415462911128998,
    -0.22147713601589203,
    0.5404447317123413,
    0.07060932368040085,
    0.49013110995292664,
    0.08958111703395844,
    0.7183498740196228,
    0.07530621439218521,
    0.6675412058830261,
    -0.22090458869934082,
    -0.4156533479690552,
    -0.4128172993659973,
    0.1043536588549614,
    0.09778648614883423,
    0.041817083954811096,
    -0.36720606684684753
  ],
  "W2": [
    [
      -0.17024238407611847,
      0.23044005036354065,
      -0.09910697489976883,
      -0.3472568690776825,
      0.3463496267795563,
      -0.01675437204539776,
      0.5151094794273376,
      -0.1764766424894333,
      0.05311080068349838,
      -0.18375073373317719,
      -0.0645679384469986,
      0.24700264632701874,
      0.1970500946044922,
      0.338595986366272,
      0.15124861896038055,
      -0.4923495054244995,
      -0.16689258813858032,
      0.29246875643730164,
      0.22053936123847961,
      -0.11577486246824265,
      0.15360063314437866,
      -0.1882457137107849,
      -0.2102598398923874,
      -0.007123684510588646,
      -0.34278857707977295,
      -0.08674193918704987,
      -0.06624221801757812,
      -0.2869323194026947,
      -0.07148516923189163,
      0.21361343562602997,
      -0.3595125675201416,
      0.140220507979393
    ],
    [
      -0.050939206033945084,
      -0.46608319878578186,
      0.2714911997318268,
      0.368380069732666,
      -0.47508707642555237,
      -0.11124689131975174,
      -0.44989320635795593,
      0.13417407870292664,
      -0.27100372314453125,
      -0.3704417645931244,
      -0.07289840281009674,
      -0.42132869362831116,
      -0.18381740152835846,
      -0.06472567468881607,
      0.04518399387598038,
      -0.2360050231218338,
      0.3326996862888336,
      -0.488621324300766,
      0.12213166058063507,
      0.13242274522781372,
      -0.12951675057411194,
      -0.2676454782485962,
      0.6920702457427979,
      -0.18663164973258972,
      0.3929549753665924,
      0.1865519881248474,
      0.22683358192443848,
      0.036851219832897186,
      0.24958069622516632,
      0.11311956495046616,
      0.36096662282943726,
      0.15764471888542175
    ],
    [
      0.13793711364269257,
      0.5282173156738281,
      -0.3153882920742035,
      -0.2631952464580536,
      0.022179756313562393,
      0.5411673784255981,
      0.5416628122329712,
      0.32463812828063965,
      -0.35560718178749084,
      -0.15294243395328522,
      -0.043021947145462036,
      0.17665661871433258,
      0.24184858798980713,
      -0.0700826495885849,
      -0.0045342701487243176,
      -0.6138471364974976,
      -0.1404963582754135,
      -0.06929610669612885,
      0.39485669136047363,
      -0.03386533260345459,
      0.34580129384994507,
      -0.14360535144805908,
      -0.24888058006763458,
      0.2562486529350281,
      0.3543072044849396,
      0.08824986964464188,
      -0.44201746582984924,
      -0.058138277381658554,
      -0.2855977416038513,
      0.05534983053803444,
      0.1630878448486328,
      -0.1615540087223053
    ],
    [
      0.013805588707327843,
      0.29557308554649353,
      -0.1463143527507782,
      0.07986011356115341,
      0.03896823525428772,
      -0.19087693095207214,
      0.08515747636556625,
      0.011472339741885662,
      0.1469414085149765,
      -0.11466846615076065,
      0.0016737455734983087,
      0.2552447021007538,
      -0.2945043742656708,
      -0.47275254130363464,
      0.21735723316669464,
      0.32549208402633667,
      0.13862323760986328,
      -0.3699270486831665,
      -0.0982532799243927,
      0.039940353482961655,
      0.1915920376777649,
      -0.3289705514907837,
      0.053807154297828674,
      0.28893420100212097,
      0.1345910280942917,
      -0.1569817066192627,
      -0.05941828712821007,
      0.18782179057598114,
      -0.06877420842647552,
      -0.1584448218345642,
      -0.018161721527576447,
      -0.12016015499830246
    ],
    [
      0.26085329055786133,
      -0.4179421067237854,
      0.34436607360839844,
      0.28544414043426514,
      0.006223643198609352,
      0.25484007596969604,
      -0.7953934073448181,
      -0.10596876591444016,
      -0.07711471617221832,
      -0.01123003475368023,
      0.12831731140613556,
      -0.14072832465171814,
      0.43130019307136536,
      -0.38691800832748413,
      0.14612869918346405,
      -0.21625201404094696,
      0.3852037191390991,
      0.0457153394818306,
      -0.16923703253269196,
      -0.11178257316350937,
      -0.48353850841522217,
      0.048080045729875565,
      0.04386124387383461,
      -0.37181422114372253,
      0.17088772356510162,
      -0.17086991667747498,
      0.46460434794425964,
      0.563128650188446,
      0.16936145722866058,
      0.12009937316179276,
      0.009744616225361824,
      0.5357330441474915
    ],
    [
      -0.3353733420372009,
      -0.4149388372898102,
      0.08443641662597656,
      0.35716521739959717,
      -0.5729373693466187,
      0.019133396446704865,
      -0.3957037627696991,
      0.05030789598822594,
      -0.07493625581264496,
      -0.3578674793243408,
      0.2057853639125824,
      -0.43117883801460266,
      -0.03527101129293442,
      -0.21008913218975067,
      -0.10194326937198639,
      0.359384149312973,
      0.3240332305431366,
      -0.5015133619308472,
      -0.13959245383739471,
      -0.21397635340690613,
      0.2527230679988861,
      0.04716883972287178,
      0.32386288046836853,
      -0.20093455910682678,
      0.2316252440214157,
      0.037059806287288666,
      0.01699673756957054,
      -0.027221448719501495,
      0.1068410575389862,
      -0.17389638721942902,
      -0.3327147960662842,
      0.1389315128326416
    ],
    [
      -0.3044757544994354,
      0.3325384855270386,
      0.21186164021492004,
      -0.24627342820167542,
      -0.13304099440574646,
      0.21089035272598267,
      -0.33783742785453796,
      0.10742572695016861,
      0.09109751135110855,
      0.23095132410526276,
      0.164014533162117,
      -0.07533742487430573,
      -0.386275976896286,
      0.07966525107622147,
      -0.0033755830954760313,
      0.2583906352519989,
      0.2628377079963684,
      0.18530090153217316,
      0.2193194329738617,
      0.15417997539043427,
      -0.16480526328086853,
      -0.03970719128847122,
      -0.04410678893327713,
      -0.24984294176101685,
      0.09476716816425323,
      0.06717605888843536,
      0.13925465941429138,
      -0.26912105083465576,
      -0.014063374139368534,
      -0.1787261962890625,
      0.009475872851908207,
      -0.3102571964263916
    ],
    [
      0.0898146778345108,
      -0.5348469614982605,
      0.038916852325201035,
      0.22650973498821259,
      -0.2351575642824173,
      -0.15527044236660004,
      -0.5575515031814575,
      -0.0488114170730114,
      0.06986254453659058,
      0.05636556074023247,
      0.1506773978471756,
      -0.029369482770562172,
      0.380038857460022,
      -0.14535115659236908,
      0.1386759728193283,
      0.09887708723545074,
      0.3877168595790863,
      -0.09397921711206436,
      -0.4352235496044159,
      -0.046770721673965454,
      0.08886361867189407,
      -0.14013715088367462,
      0.010870967991650105,
      0.012935283593833447,
      0.1316002905368805,
      0.04216810688376427,
      0.09941985458135605,
      0.042668092995882034,
      -0.005636914167553186,
      0.21194866299629211,
      -0.08068405836820602,
      0.4538964033126831
    ],
    [
      0.09324770420789719,
      -0.4095262289047241,
      0.1291002631187439,
      0.44233018159866333,
      0.13295774161815643,
      -0.13681817054748535,
      -0.22821559011936188,
      -0.19174058735370636,
      0.06599083542823792,
      0.24935786426067352,
      -0.024524282664060593,
      0.11003910005092621,
      -0.30264684557914734,
      0.2753336727619171,
      0.1459101289510727,
      -0.044747475534677505,
      0.23341067135334015,
      -0.20024047791957855,
      -0.27653470635414124,
      -0.29902273416519165,
      -0.06290267407894135,
      0.25822651386260986,
      0.06893894821405411,
      0.10136277973651886,
      0.26628705859184265,
      -0.0034926109947264194,
      -0.2375214844942093,
      -0.11896146833896637,
      -0.25931936502456665,
      0.1286916732788086,
      -0.18695442378520966,
      0.17199426889419556
    ],
    [
      -0.23568961024284363,
      -0.4773494601249695,
      0.09073393791913986,
      -0.16685734689235687,
      -0.0980706736445427,
      0.06152328476309776,
      0.00824394728988409,
      0.24329526722431183,
      0.4664989411830902,
      -0.29786592721939087,
      0.028541242703795433,
      -0.13022282719612122,
      -0.17477519810199738,
      -0.044685158878564835,
      0.5170812606811523,
      0.31074509024620056,
      0.14038947224617004,
      -0.2140677273273468,
      -0.07268355041742325,
      0.03290197625756264,
      -0.4456693232059479,
      0.16601082682609558,
      -0.20793883502483368,
      -0.23892489075660706,
      0.23487037420272827,
      -0.08419613540172577,
      0.11883925646543503,
      0.4335649907588959,
      0.09439306706190109,
      0.16739051043987274,
      -0.012442310340702534,
      0.3648413121700287
    ],
    [
      0.004123838618397713,
      -0.17730726301670074,
      0.22972513735294342,
      0.10796219110488892,
      -0.20354793965816498,
      -0.10477825999259949,
      -0.8018457889556885,
      -0.12530004978179932,
      0.15821298956871033,
      -0.1893802434206009,
      0.10704030096530914,
      -0.20824852585792542,
      0.026942532509565353,
      -0.5055422186851501,
      0.267613023519516,
      -0.3452700078487396,
      -0.23470881581306458,
      -0.21467602252960205,
      0.1595214158296585,
      0.31041228771209717,
      0.07575640082359314,
      0.013400152325630188,
      0.304576575756073,
      0.07369208335876465,
      0.4612257778644562,
      -0.16424399614334106,
      0.3286561667919159,
      0.3569774031639099,
      -0.1129099428653717,
      -0.3038768172264099,
      0.06758841872215271,
      0.5278118252754211
    ],
    [
      0.05040711909532547,
      -0.05879173055291176,
      -0.20892895758152008,
      0.011541235260665417,
      0.2063024491071701,
      0.2705693542957306,
      0.4096171259880066,
      0.03903942555189133,
      0.12994086742401123,
      0.32529014348983765,
      0.3427983224391937,
      0.5298652052879333,
      0.03641194477677345,
      -0.056534528732299805,
      -0.26407045125961304,
      -0.26360589265823364,
      0.2525329291820526,
      0.3554033041000366,
      0.15718449652194977,
      0.12481582909822464,
      -0.023805061355233192,
      0.05914158746600151,
      -0.05570684000849724,
      0.10013790428638458,
      -0.5020812153816223,
      0.16870063543319702,
      -0.25481393933296204,
      -0.12086866796016693,
      0.014592023566365242,
      0.03113727644085884,
      -0.36166098713874817,
      0.046226080507040024
    ],
    [
      -0.10160209238529205,
      0.2754652798175812,
      -0.16387991607189178,
      -0.05281386524438858,
      -0.07466679066419601,
      0.3217501938343048,
      0.04490774869918823,
      0.08655433356761932,
      0.06072009727358818,
      0.09071409702301025,
      -0.09447580575942993,
      0.22600813210010529,
      0.3728991746902466,
      -0.19153475761413574,
      -0.3154817819595337,
      -0.4499737024307251,
      -0.30920109152793884,
      -0.03833558410406113,
      0.22588685154914856,
      0.3043549060821533,
      0.1279030591249466,
      -0.0692722350358963,
      -0.07204028964042664,
      -0.09629043936729431,
      -0.39386454224586487,
      0.05591195076704025,
      0.2669243812561035,
      0.2624613344669342,
      -0.1869814544916153,
      0.0281089935451746,
      -0.07906943559646606,
      -0.024509506300091743
    ],
    [
      -0.09215881675481796,
      0.2421833872795105,
      -0.18932513892650604,
      0.2434861660003662,
      0.12174570560455322,
      -0.4113316535949707,
      -0.2778712213039398,
      -0.2837466895580292,
      0.2873639464378357,
      0.012986590154469013,
      -0.029747100546956062,
      -0.27827996015548706,
      -0.46852555871009827,
      -0.12552578747272491,
      -0.24199049174785614,
      0.0800207257270813,
      0.21856634318828583,
      0.1736488938331604,
      -0.8672583699226379,
      -0.28280577063560486,
      -0.5165331363677979,
      0.000251191173447296,
      0.14833711087703705,
      -0.31527262926101685,
      -0.31211480498313904,
      -0.10926727205514908,
      0.5193560719490051,
      0.505020797252655,
      0.10602826625108719,
      0.26365453004837036,
      0.424331396818161,
      0.05318937078118324
    ],
    [
      0.22881624102592468,
      0.2797657251358032,
      -0.16555580496788025,
      -0.15961366891860962,
      -0.11389518529176712,
      -0.27463358640670776,
      0.2765931487083435,
      0.011591716669499874,
      -0.33308133482933044,
      0.17158055305480957,
      -0.25680458545684814,
      0.09134798496961594,
      0.11911275237798691,
      0.26076626777648926,
      0.10965202003717422,
      0.33748680353164673,
      -0.015777135267853737,
      0.14844641089439392,
      0.2589002847671509,
      0.08533243089914322,
      0.0025658721569925547,
      -0.14127574861049652,
      -0.01862655207514763,
      0.21979057788848877,
      -0.020096438005566597,
      -0.005864724051207304,
      -0.23771122097969055,
      -0.4232670068740845,
      0.06204571947455406,
      0.07738780975341797,
      -0.010943006724119186,
      -0.24813762307167053
    ],
    [
      0.18723784387111664,
      0.22155003249645233,
      0.5355154275894165,
      -0.03708318993449211,
      -0.39141082763671875,
      -0.26534345746040344,
      -0.030548375099897385,
      -0.1212611198425293,
      0.04035492241382599,
      0.1079200953245163,
      0.20522452890872955,
      -0.05402872711420059,
      -0.6530015468597412,
      -0.42799270153045654,
      0.2142343968153,
      0.8203302025794983,
      0.18194039165973663,
      0.1428034007549286,
      0.025691967457532883,
      0.15805068612098694,
      0.1379028856754303,
      -0.3133477568626404,
      0.19484692811965942,
      -0.0885210856795311,
      0.3797232210636139,
      0.1549946516752243,
      -0.035558804869651794,
      -0.30236414074897766,
      -0.1294228434562683,
      0.09612167626619339,
      -0.044215958565473557,
      -0.263344943523407
    ],
    [
      -0.04883643612265587,
      -0.8945767879486084,
      -0.2925085425376892,
      0.05728231370449066,
      0.11375638097524643,
      -0.3840689957141876,
      -0.26208871603012085,
      -0.1604422777891159,
      0.3025533854961395,
      -0.11621518433094025,
      -0.2868867814540863,
      0.15687964856624603,
      0.3168293833732605,
      0.21463905274868011,
      -0.0857226625084877,
      -0.5931481122970581,
      -0.24161545932292938,
      -0.02001427859067917,
      -0.2530236542224884,
      -0.15486875176429749,
      -0.28562596440315247,
      0.2417580634355545,
      -0.1730797439813614,
      -0.23877759277820587,
      -0.10378683358430862,
      0.0451519712805748,
      0.13949047029018402,
      0.31604456901550293,
      0.13974922895431519,
      0.036502428352832794,
      -0.321452260017395,
      0.10414491593837738
    ],
    [
      -0.01845240592956543,
      0.22362034022808075,
      0.1621408611536026,
      0.15141762793064117,
      -0.061545778065919876,
      0.47165557742118835,
      0.3329293131828308,
      0.03155729919672012,
      -0.22749629616737366,
      -0.06614570319652557,
      -0.395250529050827,
      0.36188286542892456,
      0.3594668507575989,
      -0.11862916499376297,
      -0.030336914584040642,
      -0.04649961739778519,
      -0.21608701348304749,
      0.2356531172990799,
      0.3473757207393646,
      0.20475107431411743,
      0.29671692848205566,
      0.11013666540384293,
      -0.030672365799546242,
      -0.13545197248458862,
      0.11286690086126328,
      0.045250557363033295,
      -0.5575843453407288,
      0.16318444907665253,
      -0.08205290883779526,
      0.1331319361925125,
      0.04933692514896393,
      0.1960153430700302
    ],
    [
      -0.03975626453757286,
      0.26598793268203735,
      -0.02927269972860813,
      0.34900927543640137,
      0.12625381350517273,
      0.031780894845724106,
      0.04256460815668106,
      -0.11742885410785675,
      0.14308327436447144,
      0.06437526643276215,
      -0.1824936717748642,
      -0.11922695487737656,
      -0.3621198534965515,
      0.20666059851646423,
      0.18181651830673218,
      -0.05890420824289322,
      -0.28649288415908813,
      -0.2807977497577667,
      0.26698893308639526,
      0.2636280953884125,
      0.20631267130374908,
      -0.09050185978412628,
      -0.05300668627023697,
      -0.27385714650154114,
      0.03619316220283508,
      -0.05217500403523445,
      -0.08729798346757889,
      0.010201780125498772,
      -0.18518182635307312,
      -0.1446876972913742,
      0.11347614228725433,
      -0.18612070381641388
    ],
    [
      -0.08651547878980637,
      0.18909446895122528,
      -0.24674394726753235,
      0.3859986662864685,
      0.3101712763309479,
      -0.1357882171869278,
      -0.1440342217683792,
      0.20049409568309784,
      0.06387177854776382,
      0.07254135608673096,
      0.1076444461941719,
      -0.4490619897842407,
      -0.4570768177509308,
      -0.1303311288356781,
      0.007681224029511213,
      -0.08431747555732727,
      0.24815480411052704,
      -0.3541449308395386,
      -0.23952755331993103,
      -0.34954139590263367,
      -0.06238812580704689,
      -0.07552734017372131,
      0.23880800604820251,
      -0.17663702368736267,
      0.10708153992891312,
      -0.24741479754447937,
      0.3377441465854645,
      -0.3101513385772705,
      -0.13920965790748596,
      -0.18108007311820984,
      -0.31212538480758667,
      -0.150556743144989
    ],
    [
      -0.27011778950691223,
      -0.16465318202972412,
      0.0691991001367569,
      0.5653965473175049,
      -0.022059589624404907,
      0.027871999889612198,
      -0.33760005235671997,
      0.22900044918060303,
      -0.02992481179535389,
      0.2955508232116699,
      0.08378628641366959,
      -0.016938531771302223,
      0.2358550727367401,
      0.49152979254722595,
      0.23481112718582153,
      -0.389727920293808,
      -0.37436166405677795,
      -0.1106964573264122,
      -0.009906233288347721,
      -0.3408374786376953,
      0.03667879104614258,
      -0.13606764376163483,
      -0.28213098645210266,
      0.10955674946308136,
      0.12149956822395325,
      -0.11600089818239212,
      0.09330158680677414,
      -0.20279397070407867,
      0.09071626514196396,
      -0.18851922452449799,
      -0.19609303772449493,
      -0.40649884939193726
    ],
    [
      0.14485689997673035,
      -0.06068553030490875,
      0.19327010214328766,
      0.175338476896286,
      0.05565508455038071,
      -0.009609679691493511,
      0.5493566989898682,
      0.0831102803349495,
      0.1247447282075882,
      0.2455451935529709,
      -0.2976180911064148,
      0.17929303646087646,
      0.08267433941364288,
      0.21472279727458954,
      -0.09398583322763443,
      -0.2914330065250397,
      -0.2752377688884735,
      0.023338543251156807,
      -0.07437686622142792,
      -0.0545998215675354,
      0.18997293710708618,
      -0.021938687190413475,
      -0.04236782714724541,
      -0.1658250242471695,
      -0.08559191972017288,
      0.07167752087116241,
      -0.3348272740840912,
      -0.12546232342720032,
      0.07959967106580734,
      -0.3749862015247345,
      0.0776563510298729,
      0.06416527926921844
    ],
    [
      -0.11629696190357208,
      0.17711050808429718,
      -0.11593928933143616,
      0.21837007999420166,
      0.24927277863025665,
      -0.17464467883110046,
      -0.1411169171333313,
      0.0951567143201828,
      -0.012160610407590866,
      0.13994662463665009,
      -0.014668543823063374,
      -0.17819182574748993,
      0.197543665766716,
      -0.024736415594816208,
      0.17740952968597412,
      -0.2562025785446167,
      -0.27280929684638977,
      0.24269242584705353,
      0.4311433434486389,
      0.11416107416152954,
      -0.10198385268449783,
      0.3296559453010559,
      0.20113755762577057,
      -0.08109070360660553,
      0.4491002559661865,
      0.1737815886735916,
      -0.21248097717761993,
      -0.32919225096702576,
      -0.10792709141969681,
      0.35389840602874756,
      0.003264186903834343,
      0.15539830923080444
    ],
    [
      -0.003143103327602148,
      0.10552012175321579,
      -0.06953904032707214,
      0.2540225088596344,
      -0.12173828482627869,
      -0.3940671384334564,
      -0.41922467947006226,
      -0.1713389903306961,
      0.12356629222631454,
      0.30076169967651367,
      -0.08902730792760849,
      -0.22520042955875397,
      -0.13510866463184357,
      -0.3638244569301605,
      -0.15333250164985657,
      -0.0819895938038826,
      0.1162576749920845,
      0.19004961848258972,
      -0.6727488040924072,
      0.07799391448497772,
      -0.22046880424022675,
      0.21220286190509796,
      -0.031849224120378494,
      0.1610172688961029,
      0.033235445618629456,
      -0.2419988363981247,
      0.4592750072479248,
      0.1135963723063469,
      0.2592969238758087,
      -0.16770029067993164,
      0.43503519892692566,
      -0.2589905560016632
    ],
    [
      0.010653961449861526,
      -0.18594768643379211,
      -0.002208174206316471,
      -0.2704557478427887,
      0.4593455195426941,
      0.18435195088386536,
      0.24396347999572754,
      0.12153316289186478,
      -0.12814295291900635,
      -0.11769336462020874,
      0.1044391468167305,
      0.1469837725162506,
      0.6582285761833191,
      0.45435044169425964,
      -0.22930432856082916,
      0.017996888607740402,
      0.01747787371277809,
      -0.013606484979391098,
      0.3016926944255829,
      0.23891930282115936,
      -0.20109081268310547,
      0.09264851361513138,
      -0.3103794753551483,
      -0.1807040572166443,
      -0.2808193862438202,
      -0.1110570877790451,
      -0.1315395087003708,
      -0.3182060718536377,
      0.13711467385292053,
      0.07986534386873245,
      -0.568865954875946,
      -0.0011403972748667002
    ],
    [
      -0.19516189396381378,
      0.34594860672950745,
      -0.37208956480026245,
      0.06753399223089218,
      -0.07536845654249191,
      0.015270916745066643,
      0.7358301281929016,
      -0.1570138782262802,
      -0.3367728590965271,
      -0.07241307944059372,
      -0.24084165692329407,
      0.26515161991119385,
      -0.04856935888528824,
      0.1560584157705307,
      0.06756466627120972,
      -0.2033594250679016,
      -0.2127695530653,
      -0.10206789523363113,
      0.6041305661201477,
      0.291929692029953,
      -0.23857994377613068,
      -0.178945392370224,
      0.002535649109631777,
      -0.11162788420915604,
      -0.18797270953655243,
      -0.11901779472827911,
      -0.13566163182258606,
      0.01415075734257698,
      -0.2588246166706085,
      -0.00047313320101238787,
      -0.3112250864505768,
      -0.017975011840462685
    ],
    [
      -0.06620548665523529,
      -0.22753868997097015,
      0.27829065918922424,
      0.20931102335453033,
      0.020013874396681786,
      -0.1125202402472496,
      -0.499532014131546,
      0.0489221066236496,
      -0.17666834592819214,
      -0.25756779313087463,
      0.08056969940662384,
      -0.25377389788627625,
      0.3429737687110901,
      -0.2517505884170532,
      -0.07152993232011795,
      -0.10540853440761566,
      0.18003372848033905,
      -0.05818046256899834,
      -0.07164228707551956,
      -0.22862064838409424,
      -0.16681866347789764,
      -0.10849277675151825,
      0.09431090950965881,
      0.008681158535182476,
      0.2864992022514343,
      -0.18412646651268005,
      -0.23337726294994354,
      0.1446378231048584,
      -0.14486633241176605,
      -0.030305637046694756,
      -0.5963307619094849,
      0.43143144249916077
    ],
    [
      0.17454208433628082,
      -0.1122259870171547,
      0.16785818338394165,
      0.5485706925392151,
      -0.10821416229009628,
      -0.15625081956386566,
      -0.08547386527061462,
      -0.01359192468225956,
      0.41181039810180664,
      0.008117016404867172,
      0.071424201130867,
      -0.05771591514348984,
      -0.06192866340279579,
      -0.1987483650445938,
      0.04205441102385521,
      -0.19819152355194092,
      0.026087675243616104,
      -0.0501231774687767,
      -0.5627386569976807,
      -0.03178579732775688,
      -0.07848761230707169,
      0.12441539019346237,
      0.28354504704475403,
      -0.2301996350288391,
      -0.11314325779676437,
      -0.11041449010372162,
      0.46117326617240906,
      0.2263137847185135,
      -0.17389735579490662,
      -0.015414495021104813,
      -0.06917429715394974,
      -0.14285682141780853
    ],
    [
      0.28221452236175537,
      -0.17021723091602325,
      0.37164318561553955,
      0.45120319724082947,
      -0.23861783742904663,
      -0.18841342628002167,
      -0.5758687853813171,
      0.054254334419965744,
      0.15520572662353516,
      0.12811075150966644,
      0.20992879569530487,
      -0.3121062219142914,
      0.06184428930282593,
      -0.05849312245845795,
      -0.055922284722328186,
      0.28727254271507263,
      0.6040465831756592,
      0.046331554651260376,
      -0.6904274821281433,
      -0.1738780438899994,
      -0.24309903383255005,
      0.11853428930044174,
      0.20634686946868896,
      -0.36730143427848816,
      0.06739801913499832,
      -0.16581936180591583,
      0.6249693632125854,
      0.34462156891822815,
      -0.06483916938304901,
      -0.21908770501613617,
      0.030510226264595985,
      0.5869718790054321
    ],
    [
      0.1864493489265442,
      0.22139401733875275,
      0.3626958727836609,
      -0.5035823583602905,
      -0.2918407917022705,
      0.19622401893138885,
      -0.21858128905296326,
      -0.2908201813697815,
      0.3008744418621063,
      -0.5496942400932312,
      0.38053786754608154,
      0.10196217149496078,
      0.18916535377502441,
      0.10285118967294693,
      0.29728949069976807,
      0.09263452142477036,
      0.5879917740821838,
      0.3153305649757385,
      -0.19304491579532623,
      0.7784833908081055,
      -0.42641231417655945,
      0.24284718930721283,
      0.6091029644012451,
      0.08273501694202423,
      0.13914835453033447,
      0.29063037037849426,
      0.055692464113235474,
      0.29618215560913086,
      -0.13873811066150665,
      0.010748352855443954,
      0.4554118514060974,
      0.542023241519928
    ],
    [
      0.25618600845336914,
      -0.1959720104932785,
      -0.2346743941307068,
      -0.25301429629325867,
      -0.33929526805877686,
      0.3038024306297302,
      -0.37830400466918945,
      -0.14658193290233612,
      0.0012623858638107777,
      0.07159904390573502,
      0.27491313219070435,
      0.27018511295318604,
      0.02136845514178276,
      -0.10716548562049866,
      -0.009422731585800648,
      0.28813448548316956,
      -0.035632263869047165,
      0.3253592848777771,
      -0.2602265775203705,
      0.04282618686556816,
      0.028861528262495995,
      0.10389576107263565,
      0.0932057723402977,
      0.10135354846715927,
      -0.16060768067836761,
      -0.04671270400285721,
      -0.08642566949129105,
      -0.09056162089109421,
      0.21205511689186096,
      -0.1458411067724228,
      0.007641978561878204,
      0.1347426027059555
    ],
    [
      0.10901918262243271,
      -0.00893913023173809,
      0.36934614181518555,
      0.29048952460289,
      -0.20527341961860657,
      0.0496501661837101,
      -0.04936646670103073,
      -0.006468886509537697,
      0.25396859645843506,
      -0.4472706615924835,
      -0.4085606038570404,
      -0.26134324073791504,
      0.3514463007450104,
      0.009981739334762096,
      0.0937972441315651,
      -0.26860812306404114,
      -0.09399997442960739,
      0.05954180657863617,
      0.10765808820724487,
      0.3467702269554138,
      0.1523444652557373,
      -0.1339062750339508,
      0.3838323652744293,
      0.36754918098449707,
      0.020201655104756355,
      -0.12183789163827896,
      -0.16834509372711182,
      0.3941290080547333,
      0.07859726250171661,
      0.0904059112071991,
      0.042616404592990875,
      0.11580421775579453
    ]
  ],
  "b2": [
    -0.17621542513370514,
    0.019996870309114456,
    0.035069968551397324,
    0.19376802444458008,
    0.07269676774740219,
    0.18094073235988617,
    0.18971072137355804,
    0.12695157527923584,
    -0.1240028589963913,
    0.21148855984210968,
    0.06553266197443008,
    -0.13622793555259705,
    0.061840929090976715,
    -0.17090074717998505,
    -0.16993366181850433,
    0.2786140441894531,
    -0.19516552984714508,
    0.036228958517313004,
    -0.14830374717712402,
    0.025314783677458763,
    -0.1768951714038849,
    -0.21047388017177582,
    -0.20914097130298615,
    -0.0362553596496582,
    -0.32677289843559265,
    -0.18649332225322723,
    -0.026572855189442635,
    0.027866283431649208,
    -0.0028850880917161703,
    0.4235655665397644,
    -0.06564702838659286,
    0.22994685173034668
  ],
  "W3": [
    [
      0.11165755987167358,
      -0.31239083409309387,
      -0.5186505317687988,
      0.0710110291838646,
      -0.586472749710083,
      0.9511505365371704,
      -0.023170432075858116,
      0.608772337436676,
      0.27952972054481506,
      0.1821931153535843,
      -0.26416611671447754,
      0.3814558982849121,
      -0.792534351348877,
      -0.5436003804206848,
      0.22148893773555756,
      0.4360993206501007,
      0.12821978330612183,
      -0.3002282381057739,
      -0.731479823589325,
      0.1058565005660057,
      0.004086412489414215,
      -0.13359898328781128,
      -0.1142253577709198,
      -0.6844698786735535,
      0.4064984917640686,
      -0.024460986256599426,
      0.5879843235015869,
      -0.5556153059005737,
      0.30737069249153137,
      -0.07386314868927002,
      0.525916337966919,
      -0.31115293502807617
    ],
    [
      -0.4445423483848572,
      -0.211483895778656,
      -0.36762872338294983,
      0.6215368509292603,
      0.40137869119644165,
      0.19395284354686737,
      0.3149726390838623,
      0.4036562740802765,
      -0.5489317774772644,
      0.31636321544647217,
      -0.042112480849027634,
      0.2446032464504242,
      0.4045708179473877,
      0.19977639615535736,
      -0.5542739629745483,
      -0.11090128123760223,
      -0.6881110668182373,
      -0.23562775552272797,
      -0.6982197165489197,
      -0.18284936249256134,
      -0.7707964181900024,
      -0.7861525416374207,
      -0.2594311833381653,
      -0.11336829513311386,
      -0.13082483410835266,
      -0.12256501615047455,
      -0.0787871927022934,
      -0.17766040563583374,
      0.1741989254951477,
      0.25870999693870544,
      0.48627030849456787,
      -0.053328342735767365
    ],
    [
      -0.5313557386398315,
      -0.2400975376367569,
      -0.70936518907547,
      0.0049158623442053795,
      -1.1508047580718994,
      -0.037507377564907074,
      0.9741294980049133,
      -0.4848949909210205,
      0.27510106563568115,
      0.025394998490810394,
      -0.9680532217025757,
      -0.37954646348953247,
      -0.8168509006500244,
      0.8588131070137024,
      0.736314058303833,
      0.953925371170044,
      -0.7191084027290344,
      -0.9090598225593567,
      0.2753605842590332,
      0.884092390537262,
      -0.3373080790042877,
      -0.3485569655895233,
      -0.04012627899646759,
      0.7043367624282837,
      -0.4801584482192993,
      -0.25288692116737366,
      -0.8535460829734802,
      0.18397623300552368,
      0.5080350637435913,
      -0.16921086609363556,
      -0.055915094912052155,
      -1.0071771144866943
    ],
    [
      -0.9551482200622559,
      0.9167068004608154,
      -0.9796763062477112,
      0.17133735120296478,
      0.8638701438903809,
      1.0707859992980957,
      0.2977737486362457,
      0.937606692314148,
      0.292734831571579,
      0.893754243850708,
      1.05774986743927,
      -1.0904736518859863,
      -0.5632131099700928,
      0.8712926506996155,
      -0.8070118427276611,
      0.788202166557312,
      0.1577756255865097,
      -0.7729881405830383,
      0.21347540616989136,
      0.8214654922485352,
      0.5318952798843384,
      -0.32930073142051697,
      -0.7736509442329407,
      0.7857389450073242,
      -0.6015148758888245,
      -1.0413485765457153,
      0.4379342794418335,
      1.1762455701828003,
      1.2231916189193726,
      -0.6562171578407288,
      -0.6849350333213806,
      0.4600948989391327
    ]
  ],
  "b3": [
    0.03715086728334427,
    0.28323426842689514,
    -0.09940111637115479,
    0.3192148208618164
  ],
  "loss": [
    0.3353037860776697,
    0.14048066686484076,
    0.10454543883956614,
    0.07874619178030462,
    0.05929427766906364,
    0.044911978694255505,
    0.03635568412885602,
    0.031163012168170617,
    0.027719790570526606,
    0.0251249040863643,
    0.023019726715228034,
    0.02117050445910233,
    0.019521760773689795,
    0.01797419849303662,
    0.016496111257722424,
    0.015060884837848357,
    0.01368052292257614,
    0.012358120076463646,
    0.011089636911665798,
    0.009882307260773987,
    0.008757186639871049,
    0.0077547566130912555,
    0.006912341936618932,
    0.006218910573460605,
    0.005632756110225316,
    0.0051260545165167145,
    0.004688840528182308,
    0.004316279366321396,
    0.004002945300488223,
    0.00373872617603324,
    0.0035082659995255413,
    0.0032979001525312752,
    0.0031037188739338447,
    0.0029288098164778646,
    0.0027732473640103956,
    0.0026341598315325213,
    0.002509306548052423,
    0.0023954214966146366,
    0.002290184481396517,
    0.002193463374472534,
    0.002104314679551559,
    0.0020205693709569807,
    0.0019420558119669468,
    0.001869387753166458,
    0.0018019961453752504,
    0.0017393691461100908,
    0.001681299958103669,
    0.0016274850465942152,
    0.001577316683410789,
    0.0015300948060550062,
    0.0014853529234339173,
    0.0014429540769058456,
    0.0014029662552708206,
    0.0013655210246465036,
    0.0013307052845664743,
    0.0012985026246280455,
    0.0012687419070321734,
    0.001241097994005984,
    0.0012151698900284135,
    0.0011905796238265577,
    0.0011670583051108267,
    0.0011444611530653976,
    0.0011227415670873597,
    0.0011019211559046415,
    0.0010820421230164357,
    0.0010631286772660956,
    0.001045164940781736,
    0.0010280871325189114,
    0.0010118179187494597,
    0.000996277357314414,
    0.000981392868284491,
    0.0009670817614408277,
    0.0009532485931967607,
    0.000939788507821504,
    0.0009265944997120338,
    0.0009135593642159144,
    0.0009005999170421134,
    0.0008876789368167963,
    0.0008748418800851574,
    0.0008622260048425579,
    0.0008500050041350603,
    0.000838289631376808,
    0.0008270402112906421,
    0.0008160683043700244,
    0.0008051630459141009,
    0.000794243813461868,
    0.0007834467299592992,
    0.0007730720703659158,
    0.0007634626499133273,
    0.000754918988691532,
    0.0007476758837583475,
    0.0007418396354686203,
    0.0007372787049029111,
    0.0007335916511476084,
    0.0007302265810375545,
    0.0007267207790088529,
    0.0007228544508550494,
    0.0007186358360784306,
    0.000714177942773815,
    0.0007096058443061164
  ],
  "vloss": [
    0.45127003498020624,
    0.20328529072659357,
    0.15711696623336702,
    0.12628215524767125,
    0.10206293279216402,
    0.08103644156030246,
    0.06703081106146176,
    0.05825083649584225,
    0.052663783941950114,
    0.04832270000839517,
    0.044602399603241964,
    0.04129133457761435,
    0.03824984876527673,
    0.03531842406040856,
    0.03256361348377097,
    0.029897426654185568,
    0.027166253997988644,
    0.024341063740264093,
    0.021515359935749854,
    0.018809651944875008,
    0.01633498048232425,
    0.014184890991254221,
    0.012419392521093999,
    0.010989429467978576,
    0.00977287206998361,
    0.008690863260112348,
    0.00772578392865225,
    0.006890520913570765,
    0.006209413909042875,
    0.00568482930871791,
    0.0052793819645774506,
    0.004944509338764917,
    0.004652451671149936,
    0.004392034687390108,
    0.004152559966314584,
    0.003931918935406776,
    0.0037377215589263608,
    0.0035729368766104536,
    0.003434409850299181,
    0.003319226077846473,
    0.003218546666349063,
    0.003117926350872343,
    0.00301805712210591,
    0.0029299167425571276,
    0.0028579958182360444,
    0.0028025162561486163,
    0.002761130631413488,
    0.00272888079052791,
    0.002699614101965424,
    0.002668285376525351,
    0.0026324922995020947,
    0.002592468473483764,
    0.0025499966536049862,
    0.002507159970090946,
    0.002465543000393414,
    0.0024259160951866456,
    0.002388205167205472,
    0.002351763335311608,
    0.002315838237769813,
    0.0022799796833645643,
    0.0022442815430362578,
    0.0022092871063034095,
    0.0021757657287664535,
    0.002144457659423573,
    0.002115782451472201,
    0.0020895614843105988,
    0.002065034441849483,
    0.00204117675907799,
    0.002017205940709183,
    0.001992821384365449,
    0.001968094872565763,
    0.0019431771236538356,
    0.001918104191039068,
    0.0018927797458932868,
    0.0018670002415698643,
    0.0018404924256693839,
    0.0018130078658162216,
    0.0017844094005080738,
    0.0017549145143545633,
    0.001725202345932346,
    0.0016962386324026045,
    0.00166868658215251,
    0.0016422897717261332,
    0.0016157247446244583,
    0.0015873158353358684,
    0.0015561354805305157,
    0.0015228461880247952,
    0.0014896944589314184,
    0.0014597678382415324,
    0.0014358334717274243,
    0.0014195046193587284,
    0.0014109843205438839,
    0.0014090337721253967,
    0.0014110710229336594,
    0.0014138549165744778,
    0.0014148125483188778,
    0.0014128776009394123,
    0.001408278611571794,
    0.0014017813026882884,
    0.0013941752951636556
  ],
  "alpha": 0.9
}