{
  "name": "double integrator",
  "W1": [
    [
      -0.15832148492336273,
      0.2277723252773285,
      -0.1153097152709961,
      0.25866466760635376,
      -0.01851743645966053
    ],
    [
      -0.07403525710105896,
      -0.6320719718933105,
      -0.04937145486474037,
      0.050692662596702576,
      -0.009556029923260212
    ],
    [
      0.03886885941028595,
      0.08876649290323257,
      0.045000795274972916,
      0.0852772518992424,
      0.0027149359229952097
    ],
    [
      -0.10708494484424591,
      0.1958952695131302,
      -0.029507383704185486,
      0.11398522555828094,
      0.0019577511120587587
    ],
    [
      -0.08214078098535538,
      -0.15955333411693573,
      -0.025033099576830864,
      -0.027483316138386726,
      0.0018933330429717898
    ],
    [
      -0.020440172404050827,
      0.7665979862213135,
      0.010841403156518936,
      -0.20389726758003235,
      -0.03994050994515419
    ],
    [
      0.08975030481815338,
      -0.7925465106964111,
      0.02534487657248974,
      -0.41570615768432617,
      -0.01525153499096632
    ],
    [
      0.1860271543264389,
      0.19890503585338593,
      -0.06112860143184662,
      0.012276053428649902,
      -0.023164507001638412
    ],
    [
      -0.34519442915916443,
      0.37504667043685913,
      -0.16213126480579376,
      -0.06454204022884369,
      0.05029655992984772
    ],
    [
      -0.05848294496536255,
      -0.05288320407271385,
      0.007164102513343096,
      0.07687031477689743,
      0.007388245314359665
    ],
    [
      0.02856804057955742,
      0.1660471260547638,
      0.4639626443386078,
      -0.04709808900952339,
      0.021119020879268646
    ],
    [
      -0.17492452263832092,
      -0.08199253678321838,
      0.10204486548900604,
      -0.017380669713020325,
      0.03237539902329445
    ],
    [
      0.03879654034972191,
      -0.29399386048316956,
      0.13221688568592072,
      0.13847258687019348,
      0.027606602758169174
    ],
    [
      -0.12309277057647705,
      0.03582316264510155,
      -0.08805442601442337,
      0.0043028900399804115,
      -0.003973961807787418
    ],
    [
      -0.0058484249748289585,
      0.14027039706707,
      0.00422137975692749,
      0.01650451496243477,
      -0.008361409418284893
    ],
    [
      0.028847726061940193,
      -0.5650761127471924,
      0.03639005869626999,
      -0.2795567810535431,
      0.02077811025083065
    ],
    [
      0.03007105365395546,
      0.10642974823713303,
      -0.1511233001947403,
      0.04896733909845352,
      0.002154557965695858
    ],
    [
      -0.15264959633350372,
      -0.10201457887887955,
      0.04534485563635826,
      -0.0634939968585968,
      -0.004122480750083923
    ],
    [
      0.019837258383631706,
      -0.2769041657447815,
      -0.0028671922627836466,
      -0.09310215711593628,
      -0.0034293022472411394
    ],
    [
      0.03671779856085777,
      0.04900288209319115,
      0.07152064144611359,
      -0.15198402106761932,
      -0.01427448634058237
    ],
    [
      -0.03410207852721214,
      0.19954903423786163,
      -0.006941359490156174,
      0.0824330672621727,
      0.00043448476935736835
    ],
    [
      -0.20101216435432434,
      -0.005081054288893938,
      -0.01614990271627903,
      0.024304306134581566,
      0.008397886529564857
    ],
    [
      0.0021300443913787603,
      -0.040843814611434937,
      -0.13476915657520294,
      0.07261662930250168,
      -0.009693348780274391
    ],
    [
      -0.04734831303358078,
      0.13289925456047058,
      0.10747499763965607,
      0.022646963596343994,
      0.002909054048359394
    ],
    [
      0.031749624758958817,
      -0.26975780725479126,
      0.1537078320980072,
      -0.01072772964835167,
      -0.003529566340148449
    ],
    [
      0.06929939985275269,
      -0.3633965253829956,
      -0.08085257560014725,
      0.21729536354541779,
      0.048665549606084824
    ],
    [
      -0.00720110023394227,
      -0.01568014733493328,
      0.032483309507369995,
      -0.1335451900959015,
      -0.005721129942685366
    ],
    [
      0.010129398666322231,
      0.6946349143981934,
      -0.11284271627664566,
      0.033538829535245895,
      0.012034136801958084
    ],
    [
      0.025271503254771233,
      0.8483820557594299,
      -0.2087547928094864,
      -0.1560494601726532,
      -0.029411792755126953
    ],
    [
      0.013955366797745228,
      0.3539596199989319,
      0.040699221193790436,
      0.013880494050681591,
      0.006325733847916126
    ],
    [
      -0.0031970511190593243,
      -0.7320331931114197,
      -0.042914971709251404,
      -0.05086037144064903,
      0.023373141884803772
    ],
    [
      0.07509516924619675,
      -0.7554497718811035,
      -0.07357858866453171,
      -0.03180106356739998,
      -0.017613299190998077
    ]
  ],
  "b1": [
    -0.22370557487010956,
    0.16494028270244598,
    -0.0029289377853274345,
    -0.36429640650749207,
    -0.17177754640579224,
    -0.6226474046707153,
    0.08862663060426712,
    -0.22523805499076843,
    0.8005658984184265,
    0.17707522213459015,
    0.106346495449543,
    -0.33416619896888733,
    0.10345203429460526,
    -0.033621013164520264,
    -0.2571672201156616,
    -0.26691779494285583,
    0.11898676306009293,
    0.11937129497528076,
    0.6656814217567444,
    -0.4236588478088379,
    0.1039065346121788,
    0.11438313126564026,
    -0.06261332333087921,
    -0.05568008869886398,
    0.7675171494483948,
    0.477213054895401,
    -0.13302938640117645,
    -0.010401545092463493,
    0.4298441708087921,
    -0.8432947397232056,
    -0.07230881601572037,
    -0.05383100360631943
  ],
  "W2": [
    [
      0.14233613014221191,
      -0.1745661497116089,
      0.32911285758018494,
      0.09756391495466232,
      -0.03479722887277603,
      -0.1564437597990036,
      0.08568784594535828,
      0.0215605441480875,
      -0.13988728821277618,
      -0.0008422462269663811,
      -0.06372305005788803,
      0.3525375723838806,
      -0.054702144116163254,
      -0.3199053406715393,
      0.0387570895254612,
      0.3630697727203369,
      0.33211037516593933,
      -0.7114100456237793,
      -0.06354202330112457,
      0.07792890816926956,
      0.26312553882598877,
      -0.014117436483502388,
      0.37745124101638794,
      -0.31750577688217163,
      -0.48279446363449097,
      -0.14369583129882812,
      0.0016937688924372196,
      -0.5320717692375183,
      0.007442832458764315,
      0.6625418066978455,
      -0.1473894864320755,
      0.3257053792476654
    ],
    [
      0.3461190164089203,
      -0.34002408385276794,
      -0.0886305645108223,
      0.08689557015895844,
      -0.10439283400774002,
      -0.09342173486948013,
      -0.33229514956474304,
      -0.14706476032733917,
      0.006576317362487316,
      -0.44746512174606323,
      0.20349091291427612,
      0.19838637113571167,
      -0.08813203871250153,
      -0.4294857382774353,
      0.3010540008544922,
      -0.08013564348220825,
      0.13816653192043304,
      0.17164959013462067,
      -0.1424473524093628,
      0.7909843921661377,
      -0.24635381996631622,
      -0.39563074707984924,
      0.1653832197189331,
      -0.08415316790342331,
      -0.3092922568321228,
      0.055756181478500366,
      0.3493693172931671,
      0.0832398310303688,
      0.26085978746414185,
      0.15147776901721954,
      0.3040761351585388,
      0.05513012409210205
    ],
    [
      -0.23790039122104645,
      -0.17238648235797882,
      0.11758130043745041,
      -0.17550618946552277,
      0.30424731969833374,
      -0.10368184000253677,
      -0.09147569537162781,
      0.010131229646503925,
      -0.12644603848457336,
      0.2568013370037079,
      0.035262927412986755,
      -0.03544074669480324,
      0.14546072483062744,
      -0.18232578039169312,
      0.01656072586774826,
      0.007492667995393276,
      -0.06505680084228516,
      0.3264999985694885,
      -0.24013428390026093,
      -0.21430733799934387,
      -0.13928104937076569,
      0.0011796295875683427,
      0.11738360673189163,
      -0.005850775633007288,
      -0.11342374235391617,
      0.340178519487381,
      -0.20449943840503693,
      -0.254660040140152,
      -0.29680532217025757,
      0.1955002099275589,
      -0.19473879039287567,
      0.02760779671370983
    ],
    [
      0.18657176196575165,
      -0.11812466382980347,
      0.13634729385375977,
      0.25214719772338867,
      -0.1235121339559555,
      0.023260952904820442,
      0.2627065181732178,
      0.20990480482578278,
      0.14463286101818085,
      -0.39335155487060547,
      0.12845392525196075,
      0.06543947756290436,
      -0.21906185150146484,
      -0.17955650389194489,
      0.09832926839590073,
      0.31546345353126526,
      -0.2666628062725067,
      -0.19467613101005554,
      -0.10391809791326523,
      -0.01957486942410469,
      0.012285787612199783,
      -0.3378083407878876,
      -0.35019946098327637,
      0.20951703190803528,
      0.2763296365737915,
      -0.18443895876407623,
      0.14715375006198883,
      0.003119747620075941,
      -0.22168421745300293,
      0.6017706394195557,
      0.302874892950058,
      0.1517733335494995
    ],
    [
      -0.19737163186073303,
      0.38778403401374817,
      0.30075961351394653,
      -0.08046235144138336,
      -0.13246431946754456,
      -0.17873020470142365,
      0.2414294332265854,
      -0.04886885732412338,
      0.06206273287534714,
      0.19763782620429993,
      -0.24457870423793793,
      -0.42175012826919556,
      -0.06817549467086792,
      -0.5419723391532898,
      -0.04127083718776703,
      0.19035695493221283,
      -0.3883592188358307,
      -0.16703136265277863,
      -0.12167854607105255,
      -0.44080105423927307,
      -0.19264912605285645,
      0.17988061904907227,
      0.02149714156985283,
      0.18820936977863312,
      0.48625993728637695,
      -0.05691840127110481,
      -0.09020449221134186,
      -0.06006771698594093,
      0.023511746898293495,
      0.08190854638814926,
      -0.33055639266967773,
      0.15496890246868134
    ],
    [
      0.11928559839725494,
      -0.15762050449848175,
      -0.14344201982021332,
      -0.30991271138191223,
      -0.2438427358865738,
      -0.10695314407348633,
      0.21743296086788177,
      0.031568389385938644,
      -0.14403195679187775,
      0.12001378834247589,
      -0.007269279565662146,
      -0.36639153957366943,
      -0.27898475527763367,
      0.16455022990703583,
      -0.3196062743663788,
      -0.273257851600647,
      0.0933828204870224,
      -0.0767192468047142,
      0.11982093006372452,
      -0.010331523604691029,
      0.1389501541852951,
      0.047267209738492966,
      0.16785778105258942,
      -0.5023365020751953,
      0.05775492265820503,
      -0.25613129138946533,
      -0.39364296197891235,
      0.09484431147575378,
      0.21112750470638275,
      -0.06381470710039139,
      0.1191660463809967,
      0.2414660006761551
    ],
    [
      0.03081781044602394,
      -0.0089168231934309,
      0.3400643765926361,
      -0.20203065872192383,
      -0.26389914751052856,
      -0.11637163907289505,
      0.008980805054306984,
      -0.1896573156118393,
      -0.06030448153614998,
      -0.09338121116161346,
      -0.2767013907432556,
      0.0927518904209137,
      0.04619291052222252,
      -0.9400412440299988,
      -0.10774485021829605,
      0.07220717519521713,
      -0.05902823433279991,
      -0.31748178601264954,
      -0.18178866803646088,
      0.24136954545974731,
      -0.017663689330220222,
      -0.4830293655395508,
      -0.4094054102897644,
      -0.2387663871049881,
      -0.09194409847259521,
      0.1707487404346466,
      0.38541656732559204,
      0.27778351306915283,
      -0.020697804167866707,
      -0.15175729990005493,
      0.1288602501153946,
      -0.021221725270152092
    ],
    [
      0.10855662077665329,
      0.08449003100395203,
      0.479561448097229,
      0.3139304518699646,
      -0.12010157108306885,
      0.044956136494874954,
      0.07474742829799652,
      -0.3741755783557892,
      -0.33950844407081604,
      -0.22147580981254578,
      -0.12203118950128555,
      0.44728854298591614,
      -0.1235298365354538,
      0.7763619422912598,
      -0.19447602331638336,
      0.40990468859672546,
      0.3503267168998718,
      -0.1398068368434906,
      -0.7124184370040894,
      0.13398823142051697,
      0.1385297030210495,
      0.44002071022987366,
      0.1873910129070282,
      -0.02382773533463478,
      -0.6795263290405273,
      -0.002327179769054055,
      -0.1284584105014801,
      -0.7413543462753296,
      -0.13146953284740448,
      0.6208392977714539,
      -0.3225744664669037,
      0.5849035382270813
    ],
    [
      0.10980073362588882,
      -0.05730088800191879,
      0.10737022757530212,
      -0.38633668422698975,
      0.026899591088294983,
      0.22806009650230408,
      0.014201103709638119,
      0.2444809079170227,
      0.05987785756587982,
      0.16210229694843292,
      0.0918596163392067,
      0.00862161535769701,
      0.1021266058087349,
      -0.39092564582824707,
      -0.1892549991607666,
      0.031190764158964157,
      -0.2933012843132019,
      0.2300768792629242,
      0.5118882656097412,
      -0.17190790176391602,
      -0.20538440346717834,
      0.021267756819725037,
      0.03381182253360748,
      0.01064886525273323,
      0.10014420002698898,
      -0.29745545983314514,
      -0.12037178128957748,
      0.5610319375991821,
      -0.01770702563226223,
      -0.5187140703201294,
      0.22789490222930908,
      -0.14349257946014404
    ],
    [
      0.2010367065668106,
      0.2861550748348236,
      0.5176652669906616,
      0.2846282422542572,
      0.3187665045261383,
      -0.32837191224098206,
      0.06846395134925842,
      0.24654613435268402,
      0.07675667107105255,
      -0.1448059380054474,
      0.1731996238231659,
      0.24759796261787415,
      0.026157081127166748,
      -0.1151021420955658,
      -0.03247557953000069,
      0.00045046646846458316,
      0.2338530421257019,
      -0.2821730077266693,
      0.003926075529307127,
      0.15784578025341034,
      -0.2167852520942688,
      -0.277743399143219,
      0.4270475208759308,
      -0.6235049962997437,
      -0.14181330800056458,
      0.056783225387334824,
      -0.007267164532095194,
      -0.19897425174713135,
      0.1040780171751976,
      0.4361318051815033,
      0.16731984913349152,
      0.0837557315826416
    ],
    [
      -0.2318650633096695,
      -0.0640176385641098,
      0.3127579689025879,
      0.1196489930152893,
      0.17965993285179138,
      0.23008784651756287,
      0.32300734519958496,
      -0.06806271523237228,
      0.014207367785274982,
      0.4244690537452698,
      -0.6128321290016174,
      0.00920877419412136,
      -0.04579714313149452,
      -0.5275530815124512,
      0.25202038884162903,
      -0.12559647858142853,
      -0.5306848287582397,
      0.180185467004776,
      0.4805408716201782,
      0.04421601817011833,
      -0.22972021996974945,
      0.09833172708749771,
      -0.43835797905921936,
      0.20304785668849945,
      0.15392142534255981,
      -0.24370531737804413,
      0.1320798248052597,
      0.13679824769496918,
      0.02458273433148861,
      0.0654078871011734,
      -0.14919885993003845,
      0.2413315623998642
    ],
    [
      0.31370165944099426,
      -0.18759210407733917,
      -0.4765079915523529,
      0.12145958840847015,
      0.15187864005565643,
      0.14270322024822235,
      -0.10441155731678009,
      0.12675215303897858,
      -0.16862110793590546,
      -0.2679661214351654,
      -0.3723049461841583,
      0.14553284645080566,
      0.09841662645339966,
      -0.5118640065193176,
      -0.10029212385416031,
      0.15734320878982544,
      -0.7179107069969177,
      -0.06908835470676422,
      -0.11778753995895386,
      0.13422051072120667,
      -0.42859381437301636,
      0.004788889084011316,
      -0.2643992304801941,
      -0.10164657980203629,
      0.2264009714126587,
      -0.07300036400556564,
      0.1661738157272339,
      0.4648057818412781,
      -0.43431171774864197,
      0.08665795624256134,
      0.4551270604133606,
      0.0018895186949521303
    ],
    [
      0.06391400843858719,
      0.3415098488330841,
      0.3624626100063324,
      -0.05632458254694939,
      0.04167558252811432,
      0.27670302987098694,
      -0.2922680079936981,
      0.1346631795167923,
      -0.03727499395608902,
      -0.0920867770910263,
      0.30502787232398987,
      -0.1614924818277359,
      0.04562509059906006,
      -0.09720606356859207,
      -0.1988823413848877,
      -0.09477485716342926,
      0.07474558055400848,
      -0.21453188359737396,
      -0.44084489345550537,
      -0.39802229404449463,
      -0.18860097229480743,
      0.020079251378774643,
      -0.3241915702819824,
      0.046901825815439224,
      0.07642991095781326,
      -0.43067434430122375,
      -0.049690131098032,
      -0.2693012058734894,
      0.3381034731864929,
      0.515647828578949,
      -0.09875950217247009,
      0.44537219405174255
    ],
    [
      0.20248354971408844,
      -0.13000719249248505,
      0.40044355392456055,
      0.026123089715838432,
      -0.22520890831947327,
      0.0476469025015831,
      -0.11496490985155106,
      -0.05483376607298851,
      -0.18083421885967255,
      -0.025904778391122818,
      0.06564777344465256,
      -0.006997569464147091,
      -0.21685175597667694,
      -0.6407454609870911,
      -0.1542380303144455,
      0.21905793249607086,
      -0.22482091188430786,
      0.30385857820510864,
      0.029511094093322754,
      -0.4607508182525635,
      0.08418230712413788,
      -0.22963090240955353,
      -0.2932327091693878,
      0.4360642433166504,
      0.037225861102342606,
      -0.14508603513240814,
      -0.09062463045120239,
      0.12871229648590088,
      0.0686206966638565,
      -0.020613357424736023,
      -0.009401912800967693,
      -0.460272878408432
    ],
    [
      -0.2351509928703308,
      -0.19680717587471008,
      -0.2965434193611145,
      0.13764962553977966,
      0.47677040100097656,
      -0.028967030346393585,
      0.15483257174491882,
      0.17874592542648315,
      -0.15442101657390594,
      0.03239980340003967,
      0.04593871161341667,
      0.1288822889328003,
      -0.27737104892730713,
      0.030186595395207405,
      -0.32228419184684753,
      0.09810401499271393,
      -0.2614133358001709,
      -0.10626228153705597,
      -0.16263382136821747,
      0.154718816280365,
      -0.4168611168861389,
      0.19308456778526306,
      0.10865302383899689,
      -0.30455589294433594,
      -0.015194705687463284,
      0.13165025413036346,
      0.38381025195121765,
      0.27798083424568176,
      -0.32871365547180176,
      0.10215365886688232,
      0.21949799358844757,
      -0.3677480220794678
    ],
    [
      0.016415037214756012,
      -0.08483105152845383,
      -0.09640403836965561,
      -0.22414261102676392,
      -0.5794550776481628,
      0.12808462977409363,
      0.06612735986709595,
      -0.20404238998889923,
      0.040545716881752014,
      -0.3464568555355072,
      0.22647051513195038,
      -0.07176942378282547,
      -0.1467176228761673,
      0.32100698351860046,
      0.26520851254463196,
      -0.24442769587039948,
      0.4493686258792877,
      -0.1100800409913063,
      -0.030203022062778473,
      -0.32524174451828003,
      0.23880185186862946,
      -0.1192406564950943,
      0.0032761620823293924,
      0.3704944849014282,
      -0.3755858540534973,
      0.05264895781874657,
      0.4250645339488983,
      0.14832593500614166,
      -0.10106946527957916,
      -0.17926107347011566,
      0.012772651389241219,
      -0.08855655044317245
    ],
    [
      0.001322531490586698,
      -0.2604036033153534,
      -0.5289050340652466,
      -0.03210727125406265,
      -0.14436428248882294,
      -0.029726935550570488,
      -0.15839627385139465,
      0.14690786600112915,
      -0.1758853942155838,
      -0.28716811537742615,
      -0.2742985486984253,
      0.13040491938591003,
      0.08097335696220398,
      -0.38419628143310547,
      0.32155540585517883,
      0.03341454267501831,
      0.19756607711315155,
      -0.08202818036079407,
      -0.16174964606761932,
      -0.19176654517650604,
      0.5857476592063904,
      0.21063187718391418,
      -0.6242238879203796,
      0.38102325797080994,
      -0.12407668679952621,
      0.05706504359841347,
      0.3260805308818817,
      -0.04662112891674042,
      -0.1151471883058548,
      0.2869977056980133,
      0.28758734464645386,
      -0.33198705315589905
    ],
    [
      -0.2727796137332916,
      0.19263142347335815,
      -0.14059260487556458,
      -0.04978150501847267,
      0.020078901201486588,
      0.15154381096363068,
      -0.07090415060520172,
      0.3924035131931305,
      -0.18828566372394562,
      -0.00011439066292950884,
      0.2121904492378235,
      -0.10517600178718567,
      0.094149649143219,
      0.45350563526153564,
      0.26901793479919434,
      -0.18722108006477356,
      0.13199013471603394,
      -0.2206939160823822,
      -0.14726656675338745,
      -0.046335816383361816,
      0.3585817515850067,
      0.16305316984653473,
      0.03909411281347275,
      0.18285581469535828,
      -0.22407174110412598,
      -0.24815510213375092,
      -0.18525171279907227,
      -0.3506675064563751,
      0.025960523635149002,
      0.2969844341278076,
      -0.2977713346481323,
      0.1280524879693985
    ],
    [
      0.01838867738842964,
      0.3091007173061371,
      0.29897159337997437,
      0.41409996151924133,
      -0.11101551353931427,
      -0.12104041874408722,
      -0.1911221295595169,
      0.03973102197051048,
      0.04243818670511246,
      0.007140422239899635,
      0.18930573761463165,
      0.36451026797294617,
      0.3174355924129486,
      0.12050129473209381,
      0.4582856297492981,
      0.27247437834739685,
      -0.1238798275589943,
      0.005257402081042528,
      -0.21775133907794952,
      0.36539119482040405,
      0.283688485622406,
      -0.39692363142967224,
      0.18627606332302094,
      -0.0012847533216699958,
      -0.19455397129058838,
      0.024059871211647987,
      0.04263046756386757,
      -0.2664361894130707,
      -0.1405043601989746,
      0.42794862389564514,
      -0.3098413646221161,
      0.3412337601184845
    ],
    [
      0.10941747575998306,
      0.08093615621328354,
      0.13520634174346924,
      0.24223113059997559,
      0.0839136391878128,
      -0.1109595075249672,
      0.07872982323169708,
      0.027448514476418495,
      -0.016587255522608757,
      0.27370256185531616,
      -0.19174981117248535,
      0.15781328082084656,
      -0.04532409831881523,
      0.3525649905204773,
      -0.014608168043196201,
      -0.025425560772418976,
      -0.36453038454055786,
      0.6246081590652466,
      -0.03343267738819122,
      0.18423590064048767,
      0.006152239162474871,
      0.4549379050731659,
      -0.044608183205127716,
      0.3828704357147217,
      -0.14474904537200928,
      -0.09704086184501648,
      0.1815400868654251,
      0.15880629420280457,
      0.15680710971355438,
      0.01447004359215498,
      0.09287545084953308,
      -0.07877960801124573
    ],
    [
      -0.19143708050251007,
      0.1453334540128708,
      -0.3475732207298279,
      0.1468113511800766,
      0.2969852089881897,
      -0.01845262572169304,
      0.24303008615970612,
      0.022405078634619713,
      -0.05378333106637001,
      -0.13738718628883362,
      -0.3785642683506012,
      0.32013657689094543,
      -0.2090928554534912,
      0.04677607864141464,
      0.16865500807762146,
      -0.14729508757591248,
      0.12004432082176208,
      0.026335163041949272,
      -0.06701356917619705,
      0.13913047313690186,
      -0.06695369631052017,
      -0.1205596923828125,
      0.2673851549625397,
      -0.13961531221866608,
      0.01926112174987793,
      -0.22621652483940125,
      0.22135266661643982,
      0.20389904081821442,
      0.16068239510059357,
      -0.01232308428734541,
      -0.23972764611244202,
      -0.06102699786424637
    ],
    [
      0.0592658556997776,
      -0.16102856397628784,
      -0.0015276481863111258,
      -0.0018470919458195567,
      0.22084245085716248,
      0.006140498444437981,
      0.12819959223270416,
      0.10600166767835617,
      -0.09782744199037552,
      -0.44094225764274597,
      -0.09999577701091766,
      0.34289366006851196,
      -0.05415453016757965,
      0.15130621194839478,
      0.24794532358646393,
      -0.17889563739299774,
      -0.35414791107177734,
      0.0856190100312233,
      -0.4025796949863434,
      0.23883679509162903,
      0.026044417172670364,
      0.19682173430919647,
      -0.22821685671806335,
      0.23005637526512146,
      -0.06965367496013641,
      -0.22392722964286804,
      0.4359353482723236,
      0.21296103298664093,
      0.0025912909768521786,
      0.5636692047119141,
      0.2690724730491638,
      -0.3362549841403961
    ],
    [
      -0.04745067283511162,
      -0.2241142839193344,
      -0.17417311668395996,
      0.06022102013230324,
      0.17073948681354523,
      0.04512403532862663,
      0.21638476848602295,
      -0.1536262035369873,
      -0.1594781130552292,
      -0.0982532873749733,
      -0.00416247034445405,
      -0.06821621209383011,
      0.034576211124658585,
      0.3204759657382965,
      -0.30610090494155884,
      0.0856662318110466,
      0.11585727334022522,
      -0.13409548997879028,
      -0.2952767014503479,
      0.34389528632164,
      -0.3890555799007416,
      -0.25867724418640137,
      0.5611600875854492,
      -0.23586322367191315,
      0.17239511013031006,
      0.004755028989166021,
      0.38644641637802124,
      0.012886380776762962,
      -0.24259604513645172,
      0.2605474591255188,
      0.23996087908744812,
      -0.26356077194213867
    ],
    [
      -0.23571531474590302,
      -0.31311872601509094,
      -0.21340899169445038,
      0.14366042613983154,
      0.157411590218544,
      0.1809268593788147,
      0.08308792859315872,
      0.14929918944835663,
      0.23288662731647491,
      0.36612793803215027,
      0.22370833158493042,
      0.012556074187159538,
      -0.020994316786527634,
      0.29365506768226624,
      -0.0975128561258316,
      -0.19235312938690186,
      0.04549871385097504,
      -0.008959170430898666,
      0.20322392880916595,
      0.20108085870742798,
      -0.11437084525823593,
      -0.1733049601316452,
      0.024254262447357178,
      -0.24619314074516296,
      0.19171203672885895,
      -0.30969125032424927,
      0.18715496361255646,
      0.48927849531173706,
      -0.20070506632328033,
      -0.6941983699798584,
      0.20016245543956757,
      -0.08349573612213135
    ],
    [
      -0.12022381275892258,
      0.018779143691062927,
      0.6018450260162354,
      0.5643957257270813,
      -0.05938740447163582,
      -0.3339464068412781,
      0.23118017613887787,
      -0.2087719440460205,
      -0.4013548791408539,
      0.029971227049827576,
      -0.4436248242855072,
      0.01334797777235508,
      0.17045406997203827,
      0.12186650931835175,
      0.4831796884536743,
      0.0626036748290062,
      -0.047847311943769455,
      -0.17675460875034332,
      -0.6392815113067627,
      0.341606080532074,
      0.3676207661628723,
      -0.31000545620918274,
      -0.2071385234594345,
      0.18087290227413177,
      -0.3687863051891327,
      0.03309297561645508,
      0.15796242654323578,
      -0.5617887377738953,
      -0.4644886553287506,
      1.2913814783096313,
      0.14261019229888916,
      0.4326360821723938
    ],
    [
      0.2626478970050812,
      0.29177725315093994,
      0.3347074091434479,
      0.3140161633491516,
      0.09602535516023636,
      0.4575748145580292,
      0.0008153218077495694,
      0.007656417321413755,
      0.4292912781238556,
      0.031316470354795456,
      -0.04705103859305382,
      -0.1683184951543808,
      -0.18494565784931183,
      -0.08394549787044525,
      -0.2546336054801941,
      -0.18824833631515503,
      0.3004154860973358,
      -0.4259280264377594,
      -0.6311215162277222,
      -0.2560092806816101,
      -0.033950112760066986,
      0.16338810324668884,
      -0.2269364595413208,
      0.16041390597820282,
      -0.5105399489402771,
      -0.30838605761528015,
      -0.36524900794029236,
      -0.17879241704940796,
      0.08111518621444702,
      0.40685704350471497,
      0.08601636439561844,
      0.3709279000759125
    ],
    [
      -0.325764924287796,
      0.42779740691185,
      0.3131696879863739,
      -0.11413870006799698,
      0.31530675292015076,
      0.2180313766002655,
      0.19027645885944366,
      0.23247785866260529,
      0.4976314902305603,
      0.40400660037994385,
      0.11892279237508774,
      -0.06629129499197006,
      -0.19228266179561615,
      -0.16177555918693542,
      -0.4645264148712158,
      0.017095064744353294,
      0.08044251799583435,
      0.2691075801849365,
      0.1976458728313446,
      -0.7110947966575623,
      -0.28487077355384827,
      -0.04742385447025299,
      0.15789763629436493,
      -0.2984273135662079,
      0.4686300754547119,
      -0.3076929748058319,
      -0.20085714757442474,
      -0.41111594438552856,
      0.385303258895874,
      -0.7481603622436523,
      -0.33398202061653137,
      0.3174061179161072
    ],
    [
      -0.10467700660228729,
      -0.28474316000938416,
      0.14992275834083557,
      -0.32965967059135437,
      0.3357650637626648,
      0.03601502254605293,
      -0.31090402603149414,
      -0.046236589550971985,
      -0.16331668198108673,
      -0.12811905145645142,
      0.13040873408317566,
      0.05216947942972183,
      0.07307036221027374,
      -0.3238149881362915,
      -0.3468879163265228,
      -0.34853827953338623,
      -0.09902306646108627,
      -0.20285402238368988,
      0.370284765958786,
      0.20021212100982666,
      -0.4627258777618408,
      0.335187166929245,
      0.020299144089221954,
      0.12656930088996887,
      0.16097256541252136,
      0.15187954902648926,
      -0.22211666405200958,
      0.025341082364320755,
      0.14559295773506165,
      -0.4010576903820038,
      -0.0451304093003273,
      -0.10837600380182266
    ],
    [
      -0.2308470904827118,
      -0.6551646590232849,
      -0.42714980244636536,
      -0.1631610244512558,
      0.060196734964847565,
      0.0018926067277789116,
      0.1731877475976944,
      0.06506442278623581,
      -0.12156015634536743,
      -0.22309857606887817,
      0.12667840719223022,
      0.23756401240825653,
      0.23046602308750153,
      0.03186260163784027,
      -0.10335366427898407,
      0.1828373670578003,
      0.03255637362599373,
      0.1771366149187088,
      0.11135841906070709,
      0.5030158162117004,
      -0.18111222982406616,
      -0.11984585970640182,
      0.1949213296175003,
      -0.25998571515083313,
      -0.45627325773239136,
      0.21839585900306702,
      -0.06288768351078033,
      0.2358366698026657,
      -0.6336084604263306,
      -0.34358981251716614,
      0.1348566710948944,
      -0.03963029012084007
    ],
    [
      0.017559446394443512,
      0.17258648574352264,
      0.27415886521339417,
      0.003860906232148409,
      0.043012384325265884,
      -0.07440675050020218,
      0.271323561668396,
      -0.07785732299089432,
      0.22762255370616913,
      0.21287386119365692,
      0.2829189598560333,
      0.170456200838089,
      -0.2894827127456665,
      -0.305422842502594,
      -0.18709978461265564,
      -0.1698162704706192,
      -0.006440557539463043,
      -0.10642248392105103,
      0.21744787693023682,
      -0.16005827486515045,
      -0.023778287693858147,
      -0.04441419616341591,
      -0.20447131991386414,
      0.3952409625053406,
      0.16073571145534515,
      0.0076264794915914536,
      0.03604807332158089,
      0.09731751680374146,
      0.22893229126930237,
      0.09059911221265793,
      -0.02784394659101963,
      0.04607328400015831
    ],
    [
      -0.18305379152297974,
      -0.3101474642753601,
      -0.35501977801322937,
      -0.7026933431625366,
      -0.20346063375473022,
      0.3397098779678345,
      -0.21111571788787842,
      -0.053799599409103394,
      0.29642409086227417,
      0.19685684144496918,
      0.5285545587539673,
      -0.13069550693035126,
      -0.04192744195461273,
      -0.20826081931591034,
      -0.09157955646514893,
      -0.5508783459663391,
      0.6490322947502136,
      -0.019343748688697815,
      1.2385584115982056,
      -0.5033397078514099,
      -0.4315846562385559,
      0.08434506505727768,
      0.4071054756641388,
      -0.37750008702278137,
      1.0829991102218628,
      -0.27485984563827515,
      -0.4591272473335266,
      0.08660513162612915,
      0.2151068150997162,
      -1.8571773767471313,
      -0.14879083633422852,
      0.10774381458759308
    ],
    [
      0.054147928953170776,
      -0.1560872346162796,
      -0.4055480360984802,
      -0.2919601500034332,
      0.034381747245788574,
      0.08324114233255386,
      -0.3058328926563263,
      -0.03722705319523811,
      0.17001165449619293,
      -0.5261964201927185,
      0.154428169131279,
      0.11559144407510757,
      0.05223284289240837,
      -0.01418418437242508,
      0.06132588908076286,
      -0.2198883295059204,
      -0.0470006950199604,
      0.23700334131717682,
      0.4479024410247803,
      0.3329896628856659,
      -0.09063021093606949,
      0.08430670946836472,
      0.0599483959376812,
      -0.49414193630218506,
      -0.21526600420475006,
      0.2420915961265564,
      0.04928968846797943,
      0.3125510811805725,
      0.13821125030517578,
      -0.7779040932655334,
      -0.006642145570367575,
      -0.3509393036365509
    ]
  ],
  "b2": [
    0.20995114743709564,
    -0.30407604575157166,
    -0.037630677223205566,
    0.02656160667538643,
    0.09530283510684967,
    -0.02365303598344326,
    -0.10162682831287384,
    0.37430378794670105,
    -0.15394863486289978,
    -0.1191999688744545,
    -0.06964388489723206,
    -0.5322851538658142,
    0.26270240545272827,
    0.08779747784137726,
    -0.4412558376789093,
    0.21978981792926788,
    0.365715891122818,
    0.2630234360694885,
    0.1798344999551773,
    -0.016749780625104904,
    -0.12296774238348007,
    0.041437987238168716,
    -0.4504142105579376,
    -0.17003720998764038,
    0.06108443811535835,
    0.11155042797327042,
    0.055542293936014175,
    -0.16356241703033447,
    -0.33462244272232056,
    0.219570130109787,
    0.11140736192464828,
    -0.15077239274978638
  ],
  "W3": [
    [
      0.9910749793052673,
      0.36213967204093933,
      -0.20843929052352905,
      0.2040162831544876,
      0.33660754561424255,
      0.07547418773174286,
      1.1057038307189941,
      -0.4103309214115143,
      0.3225417733192444,
      0.12682701647281647,
      0.13463087379932404,
      0.14572620391845703,
      -0.07284184545278549,
      0.09693732857704163,
      -0.2400144338607788,
      0.326099157333374,
      0.1824544221162796,
      0.25415346026420593,
      -0.007955830544233322,
      -1.6539479494094849,
      0.04609597101807594,
      -0.16270290315151215,
      0.30086860060691833,
      -0.27958762645721436,
      0.11907097697257996,
      0.10746309161186218,
      0.08320613205432892,
      0.2024257928133011,
      -0.16436748206615448,
      0.18329057097434998,
      0.19332845509052277,
      0.07073177397251129
    ],
    [
      0.2644120454788208,
      0.10119373351335526,
      -0.5530104041099548,
      0.06226418539881706,
      0.14957398176193237,
      -0.11357107758522034,
      0.07275080680847168,
      -0.2508906126022339,
      -0.5278664231300354,
      -0.5579443573951721,
      -0.07991089671850204,
      -0.466375470161438,
      -0.1879064440727234,
      -0.2148846983909607,
      -0.37061893939971924,
      0.7571309208869934,
      0.826148271560669,
      0.5474036335945129,
      0.29812121391296387,
      -0.17366687953472137,
      -0.16637718677520752,
      0.4665641784667969,
      -0.24107927083969116,
      -0.13668926060199738,
      -0.11534625291824341,
      0.020654477179050446,
      -0.1004582941532135,
      -0.4560539424419403,
      0.15441009402275085,
      0.175620898604393,
      -0.4934253394603729,
      0.1916138231754303
    ],
    [
      -0.811284601688385,
      -0.21872824430465698,
      0.45703911781311035,
      0.5933981537818909,
      0.8837878704071045,
      -0.885663628578186,
      0.37788116931915283,
      -0.21360771358013153,
      0.4880334138870239,
      -0.5720039010047913,
      0.8445991277694702,
      0.9453433156013489,
      0.5626864433288574,
      1.0158624649047852,
      0.00673840893432498,
      -0.29979631304740906,
      0.21921905875205994,
      -0.29536062479019165,
      0.307504802942276,
      0.34911635518074036,
      -0.8075056672096252,
      0.5901927947998047,
      -0.5149463415145874,
      -0.3773619830608368,
      0.412433385848999,
      -0.019852563738822937,
      -0.2338331639766693,
      0.4617649018764496,
      -0.5628264546394348,
      1.03446364402771,
      -0.538868248462677,
      -0.615652859210968
    ],
    [
      0.7205693125724792,
      -0.9384465217590332,
      0.5532745718955994,
      0.014122324995696545,
      1.0573620796203613,
      -0.30416661500930786,
      -0.06566145271062851,
      0.9559814929962158,
      -0.7906813025474548,
      0.3522779047489166,
      -0.45281708240509033,
      -0.6877093315124512,
      0.7428088784217834,
      0.1815786063671112,
      -0.6369304060935974,
      -0.05229741334915161,
      -0.337560772895813,
      0.44856542348861694,
      1.0389318466186523,
      -0.07789025455713272,
      -0.36212679743766785,
      -0.3056349754333496,
      -0.7081670165061951,
      -1.1987484693527222,
      0.7162269353866577,
      1.1738475561141968,
      1.2879972457885742,
      -0.3306455612182617,
      -0.9312347173690796,
      0.6118791699409485,
      -0.818488597869873,
      -0.858284056186676
    ]
  ],
  "b3": [
    -0.06404577195644379,
    0.2608754336833954,
    -0.004831032361835241,
    0.46892571449279785
  ],
  "loss": [
    0.5689113932617363,
    0.15235003058443822,
    0.08893047433923043,
    0.06064000287802801,
    0.04521880104827384,
    0.03638989689560341,
    0.030620126863054577,
    0.026571548064350196,
    0.023578852395682286,
    0.02125742629314551,
    0.019290804109048276,
    0.017492145431571685,
    0.016153999510043787,
    0.015084765769729745,
    0.014140126501886351,
    0.013278914727769526,
    0.012492778134487924,
    0.011777362795934701,
    0.011125989584668008,
    0.01052906117859363,
    0.00997574589564465,
    0.009455794347256111,
    0.008959909087501555,
    0.008479828377035335,
    0.008010184899224745,
    0.0075554077262668645,
    0.0071362780089700775,
    0.006766629878256936,
    0.006419206146563825,
    0.006058728553831489,
    0.005698714626002281,
    0.005383850197609891,
    0.005100021485607916,
    0.004834997896631691,
    0.004600725325179242,
    0.004398122447171426,
    0.004191228762855255,
    0.004001661598782188,
    0.0038315730077253343,
    0.0036400601742830724,
    0.003497993336731313,
    0.0033803747452717894,
    0.00327316875024865,
    0.003158226000128447,
    0.0030385184814111284,
    0.0029244136420034225,
    0.0028186832153421293,
    0.002717040696942214,
    0.0026189227469980586,
    0.002524784638981579,
    0.0024341798562090844,
    0.0023461348516450797,
    0.0022605001525205027,
    0.002178043148541335,
    0.002100325150032794,
    0.0020273495018565363,
    0.001961383411461221,
    0.0019067517738828126,
    0.0018584192941835638,
    0.0018117822927749892,
    0.0017659225968167274,
    0.0017229730763661099,
    0.001684893285398305,
    0.001651253594207533,
    0.0016193948363901914,
    0.0015876984439923295,
    0.0015567244256436382,
    0.001527235626694857,
    0.0014994728463491249,
    0.0014736526520989304,
    0.0014497641358979135,
    0.0014270721471153333,
    0.0014049905238650916,
    0.0013835265185445592,
    0.0013633024358395709,
    0.0013451430360354216,
    0.001328589207246079,
    0.0013124428067905164,
    0.0012964154039287851,
    0.001280880168321476,
    0.0012660879396467603,
    0.0012521176649897825,
    0.0012389614369437499,
    0.001226548369318369,
    0.001214744874838895,
    0.0012033971506753005,
    0.0011924352582441532,
    0.0011818539403196024,
    0.001171691849040577,
    0.001161976411822252,
    0.0011527209161223645,
    0.0011439011633185493,
    0.0011354840909396963,
    0.0011274190799754468,
    0.0011196657322302816,
    0.0011121961191141356,
    0.0011049828920347085,
    0.001098010566714774,
    0.0010912666278142882,
    0.0010847271244399184,
    0.0010783818156813226,
    0.00107221679008078,
    0.00106621749347098,
    0.0010603690485974464,
    0.0010546747514689784,
    0.0010491159752876098,
    0.0010436899016591876,
    0.0010383891522429795,
    0.0010332137698285458,
    0.001028138702947347,
    0.0010231735536113515,
    0.0010183054480529833,
    0.0010135409275313751,
    0.0010088754178945063,
    0.001004326424749923,
    0.0009998916793847457,
    0.0009955836870912684,
    0.0009914022995785455,
    0.0009873389433431882,
    0.00098338215840548,
    0.000979532488383397,
    0.0009757682990831589,
    0.000972082525203448,
    0.0009684641589133424,
    0.0009649156283038403,
    0.0009614178256708241,
    0.0009579819802422121,
    0.000954588010721463,
    0.0009512412053438657,
    0.0009479445538350514,
    0.0009446919577298797,
    0.0009414787883066484,
    0.0009383202809008903,
    0.0009352052268999008,
    0.0009321341345812904,
    0.0009291102363758476,
    0.0009261281465158044,
    0.0009231872314731369,
    0.0009202919633632215,
    0.000917429779205815,
    0.0009146125829872853,
    0.0009118261706524729,
    0.0009090787409929492,
    0.0009063689909193531,
    0.0009036895866128838,
    0.0009010476961044506,
    0.000898442412151434,
    0.0008958663352781773,
    0.0008933283613822866,
    0.0008908196943507175,
    0.0008883526480487836,
    0.0008859192695083385,
    0.0008835212815722029,
    0.0008811598026590044,
    0.0008788370068941731,
    0.0008765544279456316,
    0.0008743076356213784,
    0.0008720853497617922,
    0.0008698930862356931,
    0.0008677191444370518,
    0.0008655529794244406,
    0.0008633956486370326,
    0.0008612430532853718,
    0.0008590942682834187,
    0.000856946687972162,
    0.0008548138979503641,
    0.0008526986215050177,
    0.0008506068406859413,
    0.0008485393456274844,
    0.0008465154886445296,
    0.0008445130505216574,
    0.0008425409356450906,
    0.0008405966502669756,
    0.0008386756929948682,
    0.000836771998798386,
    0.0008348822931501283,
    0.000833007244225536,
    0.0008311434870674496,
    0.0008292883508797136,
    0.0008274458227138634,
    0.0008256026144192132,
    0.0008237712751170399,
    0.0008219443237370191,
    0.0008201191539271912,
    0.0008183039939294325,
    0.0008164976934494916,
    0.0008147009592946796,
    0.0008129289762153002,
    0.0008111718144348179,
    0.00080943919376642,
    0.0008077384459500623,
    0.0008060554062554036,
    0.00080439695340742,
    0.0008027531591887098,
    0.0008011148468843506,
    0.0007994807310751639,
    0.0007978503804008055,
    0.000796214102766022,
    0.000794578222710351,
    0.0007929432069345022,
    0.0007913132630208219,
    0.0007896905508892988,
    0.0007880732711263201,
    0.0007864752821790587,
    0.0007848920651581249,
    0.0007833224093095245,
    0.0007817820206539528,
    0.0007802536103034592,
    0.0007787509145730707,
    0.0007772615662404513,
    0.0007757901358196424,
    0.0007743353119059023,
    0.0007728985723848122,
    0.0007714614335522388,
    0.0007700443737641243,
    0.0007686371016981346,
    0.000767236217576456,
    0.0007658399581920267,
    0.0007644549145230225,
    0.000763081141832074,
    0.000761708097083361,
    0.0007603471200300625,
    0.0007589888262459897,
    0.0007576410566148947,
    0.0007562935809671346,
    0.0007549589006105505,
    0.0007536304851999462,
    0.0007523137431971485,
    0.0007510079239658634,
    0.0007497167138180451,
    0.0007484429030834386,
    0.0007471875355154875,
    0.0007459382092444381,
    0.00074468537648153,
    0.0007434149999989174,
    0.0007420801408616604,
    0.0007406294483059485,
    0.0007390047099934669,
    0.0007371133190948361,
    0.0007349765035628696,
    0.00073286341510192,
    0.0007304776464436491,
    0.0007266567731026693,
    0.0007219045972825759,
    0.0007180801802037639,
    0.0007178197582626515,
    0.0007221100821057224,
    0.0007275343389968233,
    0.0007283474043929129,
    0.0007266080167374596,
    0.0007250396787033727,
    0.0007236950869333842,
    0.0007225330484202242,
    0.0007214862207114319,
    0.0007205056665822797,
    0.0007195745532780642,
    0.0007187107403296977,
    0.0007179272586307931,
    0.0007172148952598772,
    0.0007165738083824094,
    0.0007159671234452011,
    0.0007153831854035767,
    0.0007147933406702664,
    0.0007141565460880797,
    0.0007134391699288418,
    0.0007126230602374389,
    0.000711702674293303,
    0.0007107091824720902,
    0.0007096830550359474,
    0.000708666485263079,
    0.0007076866817702207,
    0.0007067505851279878,
    0.0007058650860147152,
    0.0007050146066051509,
    0.0007042119078895277,
    0.0007034398468455212,
    0.0007027077172963237,
    0.000701998531266803,
    0.0007013210550732245,
    0.0007006489507884474,
    0.0006999773766091536,
    0.0006992995572329077,
    0.000698606101996986,
    0.000697886605935526,
    0.0006971458001533479,
    0.000696390244445952,
    0.0006956282500357789,
    0.0006948655534956959,
    0.0006941152368242564,
    0.0006933815555904792,
    0.000692673699155594,
    0.0006919864040572152,
    0.0006913258079120645,
    0.0006906953538072273,
    0.0006900802535320898,
    0.0006894936523167416,
    0.0006889269461680669,
    0.0006883772893204531,
    0.0006878366433998703,
    0.0006873046496323132
  ],
  "vloss": [
    0.3058144748210907,
    0.16401894390583038,
    0.09991909563541412,
    0.06599964946508408,
    0.04872735217213631,
    0.03929978609085083,
    0.03345149755477905,
    0.02952868491411209,
    0.02668195776641369,
    0.02444545179605484,
    0.022308791056275368,
    0.02059868723154068,
    0.01922481693327427,
    0.018044363707304,
    0.016983792185783386,
    0.016001850366592407,
    0.015080273151397705,
    0.014218777418136597,
    0.01342022605240345,
    0.01267915964126587,
    0.01199210062623024,
    0.011364396661520004,
    0.01079471968114376,
    0.01025407575070858,
    0.009692886844277382,
    0.00911555252969265,
    0.008596697822213173,
    0.008137473836541176,
    0.007724439259618521,
    0.007292848080396652,
    0.006905330345034599,
    0.006581432186067104,
    0.006223827600479126,
    0.005939478985965252,
    0.005580605939030647,
    0.005210410803556442,
    0.004878929816186428,
    0.004591548815369606,
    0.004337959922850132,
    0.004110915120691061,
    0.0038977335207164288,
    0.003677546977996826,
    0.003475579433143139,
    0.003287986619397998,
    0.0031065538059920073,
    0.0029357324820011854,
    0.0027816796209663153,
    0.0026369988918304443,
    0.0024959498550742865,
    0.002359755802899599,
    0.0022338517010211945,
    0.0021229353733360767,
    0.002025225665420294,
    0.0019419852178543806,
    0.0018754564225673676,
    0.0017987651517614722,
    0.0017183724557980895,
    0.0016521054785698652,
    0.0015951545210555196,
    0.0015426590107381344,
    0.0014924367424100637,
    0.0014441829407587647,
    0.001398951979354024,
    0.0013576392084360123,
    0.0013198084197938442,
    0.001284433645196259,
    0.0012510675005614758,
    0.0012192938011139631,
    0.0011886089341714978,
    0.0011594067327678204,
    0.0011327816173434258,
    0.0011090750340372324,
    0.0010874603176489472,
    0.0010661885607987642,
    0.0010439434554427862,
    0.0010223363060504198,
    0.0010037528118118644,
    0.0009879631688818336,
    0.0009735346538946033,
    0.0009595293668098748,
    0.000945553882047534,
    0.0009315384668298066,
    0.0009176619350910187,
    0.0009042681776918471,
    0.0008916067890822887,
    0.0008797057089395821,
    0.0008684207568876445,
    0.0008575688116252422,
    0.0008470212342217565,
    0.0008367336122319102,
    0.000826728530228138,
    0.0008170583751052618,
    0.0008077608072198927,
    0.0007988436846062541,
    0.0007902857032604516,
    0.0007820399478077888,
    0.0007740655564703047,
    0.0007663276046514511,
    0.0007588031003251672,
    0.0007514804601669312,
    0.0007443513022735715,
    0.0007374121341854334,
    0.0007306535844691098,
    0.0007240701233968139,
    0.000717656803317368,
    0.0007114063482731581,
    0.0007053148001432419,
    0.0006993805291131139,
    0.0006936027202755213,
    0.0006879786960780621,
    0.0006825089803896844,
    0.0006771929911337793,
    0.0006720334640704095,
    0.0006670294678770006,
    0.0006621856009587646,
    0.0006575000588782132,
    0.0006529678357765079,
    0.00064858328551054,
    0.0006443366874009371,
    0.0006402176804840565,
    0.0006362118292599916,
    0.0006323125562630594,
    0.0006285053677856922,
    0.00062478834297508,
    0.0006211554864421487,
    0.0006176030728965998,
    0.0006141345947980881,
    0.0006107462686486542,
    0.0006074396660551429,
    0.0006042161257937551,
    0.0006010772194713354,
    0.0005980247515253723,
    0.0005950584309175611,
    0.0005921802949160337,
    0.0005893908673897386,
    0.0005866903811693192,
    0.0005840788362547755,
    0.0005815557087771595,
    0.0005791210569441319,
    0.0005767726106569171,
    0.0005745069356635213,
    0.0005723200738430023,
    0.0005702090566046536,
    0.0005681680049747229,
    0.0005661913892254233,
    0.0005642699543386698,
    0.0005623962497338653,
    0.000560562766622752,
    0.0005587587947957218,
    0.0005569764180108905,
    0.0005552073707804084,
    0.0005534458323381841,
    0.0005516863893717527,
    0.000549925840459764,
    0.0005481674452312291,
    0.0005464155692607164,
    0.0005446785362437367,
    0.0005429666489362717,
    0.0005412910832092166,
    0.0005396613269113004,
    0.0005380827933549881,
    0.0005365540273487568,
    0.000535065948497504,
    0.0005336070898920298,
    0.0005321595235727727,
    0.0005307050887495279,
    0.0005292266723699868,
    0.0005277143209241331,
    0.0005261675687506795,
    0.0005245915381237864,
    0.0005229964153841138,
    0.0005213969852775335,
    0.0005198057624511421,
    0.000518235145136714,
    0.0005166959599591792,
    0.0005151968216523528,
    0.0005137433181516826,
    0.0005123431328684092,
    0.0005109970225021243,
    0.0005097078974358737,
    0.000508479424752295,
    0.0005073106149211526,
    0.000506199081428349,
    0.0005051419720984995,
    0.0005041332915425301,
    0.0005031602340750396,
    0.0005022118566557765,
    0.0005012685433030128,
    0.0005003218539059162,
    0.0004993705078959465,
    0.000498423702083528,
    0.0004974986659362912,
    0.0004966066917404532,
    0.0004957541823387146,
    0.0004949420690536499,
    0.0004941665683872998,
    0.0004934222670271993,
    0.0004927041591145098,
    0.0004920093924738467,
    0.0004913355223834515,
    0.0004906802205368876,
    0.0004900448839180171,
    0.0004894273588433862,
    0.0004888274124823511,
    0.00048824629629962146,
    0.00048768246779218316,
    0.00048713391879573464,
    0.00048659672029316425,
    0.0004860730259679258,
    0.0004855592269450426,
    0.00048505456652492285,
    0.0004845568328164518,
    0.0004840663750655949,
    0.000483579293359071,
    0.00048309550038538873,
    0.0004826076328754425,
    0.0004821131587959826,
    0.00048160419100895524,
    0.000481076305732131,
    0.0004805194912478328,
    0.00047992041800171137,
    0.0004792736144736409,
    0.0004785556229762733,
    0.00047775718849152327,
    0.0004768589569721371,
    0.00047584285493940115,
    0.00047469628043472767,
    0.00047341553727164865,
    0.0004720069409813732,
    0.0004704936291091144,
    0.00046891497913748026,
    0.0004673298099078238,
    0.00046581882634200156,
    0.0004644841537810862,
    0.00046345280134119093,
    0.00046284738346002996,
    0.0004626234294846654,
    0.00046220698277466,
    0.0004607111040968448,
    0.0004583716217894107,
    0.00045604672050103545,
    0.00045398023212328553,
    0.00045212788973003626,
    0.00045061769196763635,
    0.0004492706502787769,
    0.0004496886394917965,
    0.0004550563753582537,
    0.00046030140947550535,
    0.0004610260366462171,
    0.0004604568821378052,
    0.0004598137456923723,
    0.00045916694216430187,
    0.00045855180360376835,
    0.00045797444181516767,
    0.0004574330523610115,
    0.00045692798448726535,
    0.00045645609498023987,
    0.00045600751764141023,
    0.00045556563418358564,
    0.0004551091406028718,
    0.00045462162233889103,
    0.0004540879453998059,
    0.0004535125335678458,
    0.0004528940189629793,
    0.00045224238419905305,
    0.0004515639739111066,
    0.00045086798490956426,
    0.0004501689982134849,
    0.00044947583228349686,
    0.00044880114728584886,
    0.00044815189903602004,
    0.00044753451948054135,
    0.00044695177348330617,
    0.000446395599283278,
    0.00044586279545910656,
    0.0004453450965229422,
    0.00044483414967544377,
    0.0004443189245648682,
    0.00044379703467711806,
    0.0004432612913660705,
    0.00044270840589888394,
    0.00044214146328158677,
    0.0004415640141814947,
    0.00044097882346250117,
    0.0004403888888191432,
    0.00043979979818686843,
    0.00043921556789427996,
    0.0004386392538435757,
    0.0004380703321658075,
    0.00043751252815127373,
    0.0004369625821709633,
    0.00043641607044264674,
    0.0004358729347586632,
    0.00043532479321584105,
    0.0004347673966549337,
    0.00043419748544692993,
    0.0004336105193942785,
    0.0004330085648689419,
    0.00043238489888608456,
    0.00043174356687813997
  ],
  "tloss": [
    0.3524697721004486,
    0.1943058967590332,
    0.1266118884086609,
    0.08906986564397812,
    0.06889110803604126,
    0.05666336417198181,
    0.048689279705286026,
    0.04314526170492172,
    0.03894387185573578,
    0.035557352006435394,
    0.03273490071296692,
    0.03038453683257103,
    0.028488609939813614,
    0.026880264282226562,
    0.02545357123017311,
    0.024148929864168167,
    0.022931315004825592,
    0.021790888160467148,
    0.02072659507393837,
    0.019730545580387115,
    0.018797114491462708,
    0.01792861521244049,
    0.017119603231549263,
    0.01633741706609726,
    0.01553325355052948,
    0.014724016189575195,
    0.01398502103984356,
    0.013285030610859394,
    0.012616731226444244,
    0.011950606480240822,
    0.011378183960914612,
    0.010868863202631474,
    0.010297071188688278,
    0.009836200624704361,
    0.009264755062758923,
    0.008716290816664696,
    0.008232194930315018,
    0.007755163591355085,
    0.007370203733444214,
    0.006996936164796352,
    0.006660038605332375,
    0.0063469503074884415,
    0.00605317298322916,
    0.005779847502708435,
    0.005524300038814545,
    0.005297837313264608,
    0.005095004569739103,
    0.004899804480373859,
    0.00470438227057457,
    0.004509098827838898,
    0.004317532759159803,
    0.004139895550906658,
    0.003990878351032734,
    0.0038821776397526264,
    0.0037918242160230875,
    0.0036541614681482315,
    0.0034979949705302715,
    0.003373111365363002,
    0.0032671173103153706,
    0.003165904665365815,
    0.003065535333007574,
    0.002966112457215786,
    0.002870025113224983,
    0.0027797515504062176,
    0.0026953336782753468,
    0.0026158131659030914,
    0.0025412249378859997,
    0.0024713200982660055,
    0.0024053622037172318,
    0.002343415981158614,
    0.002285888884216547,
    0.002232080325484276,
    0.0021798862144351006,
    0.0021264664828777313,
    0.0020716474391520023,
    0.002020979765802622,
    0.001978717278689146,
    0.0019426483195275068,
    0.001909072743728757,
    0.0018760941457003355,
    0.0018431474454700947,
    0.0018103582551702857,
    0.001778291305527091,
    0.0017476649954915047,
    0.0017188159981742501,
    0.0016915816813707352,
    0.0016655372455716133,
    0.0016402844339609146,
    0.0016156092751771212,
    0.0015914854593575,
    0.0015679997159168124,
    0.0015452641528099775,
    0.0015233327867463231,
    0.0015021983999758959,
    0.001481799641624093,
    0.001462041400372982,
    0.0014428471913561225,
    0.0014241578755900264,
    0.0014059457462280989,
    0.0013881891500204802,
    0.0013708833139389753,
    0.00135401904117316,
    0.001337577821686864,
    0.0013215522048994899,
    0.0013059272896498442,
    0.001290688058361411,
    0.0012758257798850536,
    0.0012613324215635657,
    0.0012472063535824418,
    0.0012334423372521996,
    0.0012200402561575174,
    0.0012070049997419119,
    0.0011943508870899677,
    0.0011820892104879022,
    0.001170240342617035,
    0.0011588139459490776,
    0.001147812930867076,
    0.0011372200679033995,
    0.0011270218528807163,
    0.0011171898804605007,
    0.0011076920200139284,
    0.001098502310924232,
    0.0010895812883973122,
    0.0010809164959937334,
    0.0010724853491410613,
    0.0010642737615853548,
    0.0010562785901129246,
    0.001048485399223864,
    0.0010408934904262424,
    0.0010335001861676574,
    0.0010263081640005112,
    0.0010193183552473783,
    0.0010125277331098914,
    0.0010059410706162453,
    0.00099955836776644,
    0.0009933792753145099,
    0.0009873992530629039,
    0.00098161690402776,
    0.0009760309476405382,
    0.0009706340497359633,
    0.0009654196328483522,
    0.0009603808866813779,
    0.0009555106516927481,
    0.0009508024668321013,
    0.0009462423622608185,
    0.000941823236644268,
    0.000937530305236578,
    0.0009333565831184387,
    0.0009292855393141508,
    0.0009253097232431173,
    0.0009214176097884774,
    0.0009175982559099793,
    0.0009138472960330546,
    0.0009101578034460545,
    0.000906529719941318,
    0.0009029665379785001,
    0.0008994736126624048,
    0.0008960609557107091,
    0.00089273537741974,
    0.0008895073551684618,
    0.0008863824186846614,
    0.0008833549218252301,
    0.0008804149692878127,
    0.0008775510941632092,
    0.0008747439133003354,
    0.0008719692123122513,
    0.0008692153496667743,
    0.0008664630586281419,
    0.0008637147839181125,
    0.0008609702344983816,
    0.0008582388400100172,
    0.0008555348613299429,
    0.0008528686594218016,
    0.0008502494310960174,
    0.0008476866059936583,
    0.0008451926987618208,
    0.0008427720167674124,
    0.0008404326508753002,
    0.000838176638353616,
    0.0008360050851479173,
    0.0008339292835444212,
    0.000831945042591542,
    0.0008300495101138949,
    0.000828239310067147,
    0.0008265066426247358,
    0.0008248290978372097,
    0.0008231957908719778,
    0.0008215770358219743,
    0.0008199653821066022,
    0.0008183635654859245,
    0.0008167820051312447,
    0.0008152535883709788,
    0.0008137878030538559,
    0.0008123931474983692,
    0.0008110684575513005,
    0.0008098079706542194,
    0.0008085971930995584,
    0.0008074291981756687,
    0.0008062947308644652,
    0.0008051899494603276,
    0.0008041110122576356,
    0.0008030559401959181,
    0.0008020245004445314,
    0.0008010130259208381,
    0.0008000264642760158,
    0.0007990619633346796,
    0.0007981171947903931,
    0.0007971873274073005,
    0.0007962767849676311,
    0.0007953826570883393,
    0.000794507097452879,
    0.0007936415495350957,
    0.0007927875849418342,
    0.0007919410127215087,
    0.0007911018328741193,
    0.0007902567158453166,
    0.0007894004229456186,
    0.00078852369915694,
    0.0007876177551224828,
    0.0007866664091125131,
    0.0007856508018448949,
    0.0007845627842471004,
    0.0007833666168153286,
    0.0007820470491424203,
    0.0007805739296600223,
    0.0007789140800014138,
    0.0007770448573864996,
    0.0007749496144242585,
    0.000772623810917139,
    0.0007700836285948753,
    0.0007673584041185677,
    0.0007645012228749692,
    0.0007615913636982441,
    0.0007587212021462619,
    0.000756016350351274,
    0.000753635773435235,
    0.0007516681216657162,
    0.0007498207269236445,
    0.0007474191952496767,
    0.0007442194037139416,
    0.0007404236239381135,
    0.0007365973433479667,
    0.0007334562251344323,
    0.000731256790459156,
    0.000728868180885911,
    0.0007290116627700627,
    0.0007359549636021256,
    0.0007425448857247829,
    0.0007430680561810732,
    0.000741912517696619,
    0.0007406817749142647,
    0.0007394426502287388,
    0.0007382282055914402,
    0.0007370362291112542,
    0.0007358816219493747,
    0.0007347873179242015,
    0.0007337797433137894,
    0.0007328783394768834,
    0.0007320821168832481,
    0.0007313737878575921,
    0.0007307130726985633,
    0.0007300419383682311,
    0.0007293181261047721,
    0.0007284933235496283,
    0.0007275479729287326,
    0.0007264866726472974,
    0.0007253329968079925,
    0.0007241299608722329,
    0.0007229128968901932,
    0.000721717078704387,
    0.0007205628789961338,
    0.000719464966095984,
    0.0007184304995462298,
    0.0007174538914114237,
    0.0007165322313085198,
    0.0007156581850722432,
    0.0007148253498598933,
    0.0007140159723348916,
    0.000713219924364239,
    0.0007124209078028798,
    0.00071160146035254,
    0.0007107589626684785,
    0.0007098837522789836,
    0.0007089800201356411,
    0.0007080490468069911,
    0.0007071031141094863,
    0.0007061532232910395,
    0.0007052095606923103,
    0.000704279518686235,
    0.0007033720030449331,
    0.0007024865481071174,
    0.0007016207091510296,
    0.00070077960845083,
    0.0006999493343755603,
    0.0006991235422901809,
    0.0006982985651120543,
    0.0006974652642384171,
    0.0006966235814616084,
    0.0006957590230740607,
    0.0006948735099285841
  ],
  "alpha": 0.2
}