{
  "name": "double integrator",
  "W1": [
    [
      0.13845182955265045,
      0.12202330678701401,
      -0.009070836938917637,
      0.022728977724909782,
      0.00010672907228581607
    ],
    [
      -0.10776787996292114,
      0.41043421626091003,
      0.04802367836236954,
      0.024020861834287643,
      0.0501183457672596
    ],
    [
      0.0023067162837833166,
      0.28976210951805115,
      0.10215067118406296,
      -0.1517186164855957,
      0.0009026131592690945
    ],
    [
      0.005416674539446831,
      0.8824184536933899,
      0.010575848631560802,
      0.04195239767432213,
      0.016337433829903603
    ],
    [
      -0.02031216397881508,
      -0.08389850705862045,
      -0.13225610554218292,
      -0.043696388602256775,
      -0.006845184601843357
    ],
    [
      0.006877519190311432,
      -0.6425701975822449,
      0.05850761756300926,
      0.026431681588292122,
      -0.01591651886701584
    ],
    [
      0.15093694627285004,
      -0.024885905906558037,
      0.05603855475783348,
      -0.0001063292584149167,
      0.00248351925984025
    ],
    [
      -0.04702584818005562,
      -0.05174184590578079,
      0.10245880484580994,
      0.014091802760958672,
      0.002350702416151762
    ],
    [
      0.018820390105247498,
      0.5494648218154907,
      0.026426585391163826,
      0.03259610757231712,
      0.013381858356297016
    ],
    [
      -0.12346351891756058,
      -0.2048799842596054,
      -0.23035144805908203,
      0.1677170842885971,
      0.09857767075300217
    ],
    [
      0.0034479708410799503,
      -0.17571087181568146,
      0.07613945752382278,
      -0.10526758432388306,
      -0.006846001837402582
    ],
    [
      0.028183430433273315,
      -0.1358286440372467,
      0.16043448448181152,
      -0.013903448358178139,
      -0.0212290920317173
    ],
    [
      -0.010130626149475574,
      0.09667734801769257,
      0.23689475655555725,
      0.13219121098518372,
      0.0463249534368515
    ],
    [
      -0.09153210371732712,
      -0.17839229106903076,
      0.069549560546875,
      0.04852059483528137,
      0.023792671039700508
    ],
    [
      0.08734225481748581,
      -0.11957955360412598,
      0.11756465584039688,
      0.03398670256137848,
      0.03784259036183357
    ],
    [
      -0.013382122851908207,
      0.18749572336673737,
      0.022203544154763222,
      0.09097354114055634,
      0.003900939831510186
    ],
    [
      -0.0035354983992874622,
      -0.19692790508270264,
      0.008936810307204723,
      -0.09354674071073532,
      -0.00794452615082264
    ],
    [
      -0.03265603631734848,
      0.23057132959365845,
      -0.00667207408696413,
      0.09166514128446579,
      0.0024628129322081804
    ],
    [
      0.0005480163381434977,
      -0.7776439189910889,
      -0.023968206718564034,
      -0.0521700344979763,
      0.021681547164916992
    ],
    [
      -0.1115623340010643,
      -0.39757269620895386,
      -0.0019161454401910305,
      0.0013973602326586843,
      0.05709829181432724
    ],
    [
      0.030901221558451653,
      0.383174329996109,
      0.03776051104068756,
      0.03854759410023689,
      0.005492175463587046
    ],
    [
      -0.07755983620882034,
      -0.3367446959018707,
      0.05893177166581154,
      -0.3427087962627411,
      -0.03431783989071846
    ],
    [
      -0.012545134872198105,
      -0.17758089303970337,
      -0.12753038108348846,
      0.11836729198694229,
      0.023753222078084946
    ],
    [
      -0.05083484947681427,
      -0.1561061143875122,
      -0.12266310304403305,
      -0.024954212829470634,
      -0.0035183527506887913
    ],
    [
      -0.03896128386259079,
      -0.1583000272512436,
      -0.013653500936925411,
      0.09167581796646118,
      0.01725730299949646
    ],
    [
      0.019704043865203857,
      -0.13931825757026672,
      0.07505340129137039,
      0.008500908501446247,
      0.0105022843927145
    ],
    [
      0.09094446897506714,
      -0.13041873276233673,
      -0.0639074444770813,
      0.026945549994707108,
      -0.002290045376867056
    ],
    [
      -0.028723062947392464,
      0.0714254230260849,
      -0.006836778949946165,
      0.14245571196079254,
      0.011577549390494823
    ],
    [
      -0.04276805743575096,
      0.2663469612598419,
      -0.027517493814229965,
      -0.057489048689603806,
      0.03436765447258949
    ],
    [
      -0.027560776099562645,
      0.39492058753967285,
      -0.06306160241365433,
      0.07152610272169113,
      0.0037992815487086773
    ],
    [
      0.1458851844072342,
      0.439495325088501,
      0.10261180996894836,
      -0.16418592631816864,
      -0.03526298329234123
    ],
    [
      0.0077338265255093575,
      -0.005639782641083002,
      0.1008521169424057,
      -0.07940561324357986,
      0.016710855066776276
    ]
  ],
  "b1": [
    -0.4746420085430145,
    0.7200292944908142,
    -0.9378090500831604,
    -0.15089240670204163,
    -0.10242947936058044,
    -0.3597901165485382,
    -0.01449317205697298,
    -0.17045651376247406,
    -0.7609918117523193,
    0.8626013398170471,
    0.15708544850349426,
    -0.7021656036376953,
    -0.601829469203949,
    -0.686546266078949,
    -0.6490508317947388,
    -0.26629090309143066,
    -0.3619087040424347,
    -0.35181865096092224,
    -0.056100595742464066,
    0.37680357694625854,
    -0.8559832572937012,
    -0.0564328171312809,
    0.3051098585128784,
    -0.2696364223957062,
    0.3385855555534363,
    0.5106019377708435,
    0.4489132761955261,
    -0.18653954565525055,
    -0.7199742794036865,
    -0.9940450191497803,
    -0.19044439494609833,
    0.36169737577438354
  ],
  "W2": [
    [
      -0.19574251770973206,
      0.1911163181066513,
      0.24431245028972626,
      0.11142650246620178,
      -0.3811477720737457,
      -0.04583439230918884,
      -0.378569632768631,
      0.6509472131729126,
      -0.27671682834625244,
      -0.06717328727245331,
      0.36805886030197144,
      -0.03915492817759514,
      0.017894670367240906,
      0.031997378915548325,
      0.2263776808977127,
      0.24452045559883118,
      0.3196896016597748,
      -0.31452664732933044,
      -0.02055574208498001,
      -0.07067446410655975,
      0.1200595572590828,
      -0.1321224868297577,
      -0.08171727508306503,
      0.3030412495136261,
      0.2535944879055023,
      0.279633104801178,
      -0.25747430324554443,
      -0.01044760923832655,
      -0.04179979860782623,
      -0.1786561906337738,
      0.10693218559026718,
      -0.2853368818759918
    ],
    [
      0.42855361104011536,
      -0.13502605259418488,
      0.6535075902938843,
      -0.5895915627479553,
      0.1521146595478058,
      0.6732602715492249,
      -0.36277541518211365,
      0.033193133771419525,
      0.7035502791404724,
      -0.11652692407369614,
      -0.19793185591697693,
      0.20837706327438354,
      -0.1399020403623581,
      0.26716551184654236,
      -0.1823062002658844,
      0.43538281321525574,
      -0.004931364208459854,
      0.549492597579956,
      0.03793492913246155,
      0.4766475558280945,
      1.0569713115692139,
      0.27909499406814575,
      0.18839354813098907,
      0.16659697890281677,
      0.11551281064748764,
      -0.5093953013420105,
      -0.15844884514808655,
      0.20294813811779022,
      -0.27367672324180603,
      1.238561987876892,
      -0.5760751366615295,
      -0.5762606263160706
    ],
    [
      -0.0760510116815567,
      -0.09927958995103836,
      0.1203182116150856,
      -0.23052260279655457,
      -0.3732098340988159,
      0.4392678737640381,
      -0.20392346382141113,
      0.3213832676410675,
      -0.1072874516248703,
      0.0018783198902383447,
      -0.19217151403427124,
      -0.00873297918587923,
      0.2234688401222229,
      -0.3796931207180023,
      -0.37650904059410095,
      0.05013684555888176,
      -0.4546511471271515,
      0.10753271728754044,
      0.18036670982837677,
      -0.05335674434900284,
      0.3058162033557892,
      0.04427812993526459,
      0.01032827328890562,
      -0.21784785389900208,
      0.29849106073379517,
      0.44610604643821716,
      -0.11685448884963989,
      -0.015398934483528137,
      -0.26928433775901794,
      0.020040135830640793,
      0.13676787912845612,
      0.30599868297576904
    ],
    [
      -0.529099702835083,
      -0.1298486441373825,
      -0.203083798289299,
      0.3714148998260498,
      -0.26228296756744385,
      -0.28390902280807495,
      -0.010733417235314846,
      0.31636321544647217,
      0.06386395543813705,
      -0.09127647429704666,
      0.7028408646583557,
      -0.06250980496406555,
      -0.15972250699996948,
      -0.07473572343587875,
      0.012204289436340332,
      -0.06806197762489319,
      0.16255773603916168,
      0.21674613654613495,
      -0.1808118224143982,
      0.20196442306041718,
      -0.5219892263412476,
      -0.10138090699911118,
      -0.08620637655258179,
      -0.2073313295841217,
      0.010283066891133785,
      0.1768420934677124,
      -0.2553451955318451,
      -0.16752183437347412,
      -0.003966362215578556,
      -0.7586848735809326,
      0.09419114887714386,
      0.09456014633178711
    ],
    [
      0.21982353925704956,
      0.2362775057554245,
      -0.055333930999040604,
      0.3747364282608032,
      -0.06796438246965408,
      -0.4461298882961273,
      -0.4277295768260956,
      -0.3553512692451477,
      0.5156490802764893,
      -0.07378499209880829,
      0.2571253180503845,
      -0.2857619822025299,
      0.2511737048625946,
      0.009770436212420464,
      0.0492151603102684,
      -0.15721119940280914,
      0.5030557513237,
      -0.2865961790084839,
      0.5526496171951294,
      -0.12357783317565918,
      0.2816600203514099,
      -0.31610631942749023,
      -0.22723093628883362,
      -0.10209567844867706,
      -0.4345097243785858,
      -0.4561437666416168,
      0.16306743025779724,
      -0.4735924005508423,
      0.1483307182788849,
      0.1895473450422287,
      -0.06900645047426224,
      -0.19948531687259674
    ],
    [
      0.1371823251247406,
      -0.16107293963432312,
      0.7076836824417114,
      -0.3444979190826416,
      0.0016956431791186333,
      0.5602953433990479,
      -0.014620974659919739,
      0.8110650181770325,
      0.19547541439533234,
      -0.02282390370965004,
      -0.008981838822364807,
      0.41927769780158997,
      0.1268499791622162,
      0.20026664435863495,
      0.05056082457304001,
      0.5270521640777588,
      0.07625360041856766,
      0.5430647730827332,
      -0.042808789759874344,
      0.011767991818487644,
      0.6380239725112915,
      0.4077976644039154,
      0.12639397382736206,
      -0.21756787598133087,
      0.4423043429851532,
      -0.23463977873325348,
      -0.014900868758559227,
      0.3809370994567871,
      -0.1311185210943222,
      0.6809021830558777,
      -0.29116421937942505,
      -0.4586426019668579
    ],
    [
      -0.24389725923538208,
      0.2771914601325989,
      0.012319816276431084,
      -0.6063634753227234,
      -0.049848660826683044,
      0.6437456607818604,
      0.2847902476787567,
      0.21597036719322205,
      -0.7593104839324951,
      0.09137487411499023,
      0.14794529974460602,
      -0.1865958273410797,
      0.1525348722934723,
      -0.3832220137119293,
      -0.2637731730937958,
      0.12183593958616257,
      -0.16791212558746338,
      -0.11194796860218048,
      -0.44211047887802124,
      -0.305593341588974,
      -0.8341462016105652,
      0.36683428287506104,
      -0.1704593151807785,
      0.24912017583847046,
      0.18334928154945374,
      0.020761845633387566,
      0.5233734846115112,
      0.5079232454299927,
      0.2114054560661316,
      -0.6041772365570068,
      -0.28648680448532104,
      0.27657413482666016
    ],
    [
      -0.248172789812088,
      -0.06715357303619385,
      -0.36640679836273193,
      0.3338557779788971,
      0.1852719932794571,
      -0.5009116530418396,
      -0.07791255414485931,
      -0.03117399662733078,
      -0.3656732141971588,
      0.2997998595237732,
      0.17568570375442505,
      0.06306372582912445,
      -0.13101613521575928,
      -0.029259618371725082,
      -0.23043356835842133,
      -0.09757135063409805,
      0.0446663424372673,
      -0.2557161748409271,
      0.2239072620868683,
      0.2349431812763214,
      -0.03407958149909973,
      0.02452547289431095,
      -0.21916452050209045,
      -0.14609937369823456,
      -0.23651231825351715,
      0.015141290612518787,
      -0.14798521995544434,
      -0.2784935534000397,
      -0.25855517387390137,
      -0.345633864402771,
      -0.15438929200172424,
      0.1761433184146881
    ],
    [
      0.012431243434548378,
      0.3611921966075897,
      -0.06011334806680679,
      0.16146086156368256,
      0.7034187316894531,
      0.07795155048370361,
      -0.20729324221611023,
      0.07758110016584396,
      0.3294122815132141,
      -0.11036433279514313,
      0.30266621708869934,
      -0.08350972831249237,
      0.21568702161312103,
      0.44010424613952637,
      0.5351206064224243,
      -0.38620808720588684,
      0.24036937952041626,
      -0.3141474425792694,
      0.2531762719154358,
      0.34485703706741333,
      0.020364684984087944,
      0.18997728824615479,
      0.0542445182800293,
      0.23703797161579132,
      0.2014676034450531,
      0.07001996785402298,
      0.11743370443582535,
      -0.4031294584274292,
      -0.08267129957675934,
      -0.2986549437046051,
      -0.004281320609152317,
      0.38079220056533813
    ],
    [
      -0.21662259101867676,
      0.3630608916282654,
      0.3588540554046631,
      -0.4671469032764435,
      -0.6177641153335571,
      0.16028647124767303,
      -0.22120162844657898,
      0.2938438951969147,
      -0.06642897427082062,
      0.0736609399318695,
      -0.21966183185577393,
      -0.09499567002058029,
      -0.15140825510025024,
      -0.10124748945236206,
      -0.3953397870063782,
      0.5966546535491943,
      -0.3314943313598633,
      0.5177100896835327,
      -0.4051060378551483,
      0.08575508743524551,
      -0.10440457612276077,
      -0.17708338797092438,
      0.10936931520700455,
      -0.43837106227874756,
      0.03953513875603676,
      0.6091549396514893,
      -0.13855181634426117,
      0.15699633955955505,
      -0.8499001860618591,
      -0.6729986667633057,
      0.47602784633636475,
      0.41211235523223877
    ],
    [
      0.42070314288139343,
      -0.2339065968990326,
      0.5576456189155579,
      0.3657064437866211,
      0.4134729504585266,
      -0.08563287556171417,
      0.1304367184638977,
      -0.29727810621261597,
      -0.09074057638645172,
      -0.010535545647144318,
      0.2101047933101654,
      0.2539750933647156,
      0.10729169845581055,
      0.10582674294710159,
      0.11433644592761993,
      -0.28344905376434326,
      0.4583704173564911,
      -0.17348530888557434,
      0.41581857204437256,
      0.13143356144428253,
      0.42682522535324097,
      0.14803384244441986,
      -0.11580484360456467,
      0.012914707884192467,
      -0.1776447296142578,
      -0.30013003945350647,
      -0.3990197777748108,
      -0.28276240825653076,
      -0.333318293094635,
      0.5947180390357971,
      0.08910046517848969,
      -0.17124509811401367
    ],
    [
      -0.21428808569908142,
      0.282723993062973,
      -0.2263467013835907,
      -0.14356966316699982,
      0.4148688018321991,
      -0.13476409018039703,
      -0.3767296075820923,
      -0.3569517135620117,
      -0.15798726677894592,
      0.07598856091499329,
      -0.001689076074399054,
      -0.11941170692443848,
      0.24892540276050568,
      -0.017940916121006012,
      0.2652169466018677,
      -0.16716204583644867,
      0.2957042455673218,
      -0.16891445219516754,
      -0.0699034035205841,
      0.07939266413450241,
      -0.07479788362979889,
      -0.08493535220623016,
      -0.18973101675510406,
      0.14415164291858673,
      0.019844524562358856,
      0.23880434036254883,
      0.23439642786979675,
      0.249856635928154,
      0.008511440828442574,
      0.13994592428207397,
      -0.15683840215206146,
      -0.35730093717575073
    ],
    [
      0.44041910767555237,
      0.00584335345774889,
      -0.19773562252521515,
      0.13587377965450287,
      -0.20971976220607758,
      0.1492539346218109,
      0.8247838616371155,
      -0.2835887670516968,
      0.3383525311946869,
      -0.04674363508820534,
      -0.20754308998584747,
      -0.18511609733104706,
      0.15057770907878876,
      -0.17705433070659637,
      0.041357073932886124,
      -0.16653671860694885,
      0.26699158549308777,
      -0.3430705666542053,
      -0.039190348237752914,
      0.14080479741096497,
      -0.2868586480617523,
      -0.0825306698679924,
      -0.021672077476978302,
      0.06688407063484192,
      0.01843227818608284,
      0.07649131119251251,
      0.187552809715271,
      -0.12068125605583191,
      -0.003079920308664441,
      -0.0667981430888176,
      0.026801584288477898,
      -0.12849655747413635
    ],
    [
      0.2755695879459381,
      0.2988252341747284,
      -0.055988069623708725,
      -0.10957198590040207,
      -0.11252022534608841,
      -0.32833045721054077,
      0.20698119699954987,
      0.020677505061030388,
      0.37602490186691284,
      -0.004014961421489716,
      -0.22196994721889496,
      -0.06794103980064392,
      0.33171284198760986,
      -0.021683290600776672,
      0.09050068259239197,
      0.20987758040428162,
      -0.31483668088912964,
      -0.1988658607006073,
      0.25589436292648315,
      0.5236181616783142,
      0.0469156950712204,
      -0.3892150819301605,
      0.17839466035366058,
      0.1926058679819107,
      -0.19166648387908936,
      -0.324963241815567,
      0.061298877000808716,
      0.12813803553581238,
      -0.0672147125005722,
      -0.06964901834726334,
      -0.20408585667610168,
      -0.0340774804353714
    ],
    [
      -0.17687584459781647,
      0.662564218044281,
      0.0026694685220718384,
      -0.9605371952056885,
      -0.5503576397895813,
      -0.16136983036994934,
      -0.9485636353492737,
      -0.03482639789581299,
      0.6141872406005859,
      -0.634135365486145,
      -0.3790096938610077,
      -1.0299630165100098,
      0.012326483614742756,
      -0.605538010597229,
      0.058090101927518845,
      0.19477881491184235,
      -0.7604511976242065,
      0.23501767218112946,
      -0.09987443685531616,
      -0.8532063364982605,
      0.31722578406333923,
      -0.06307312101125717,
      0.21393409371376038,
      -0.43082019686698914,
      0.7594372630119324,
      0.5285403728485107,
      0.06908684968948364,
      -0.06311121582984924,
      -0.10981563478708267,
      0.28194260597229004,
      -0.15146449208259583,
      0.6863723397254944
    ],
    [
      0.09871309995651245,
      -0.42551156878471375,
      0.16645902395248413,
      -0.3003016412258148,
      -0.10160326957702637,
      0.19432678818702698,
      0.2670173645019531,
      -0.15249226987361908,
      0.029864171519875526,
      -0.09669575840234756,
      -0.18559347093105316,
      -0.20627328753471375,
      -0.030406996607780457,
      0.07377506792545319,
      -0.03900633007287979,
      -0.153234601020813,
      -0.34199202060699463,
      0.05516797676682472,
      -0.07007186859846115,
      -0.07497427612543106,
      0.2881583571434021,
      0.19925479590892792,
      0.2946588397026062,
      0.13005566596984863,
      0.20543576776981354,
      -0.031001178547739983,
      0.02681056596338749,
      0.16665992140769958,
      -0.20091110467910767,
      -0.3348527252674103,
      -0.278253436088562,
      -0.27352797985076904
    ],
    [
      0.21262741088867188,
      0.29789042472839355,
      -0.14052554965019226,
      -0.949289083480835,
      -0.16824808716773987,
      0.21993893384933472,
      -0.4042980968952179,
      -0.4226474165916443,
      -0.0810106098651886,
      0.3008817136287689,
      -0.5572777390480042,
      -0.2678473889827728,
      -0.34246474504470825,
      0.001578174065798521,
      0.04406820982694626,
      0.16037914156913757,
      -0.6427679061889648,
      -0.001131405821070075,
      -0.5964264273643494,
      -0.0810200423002243,
      0.27525046467781067,
      0.06242165341973305,
      -0.08309075236320496,
      -0.08411191403865814,
      0.1355248987674713,
      0.1733417958021164,
      0.43201491236686707,
      0.15132683515548706,
      -0.3617359399795532,
      0.49021321535110474,
      0.31489190459251404,
      -0.1634412258863449
    ],
    [
      -0.2664530873298645,
      -0.11272802203893661,
      -0.03380974382162094,
      -0.05955565720796585,
      0.14379151165485382,
      0.06903935968875885,
      -0.3269244432449341,
      -0.2297622412443161,
      -0.13288411498069763,
      -0.07488663494586945,
      -0.460145503282547,
      -0.1735033243894577,
      -0.04292193800210953,
      -0.22721654176712036,
      0.013693957589566708,
      -0.3039405345916748,
      -0.0053244540467858315,
      0.07320256531238556,
      -0.1799279898405075,
      0.23315230011940002,
      -0.030153559520840645,
      -0.04069434106349945,
      -4.76968998555094e-05,
      -0.24223391711711884,
      0.20817162096500397,
      -0.35040977597236633,
      -0.3925456702709198,
      -0.062192756682634354,
      -0.08418533205986023,
      0.17270338535308838,
      0.012410934083163738,
      -0.20971225202083588
    ],
    [
      0.6713055372238159,
      -0.14573128521442413,
      0.2616904377937317,
      -0.14614622294902802,
      0.25047409534454346,
      0.19487842917442322,
      0.04574087634682655,
      -0.24275758862495422,
      -0.3229835033416748,
      0.0016048764809966087,
      -0.38418513536453247,
      0.30184507369995117,
      -0.1535676270723343,
      0.002707533072680235,
      0.1737578809261322,
      -0.07425080239772797,
      -0.04171375557780266,
      -0.10392588376998901,
      -0.2833339273929596,
      0.12870477139949799,
      -0.13469107449054718,
      -0.04111514240503311,
      -0.08794272691011429,
      0.477700412273407,
      0.2342481166124344,
      -0.23337574303150177,
      0.46451279520988464,
      -0.3586066961288452,
      -0.07414333522319794,
      0.25374355912208557,
      0.15727156400680542,
      -0.09498564898967743
    ],
    [
      -0.31397080421447754,
      -0.2996983230113983,
      -0.3954356610774994,
      0.5174049735069275,
      -0.18025431036949158,
      -0.8614583015441895,
      0.35990017652511597,
      0.5373180508613586,
      0.19006666541099548,
      0.1277676224708557,
      0.5566670894622803,
      0.4014732837677002,
      -0.2011568695306778,
      0.162627711892128,
      -0.14259277284145355,
      -0.2772531807422638,
      0.421906054019928,
      -0.31224027276039124,
      0.7192896604537964,
      0.3064287304878235,
      -0.18677981197834015,
      0.14472457766532898,
      -0.00920488778501749,
      -0.11728281527757645,
      -0.05198521167039871,
      0.2077728658914566,
      0.1709887683391571,
      -0.08390243351459503,
      -0.044880498200654984,
      -0.6337418556213379,
      -0.25673291087150574,
      -0.17308878898620605
    ],
    [
      -0.6254353523254395,
      -0.1462654173374176,
      -0.22587691247463226,
      0.48189643025398254,
      0.18359830975532532,
      -0.0900503620505333,
      -0.8212698698043823,
      -0.19154497981071472,
      -0.23515406250953674,
      -0.01905159093439579,
      0.12691320478916168,
      -0.18306463956832886,
      0.20523670315742493,
      -0.25406086444854736,
      -0.3837219774723053,
      -0.3009893000125885,
      -0.19908443093299866,
      -0.18475905060768127,
      0.014435398392379284,
      -0.1348562240600586,
      -0.5668936967849731,
      -0.183131605386734,
      0.2615530788898468,
      0.052147991955280304,
      0.2359011471271515,
      0.07498285919427872,
      0.5731432437896729,
      0.09675420075654984,
      0.09943072497844696,
      0.12053713202476501,
      0.221291646361351,
      0.25446733832359314
    ],
    [
      -0.15082420408725739,
      0.12119387835264206,
      -0.055035579949617386,
      0.6137194037437439,
      0.3144388794898987,
      -0.13148966431617737,
      -0.09609968215227127,
      0.14957335591316223,
      -0.21680094301700592,
      0.2315685898065567,
      0.34441885352134705,
      -0.02889697067439556,
      -0.03629729524254799,
      -0.13000769913196564,
      0.20116828382015228,
      -0.17557425796985626,
      0.43915891647338867,
      0.2844891846179962,
      0.24831995368003845,
      -0.20505361258983612,
      -0.047922421246767044,
      0.15572141110897064,
      -0.31759926676750183,
      0.33142855763435364,
      -0.1105603501200676,
      0.018520306795835495,
      -0.10469342023134232,
      -0.165910005569458,
      0.3447812497615814,
      -0.19205407798290253,
      -0.018283488228917122,
      0.19410933554172516
    ],
    [
      -0.02364208921790123,
      -0.38871416449546814,
      -0.21824873983860016,
      0.2049596905708313,
      0.3895070552825928,
      0.4269199073314667,
      0.22353599965572357,
      -0.03560134768486023,
      -0.22568456828594208,
      0.09114382416009903,
      -0.31226980686187744,
      -0.3268696069717407,
      0.40393349528312683,
      0.7555769085884094,
      0.45167240500450134,
      -0.3597199022769928,
      0.2079666405916214,
      -0.338243693113327,
      -0.005331499967724085,
      -0.35780975222587585,
      0.2380397617816925,
      0.24834662675857544,
      0.2095222920179367,
      0.5774587392807007,
      0.30376723408699036,
      0.2548048496246338,
      0.33351853489875793,
      0.5724117755889893,
      0.24026453495025635,
      0.6371804475784302,
      -0.08126570284366608,
      -1.0604557991027832
    ],
    [
      0.39849716424942017,
      -0.09887214004993439,
      -0.11518184840679169,
      -0.4717754125595093,
      -0.46360382437705994,
      0.2878348231315613,
      0.47332361340522766,
      -0.5463672280311584,
      0.027238409966230392,
      0.060739193111658096,
      0.015827028080821037,
      -0.09620855003595352,
      -0.018508391454815865,
      -0.11290763318538666,
      0.06326016038656235,
      -0.0055944183841347694,
      -0.4883924722671509,
      0.36159107089042664,
      -0.3252875506877899,
      -0.05116016045212746,
      0.23031793534755707,
      0.19582116603851318,
      0.20270974934101105,
      -0.25679442286491394,
      -0.17879320681095123,
      0.11455760151147842,
      0.17197825014591217,
      0.08708810806274414,
      -0.21666815876960754,
      -5.025577047490515e-05,
      -0.017731815576553345,
      0.36514607071876526
    ],
    [
      -0.06851965934038162,
      -0.3480960726737976,
      -0.16642127931118011,
      -0.6454601883888245,
      -0.04849677160382271,
      0.39970630407333374,
      0.06858792901039124,
      -0.0020263525657355785,
      -0.08027613908052444,
      0.0964333638548851,
      -0.3107042908668518,
      0.056924305856227875,
      0.09160630404949188,
      0.20565983653068542,
      0.18306094408035278,
      -0.17180658876895905,
      -0.4963735044002533,
      0.253225177526474,
      -0.28075796365737915,
      -0.15687617659568787,
      0.41671431064605713,
      0.17650875449180603,
      -0.19713707268238068,
      -0.13992899656295776,
      -0.012296927161514759,
      0.09331667423248291,
      -0.07091441750526428,
      0.37295517325401306,
      -0.237718403339386,
      0.43090730905532837,
      -0.047744493931531906,
      0.13638770580291748
    ],
    [
      0.26781874895095825,
      0.10322621464729309,
      -0.10393939167261124,
      0.15792572498321533,
      0.5822151899337769,
      -0.08185914158821106,
      0.06151338294148445,
      -0.19747434556484222,
      -0.06139039993286133,
      -0.24991180002689362,
      0.20750539004802704,
      0.1825527548789978,
      0.19681577384471893,
      0.0507671944797039,
      -0.07589896023273468,
      -0.257647305727005,
      0.6724720001220703,
      0.007962592877447605,
      0.24345256388187408,
      0.08532970398664474,
      -0.2302006483078003,
      -0.15828153491020203,
      -0.2809988856315613,
      -0.021051421761512756,
      0.2987056374549866,
      0.413993775844574,
      0.22549617290496826,
      -0.07292817533016205,
      0.33885037899017334,
      0.17951253056526184,
      -0.036299191415309906,
      -0.10699044913053513
    ],
    [
      -0.3615048825740814,
      0.20730522274971008,
      -0.4695289731025696,
      -0.541925847530365,
      0.037749338895082474,
      0.3476259112358093,
      -0.043457482010126114,
      -0.2553395628929138,
      -0.11352960020303726,
      0.1353902518749237,
      0.01781463250517845,
      -0.19532687962055206,
      0.169566810131073,
      -0.3893197774887085,
      -0.12356159836053848,
      0.1517171859741211,
      -0.2066139280796051,
      -0.23113089799880981,
      -0.6146476864814758,
      0.07173467427492142,
      -0.05554676800966263,
      0.25980767607688904,
      0.5223140120506287,
      -0.2179708480834961,
      0.3995029032230377,
      0.3611270487308502,
      0.15037937462329865,
      -0.08229131251573563,
      0.03715480864048004,
      -0.21831466257572174,
      -0.008286966010928154,
      0.2203490138053894
    ],
    [
      -0.3850952982902527,
      0.08156299591064453,
      -0.11609548330307007,
      0.8047378063201904,
      -0.07437100261449814,
      -0.7435555458068848,
      -0.27535948157310486,
      0.4515779912471771,
      -0.3344745934009552,
      0.07422004640102386,
      0.5623906850814819,
      -0.49827733635902405,
      0.03630874678492546,
      -0.3053773045539856,
      -0.30483919382095337,
      -0.46608591079711914,
      -0.0020809306297451258,
      0.026589276269078255,
      0.475993275642395,
      -0.2764170169830322,
      -0.7868236899375916,
      -0.1943308264017105,
      -0.18058425188064575,
      0.02220335602760315,
      -0.07379207760095596,
      -0.07682326436042786,
      0.12317048758268356,
      0.06818470358848572,
      0.39700523018836975,
      -0.15694551169872284,
      0.10007957369089127,
      0.2693781554698944
    ],
    [
      -0.2028290033340454,
      0.2694222927093506,
      -0.3688699007034302,
      -0.2709551751613617,
      0.3524303138256073,
      0.17692269384860992,
      -0.011856740340590477,
      -0.39263370633125305,
      0.08114919066429138,
      0.09762930124998093,
      -0.043648611754179,
      0.2349918931722641,
      -0.2120877206325531,
      0.172587588429451,
      -0.05162041634321213,
      0.16137467324733734,
      -0.31087926030158997,
      -0.24981491267681122,
      -0.1381235420703888,
      -0.14688637852668762,
      -0.21321670711040497,
      0.18353156745433807,
      0.10989126563072205,
      0.02780880033969879,
      -0.23180614411830902,
      -0.0875256359577179,
      0.2175443470478058,
      0.17552784085273743,
      -0.11434271186590195,
      -0.01444824319332838,
      0.21417471766471863,
      -0.002088936511427164
    ],
    [
      -0.5059059858322144,
      -0.09056982398033142,
      -0.27926430106163025,
      -0.19708435237407684,
      -0.03750493749976158,
      0.3081173896789551,
      -0.5619264245033264,
      0.11204840987920761,
      0.2418997883796692,
      -0.015214563347399235,
      -0.26377856731414795,
      0.008900108747184277,
      0.1016492173075676,
      0.24133552610874176,
      0.041308753192424774,
      0.0953531265258789,
      -0.066957026720047,
      -0.0722668245434761,
      -0.324278324842453,
      0.09768523275852203,
      0.18364191055297852,
      0.09984530508518219,
      -0.15216994285583496,
      -0.08523023873567581,
      -0.024121668189764023,
      -0.019082220271229744,
      -0.13316762447357178,
      -0.12969689071178436,
      -0.1673111468553543,
      0.25089141726493835,
      -0.04801495000720024,
      0.17280477285385132
    ],
    [
      0.5686498284339905,
      0.17142000794410706,
      0.023670217022299767,
      0.49891355633735657,
      -0.308114618062973,
      -0.2238466590642929,
      0.49397528171539307,
      0.2449396401643753,
      0.015866665169596672,
      0.2095884084701538,
      -0.034121036529541016,
      -0.04984387010335922,
      -0.13352686166763306,
      -0.26548436284065247,
      -0.013061597011983395,
      0.026331385597586632,
      0.07074911892414093,
      -0.025550546124577522,
      -0.11020249128341675,
      0.03132953867316246,
      0.20607800781726837,
      -0.025200041010975838,
      -0.3339892625808716,
      0.1691480129957199,
      0.051075637340545654,
      0.3120824098587036,
      -0.03258730471134186,
      -0.36250603199005127,
      -0.06438831239938736,
      -0.585249125957489,
      -0.19982251524925232,
      0.14361068606376648
    ],
    [
      -0.02370135672390461,
      -0.13149145245552063,
      -0.10469655692577362,
      -0.18695393204689026,
      -0.09648751467466354,
      0.21854980289936066,
      0.4031519889831543,
      0.4556746184825897,
      -0.24786703288555145,
      0.07242146879434586,
      -0.14142313599586487,
      0.3233620226383209,
      -0.4403091371059418,
      0.5091555118560791,
      -0.1400894820690155,
      0.021444274112582207,
      0.4621032476425171,
      -0.1940876543521881,
      -0.10384971648454666,
      0.15876851975917816,
      0.3636402487754822,
      0.0993150845170021,
      0.04623691365122795,
      0.12502169609069824,
      -0.10539765655994415,
      0.3962152898311615,
      0.040777791291475296,
      0.6408243179321289,
      0.2393704354763031,
      -0.11975404620170593,
      -0.08583968877792358,
      -0.3436289429664612
    ]
  ],
  "b2": [
    -0.264347106218338,
    -0.22284817695617676,
    0.2539881765842438,
    -0.06698581576347351,
    0.06619130820035934,
    -0.01721087284386158,
    -0.06147926673293114,
    -0.2321413904428482,
    -0.2939610183238983,
    0.4481554329395294,
    -0.06907139718532562,
    -0.2732600271701813,
    -0.0982663556933403,
    0.07381546497344971,
    0.6819799542427063,
    -0.06249859556555748,
    0.34423378109931946,
    0.18511921167373657,
    -0.13285598158836365,
    -0.2525310218334198,
    0.15943282842636108,
    -0.09600499272346497,
    -0.4756107032299042,
    0.3802230954170227,
    0.18970146775245667,
    -0.3547551929950714,
    -0.052449781447649,
    -0.13118000328540802,
    -0.004973404575139284,
    0.09574959427118301,
    0.10565020143985748,
    -0.3450007736682892
  ],
  "W3": [
    [
      -0.1000194177031517,
      -0.22948461771011353,
      -0.14796733856201172,
      -0.2893724739551544,
      0.004113730974495411,
      -0.28230512142181396,
      0.016085995361208916,
      -0.12654593586921692,
      -0.01953192800283432,
      0.038506630808115005,
      0.20776836574077606,
      -0.37331247329711914,
      1.8605668544769287,
      -0.05343710631132126,
      -0.08393141627311707,
      0.2278599888086319,
      0.1752680093050003,
      -0.7648628950119019,
      0.4003247916698456,
      -0.022870618849992752,
      -0.42552220821380615,
      -0.1494944542646408,
      -0.05571668595075607,
      1.106415033340454,
      0.17067237198352814,
      0.44540369510650635,
      -0.18349553644657135,
      -0.6740838289260864,
      0.1935483068227768,
      -1.4307721853256226,
      0.6619418859481812,
      -0.35158610343933105
    ],
    [
      -0.5444504618644714,
      0.11774305254220963,
      -0.37548741698265076,
      -0.5085635781288147,
      0.25003352761268616,
      0.18476714193820953,
      0.032430704683065414,
      -0.21488390862941742,
      -0.05433609336614609,
      -0.22261933982372284,
      0.19635730981826782,
      -0.6784520149230957,
      -0.5299471616744995,
      0.1102675125002861,
      0.18964023888111115,
      -0.34818512201309204,
      0.05563076585531235,
      0.2796376645565033,
      -0.09467211365699768,
      -0.15199634432792664,
      -0.3971264958381653,
      -0.07927893102169037,
      -0.3881573975086212,
      0.19716838002204895,
      0.05942308157682419,
      -0.7908715009689331,
      -0.1721932590007782,
      0.14489515125751495,
      -0.5453125238418579,
      -0.00677597476169467,
      0.06465927511453629,
      -0.7755330204963684
    ],
    [
      1.2267096042633057,
      -0.12428420782089233,
      0.7744012475013733,
      0.9746240973472595,
      -0.4478625953197479,
      0.8376330733299255,
      0.10493432730436325,
      -0.19216036796569824,
      0.08648752421140671,
      0.8119999766349792,
      -0.12005282193422318,
      -1.0150243043899536,
      0.07983449101448059,
      0.11698368191719055,
      -0.08968531340360641,
      -0.5321952700614929,
      -0.38832053542137146,
      -1.3269243240356445,
      -1.0869710445404053,
      0.25651246309280396,
      -1.0040607452392578,
      -0.016394369304180145,
      -0.28674355149269104,
      0.3967624604701996,
      0.9799401760101318,
      -0.0762045606970787,
      0.15639914572238922,
      0.010364917106926441,
      -1.2019330263137817,
      0.5302360653877258,
      0.8816575407981873,
      0.4484616219997406
    ],
    [
      -0.019317414611577988,
      1.4600038528442383,
      0.7556708455085754,
      -0.5862777829170227,
      -0.9433608055114746,
      1.0115671157836914,
      0.901170015335083,
      -1.2294483184814453,
      -0.47772127389907837,
      0.6529285907745361,
      -1.1269810199737549,
      0.11452013999223709,
      -0.306229829788208,
      0.7724545001983643,
      0.9337719678878784,
      0.46388792991638184,
      0.8155544400215149,
      0.1591254323720932,
      -0.10614029318094254,
      -0.9729264974594116,
      -0.6216821074485779,
      -0.9647583365440369,
      0.48112958669662476,
      0.9317671656608582,
      0.8302565813064575,
      -0.4119260907173157,
      1.1893322467803955,
      -1.181835651397705,
      0.18270066380500793,
      0.5019654631614685,
      -0.511374294757843,
      0.43409377336502075
    ]
  ],
  "b3": [
    0.05608326196670532,
    0.5663416981697083,
    -0.06115807592868805,
    0.3740096986293793
  ]
}