{
  "name": "double integrator",
  "W1": [
    [
      -0.09823288768529892,
      0.06976352632045746,
      0.1365913301706314,
      0.19855958223342896,
      -0.1047089472413063
    ],
    [
      0.07398301362991333,
      0.09248889237642288,
      0.06469958275556564,
      0.13584280014038086,
      0.0048700617626309395
    ],
    [
      -0.23237264156341553,
      0.21070347726345062,
      -0.11091112345457077,
      0.004146961495280266,
      -0.008076422847807407
    ],
    [
      -0.19347980618476868,
      0.08277034759521484,
      0.045904792845249176,
      0.1364796906709671,
      0.0008597388514317572
    ],
    [
      0.008633838966488838,
      0.20272000133991241,
      -0.36658358573913574,
      -0.455813467502594,
      -0.14330753684043884
    ],
    [
      -0.3039979934692383,
      -0.6747370362281799,
      0.311032772064209,
      0.10896210372447968,
      -0.011538131162524223
    ],
    [
      0.08446382731199265,
      0.3775642514228821,
      0.2319052815437317,
      -0.018115034326910973,
      0.08701694011688232
    ],
    [
      0.037877265363931656,
      -0.5821458101272583,
      0.2397805154323578,
      -0.0005849629524163902,
      0.07361550629138947
    ],
    [
      0.011576591059565544,
      -0.3998577296733856,
      0.5190638303756714,
      -0.5130355358123779,
      0.006571587640792131
    ],
    [
      -0.2919808030128479,
      0.23298300802707672,
      -0.12003359198570251,
      -0.312624990940094,
      -0.1381697654724121
    ],
    [
      -0.4215630888938904,
      0.14989879727363586,
      -0.305827260017395,
      0.220930814743042,
      -0.16735069453716278
    ],
    [
      0.6117143630981445,
      -0.5710985660552979,
      0.41271376609802246,
      0.3100133240222931,
      0.19925792515277863
    ],
    [
      -0.14965729415416718,
      0.2800319790840149,
      -0.16840554773807526,
      -0.07254740595817566,
      0.0027290114667266607
    ],
    [
      -0.461331844329834,
      -0.06405528634786606,
      0.05288587510585785,
      -0.10302531719207764,
      -0.004055521450936794
    ],
    [
      0.029941493645310402,
      -0.24991483986377716,
      -0.0006652079755440354,
      -0.1379581242799759,
      -0.007799123413860798
    ],
    [
      0.29716718196868896,
      0.5416865944862366,
      -0.1602867841720581,
      -0.20372837781906128,
      -0.04880597069859505
    ],
    [
      0.2140474021434784,
      -0.4324500560760498,
      -0.10811924934387207,
      -0.046737298369407654,
      -0.006830912549048662
    ],
    [
      -0.07645434141159058,
      0.1456524282693863,
      0.02795948088169098,
      0.1506793200969696,
      0.002685415791347623
    ],
    [
      -0.16407564282417297,
      -0.002434671623632312,
      -0.066230408847332,
      0.14659956097602844,
      0.019873589277267456
    ],
    [
      -0.20724749565124512,
      -0.0077347708866000175,
      0.025821270421147346,
      0.11853612959384918,
      0.00390812149271369
    ],
    [
      -0.07677927613258362,
      -0.21320503950119019,
      0.11574094742536545,
      -0.051375146955251694,
      0.005584164522588253
    ],
    [
      0.044331494718790054,
      0.3337180018424988,
      0.04737521708011627,
      -0.00888136401772499,
      0.0034794833045452833
    ],
    [
      -0.11756580322980881,
      0.33824899792671204,
      0.16386500000953674,
      -0.05311436578631401,
      0.004519217647612095
    ],
    [
      -0.1432543694972992,
      -0.14446277916431427,
      -0.17669974267482758,
      0.02795318141579628,
      -0.006435055285692215
    ],
    [
      -0.41471779346466064,
      -0.000298328377539292,
      -0.16701050102710724,
      -0.15708042681217194,
      0.07840000838041306
    ],
    [
      0.23022058606147766,
      -0.23497699201107025,
      0.04751594737172127,
      0.11805079877376556,
      -0.006173062603920698
    ],
    [
      -0.2912522554397583,
      0.08320185542106628,
      0.13283655047416687,
      -0.051362402737140656,
      0.007306103594601154
    ],
    [
      0.1781388819217682,
      -0.1279333233833313,
      0.1575632244348526,
      -0.06336992979049683,
      0.007526066619902849
    ],
    [
      -0.05456271395087242,
      -0.08154595643281937,
      0.4202680289745331,
      -0.2932721674442291,
      -0.001078207977116108
    ],
    [
      -0.4822085201740265,
      -0.22707320749759674,
      0.06418483704328537,
      0.009089088067412376,
      0.05241721495985985
    ],
    [
      -0.15943816304206848,
      -0.2359888106584549,
      -0.3143758773803711,
      0.14075565338134766,
      -0.0567019097507
    ],
    [
      -0.1587141901254654,
      -0.06793813407421112,
      -0.14143535494804382,
      0.07774117588996887,
      0.008418399840593338
    ]
  ],
  "b1": [
    -0.041210681200027466,
    0.2389587163925171,
    -0.22543703019618988,
    -0.27750763297080994,
    0.02549664117395878,
    -0.3827006220817566,
    -0.5344907641410828,
    -0.06672224402427673,
    -0.04745743051171303,
    0.01114775612950325,
    0.018150724470615387,
    0.19399620592594147,
    -0.2122950404882431,
    -0.10105355829000473,
    -0.07689066231250763,
    0.1573173850774765,
    0.7533365488052368,
    -0.29105478525161743,
    0.09808316081762314,
    0.0680895522236824,
    0.23761677742004395,
    -0.08062724024057388,
    -0.35593414306640625,
    -0.012517192400991917,
    0.09760982543230057,
    -0.0940091609954834,
    -0.01711571402847767,
    0.16908830404281616,
    0.08468889445066452,
    0.12413943558931351,
    0.09987592697143555,
    0.1570156067609787
  ],
  "W2": [
    [
      -0.06652787327766418,
      -0.22494590282440186,
      0.01834939979016781,
      0.06268846988677979,
      0.22379958629608154,
      0.11403296887874603,
      -0.19560544192790985,
      -0.20710662007331848,
      -0.0219949409365654,
      0.2836408019065857,
      0.10429629683494568,
      0.03567694500088692,
      0.12532851099967957,
      -0.22834883630275726,
      -0.05323929339647293,
      -0.17173612117767334,
      -0.20281711220741272,
      -0.257953017950058,
      -0.1674669235944748,
      -0.10829000920057297,
      -0.19432421028614044,
      -0.1038440689444542,
      0.06583184748888016,
      0.11873854696750641,
      0.029861554503440857,
      -0.14766323566436768,
      -0.0008399964426644146,
      -0.09575571119785309,
      0.10871478170156479,
      -0.23527418076992035,
      0.06976837664842606,
      0.22543831169605255
    ],
    [
      -0.2981407344341278,
      0.43868470191955566,
      0.10054157674312592,
      -0.2766333222389221,
      0.0980990007519722,
      -0.061191510409116745,
      -0.23053087294101715,
      -0.18632958829402924,
      -0.07623264938592911,
      0.22245267033576965,
      0.16522417962551117,
      -0.024388007819652557,
      -0.36805176734924316,
      0.47981250286102295,
      -0.22544044256210327,
      -0.16797351837158203,
      0.020120305940508842,
      0.20112736523151398,
      0.5132813453674316,
      0.4927482008934021,
      -0.10599090903997421,
      -0.19581830501556396,
      -0.005072326865047216,
      0.11690560728311539,
      -0.17614635825157166,
      -0.20636709034442902,
      0.13829298317432404,
      -0.10687939077615738,
      0.2419465184211731,
      0.18957620859146118,
      0.11003393679857254,
      -0.18411347270011902
    ],
    [
      -0.28879880905151367,
      0.0746125653386116,
      0.2503998577594757,
      0.2278466522693634,
      -0.03015781193971634,
      -0.07137765735387802,
      0.18921016156673431,
      0.19474783539772034,
      0.002575499936938286,
      0.2520957291126251,
      0.2507086992263794,
      0.01782327890396118,
      0.15146130323410034,
      0.43793603777885437,
      0.1869351863861084,
      -0.2990838885307312,
      0.17530417442321777,
      -0.3002433478832245,
      -0.10602463781833649,
      0.02261759154498577,
      0.1999620944261551,
      -0.0562329925596714,
      0.07304717600345612,
      0.09216579794883728,
      -0.20306842029094696,
      0.05944347754120827,
      0.15739315748214722,
      0.14386390149593353,
      -0.18320153653621674,
      -0.12998810410499573,
      -0.21165238320827484,
      0.35380658507347107
    ],
    [
      0.015096427872776985,
      0.3796798288822174,
      0.041513361036777496,
      -0.09621143341064453,
      0.09842099249362946,
      0.10538643598556519,
      -0.09370490908622742,
      0.011225353926420212,
      -0.047697316855192184,
      0.18060564994812012,
      0.08584272861480713,
      0.08130568265914917,
      0.20197319984436035,
      -0.29749947786331177,
      -0.24439024925231934,
      0.23889188468456268,
      -0.21476855874061584,
      0.3229019343852997,
      0.44869348406791687,
      0.10052120685577393,
      0.1849934458732605,
      -0.17841413617134094,
      -0.2449769675731659,
      -0.09616147726774216,
      -0.2054399698972702,
      0.3201935291290283,
      0.12468218058347702,
      0.39487576484680176,
      -0.4076031446456909,
      -0.1324588507413864,
      0.01665300689637661,
      -0.011160619556903839
    ],
    [
      0.025886066257953644,
      0.05625338852405548,
      -0.4744572937488556,
      0.06424666941165924,
      0.026225408539175987,
      0.24666960537433624,
      0.1973268985748291,
      -0.17800302803516388,
      -0.3624856770038605,
      0.03852226957678795,
      0.13184532523155212,
      0.032732170075178146,
      -0.41846248507499695,
      -0.020571142435073853,
      0.26511597633361816,
      0.03619375452399254,
      0.33416688442230225,
      0.263852059841156,
      0.08768387883901596,
      0.2801569104194641,
      0.3576279878616333,
      -0.32192376255989075,
      0.053499359637498856,
      0.03993309661746025,
      0.33121490478515625,
      -0.03814884275197983,
      0.20254601538181305,
      0.1799377053976059,
      -0.24082916975021362,
      0.1319599449634552,
      0.1716657131910324,
      0.07153109461069107
    ],
    [
      -0.10617734491825104,
      0.1658073365688324,
      0.16039234399795532,
      0.16606637835502625,
      0.10458025336265564,
      -0.2507803440093994,
      -0.0273568257689476,
      -0.2950475513935089,
      -0.17111682891845703,
      -0.0322013683617115,
      -0.26397573947906494,
      0.1554563194513321,
      0.30345767736434937,
      0.1476576030254364,
      0.08446585386991501,
      0.2531682550907135,
      0.05954619124531746,
      -0.04136616736650467,
      0.2174825817346573,
      0.21305599808692932,
      0.15825237333774567,
      -0.3262328803539276,
      -0.2461610585451126,
      -0.041265569627285004,
      0.029019178822636604,
      0.10971589386463165,
      -0.02347990870475769,
      -0.31388136744499207,
      -0.16483041644096375,
      -0.07580263912677765,
      -0.09400710463523865,
      -0.142747163772583
    ],
    [
      -0.1903034746646881,
      0.23270264267921448,
      -0.0504569336771965,
      -0.24069252610206604,
      -0.26106739044189453,
      0.148606538772583,
      -0.02961183339357376,
      0.19175387918949127,
      0.12556064128875732,
      0.26425766944885254,
      -0.04250205308198929,
      -0.060978107154369354,
      -0.25168725848197937,
      -0.6282838582992554,
      0.01563895493745804,
      -0.2964554727077484,
      0.1527952402830124,
      0.29890209436416626,
      0.04366447404026985,
      -0.2606658339500427,
      -0.09399326145648956,
      0.33685046434402466,
      -0.16167820990085602,
      0.18550443649291992,
      -0.035832956433296204,
      0.13546612858772278,
      -0.3741999864578247,
      0.17285984754562378,
      0.2849830090999603,
      -0.24015545845031738,
      -0.02562677673995495,
      -0.2517019808292389
    ],
    [
      -0.4409496486186981,
      0.08379510790109634,
      0.2581224739551544,
      0.06400430202484131,
      0.037182506173849106,
      0.3049691617488861,
      0.08790610730648041,
      0.046129319816827774,
      0.0442940853536129,
      -0.03411445394158363,
      -0.08212806284427643,
      0.419160395860672,
      -0.1759137511253357,
      -0.17411257326602936,
      -0.2346191555261612,
      -0.10769689083099365,
      0.00889473408460617,
      0.14425009489059448,
      0.06172102317214012,
      0.3937263786792755,
      -0.27056312561035156,
      0.0767517164349556,
      -0.2994982898235321,
      -0.057347360998392105,
      0.19263148307800293,
      0.20031721889972687,
      -0.16567961871623993,
      -0.16235221922397614,
      -0.23354986310005188,
      0.12476452440023422,
      -0.12749908864498138,
      0.2296465039253235
    ],
    [
      -0.23896434903144836,
      -0.1670394092798233,
      -0.2678610682487488,
      -0.1584724485874176,
      -0.49122393131256104,
      0.31518879532814026,
      0.22595687210559845,
      0.05835801362991333,
      0.27866047620773315,
      0.012484993785619736,
      -0.07439634203910828,
      -0.22807428240776062,
      -0.13973011076450348,
      0.04124373197555542,
      -0.11434893310070038,
      0.03992173820734024,
      0.18327254056930542,
      0.15326273441314697,
      -0.14428719878196716,
      -0.39607858657836914,
      -0.2412387728691101,
      -0.29175257682800293,
      -0.30026936531066895,
      0.15372474491596222,
      -0.15034976601600647,
      0.17190447449684143,
      0.22521430253982544,
      -0.1400114744901657,
      -0.3728996813297272,
      -0.07256222516298294,
      0.1406741440296173,
      0.269304484128952
    ],
    [
      0.044154781848192215,
      0.05308647081255913,
      0.1228303611278534,
      -0.33024999499320984,
      -0.36739957332611084,
      -0.23538784682750702,
      0.26151713728904724,
      0.36441582441329956,
      -0.38454633951187134,
      0.008485783822834492,
      -0.01418411172926426,
      -0.1428372710943222,
      -0.0014162914594635367,
      0.14638002216815948,
      -0.34062469005584717,
      0.07970380783081055,
      -0.06093452870845795,
      -0.0614490732550621,
      -0.03789236769080162,
      -0.15372639894485474,
      -0.13969573378562927,
      0.05428750440478325,
      0.5206486582756042,
      -0.34609872102737427,
      -0.229404017329216,
      -0.35070696473121643,
      0.15598399937152863,
      -0.030612163245677948,
      -0.22998057305812836,
      -0.16626183688640594,
      -0.3222942054271698,
      0.07523398846387863
    ],
    [
      -0.018943551927804947,
      -0.3438401520252228,
      -0.252565860748291,
      0.25710755586624146,
      0.04005351662635803,
      0.20974557101726532,
      0.11213385313749313,
      -0.04651083052158356,
      -0.02431122213602066,
      -0.1575985699892044,
      -0.06777749210596085,
      -0.02453332208096981,
      -0.16253259778022766,
      -0.013970665633678436,
      0.37836581468582153,
      0.0865524411201477,
      -0.0610547810792923,
      0.2215510904788971,
      -0.011110058054327965,
      -0.1266884058713913,
      0.19228212535381317,
      -0.00932395365089178,
      0.20669634640216827,
      -0.21957772970199585,
      -0.07840318232774734,
      0.1721792072057724,
      0.06009510159492493,
      0.33528071641921997,
      -0.09890341758728027,
      -0.28550881147384644,
      0.05105600878596306,
      -0.14770828187465668
    ],
    [
      0.16374021768569946,
      0.05518288537859917,
      -0.277392715215683,
      -0.48646625876426697,
      0.017310351133346558,
      -0.3924056589603424,
      -0.3948788642883301,
      -0.21742266416549683,
      0.04110065847635269,
      -0.04525307938456535,
      -0.009099316783249378,
      0.0752202570438385,
      -0.24371980130672455,
      0.06277290731668472,
      -0.12982599437236786,
      -0.0833229273557663,
      0.1939571648836136,
      -0.3421506881713867,
      -0.47953614592552185,
      -0.2877689599990845,
      0.28687748312950134,
      0.23281146585941315,
      -0.06464070826768875,
      -0.24831940233707428,
      -0.02026534080505371,
      -0.3644056022167206,
      -0.12679128348827362,
      0.1277773082256317,
      0.09393782168626785,
      0.08756233751773834,
      0.25292620062828064,
      -0.08959431201219559
    ],
    [
      0.27723759412765503,
      -0.24009758234024048,
      0.2844874858856201,
      -0.022980647161602974,
      0.10996302962303162,
      -0.2428390085697174,
      0.12936384975910187,
      -0.30219215154647827,
      -0.025630109012126923,
      -0.31252580881118774,
      0.36148959398269653,
      -0.14701636135578156,
      -0.016092825680971146,
      0.008905305527150631,
      0.12367155402898788,
      0.4876900017261505,
      -0.16745790839195251,
      -0.11590643972158432,
      -0.2260492891073227,
      0.004361297935247421,
      0.1623837649822235,
      0.3037426173686981,
      -0.07416925579309464,
      -0.2266228199005127,
      0.18266697227954865,
      -0.013522431254386902,
      0.09416086971759796,
      -0.21756675839424133,
      -0.23854663968086243,
      -0.010491707362234592,
      -0.06506195664405823,
      -0.3146432638168335
    ],
    [
      0.05073827877640724,
      0.23093566298484802,
      0.11009035259485245,
      0.19975991547107697,
      0.2512764036655426,
      -0.17864589393138885,
      -0.22935163974761963,
      -0.17288066446781158,
      -0.07004307210445404,
      0.32415592670440674,
      -0.08355499058961868,
      -0.016253946349024773,
      0.10629937797784805,
      -0.21684393286705017,
      -0.3744046092033386,
      0.15593364834785461,
      -0.17361530661582947,
      0.36000314354896545,
      0.1744190752506256,
      0.4765954613685608,
      -0.050839539617300034,
      0.12984171509742737,
      0.3919925093650818,
      -0.18367287516593933,
      -0.024767417460680008,
      0.1313706785440445,
      0.2861034870147705,
      0.15446141362190247,
      0.004226222634315491,
      0.20077510178089142,
      0.19239573180675507,
      -0.03793574124574661
    ],
    [
      -0.12889741361141205,
      0.0842299610376358,
      0.33224254846572876,
      -0.11198637634515762,
      -0.335907906293869,
      0.12907721102237701,
      0.10605666786432266,
      -0.17833258211612701,
      -0.3012576103210449,
      0.22470764815807343,
      -0.10077866911888123,
      0.2296013981103897,
      0.1998383104801178,
      0.15001681447029114,
      -0.05585413798689842,
      -0.1711067259311676,
      0.015897121280431747,
      0.06789600104093552,
      -0.21937644481658936,
      -0.1252233386039734,
      -0.045172691345214844,
      0.4112526476383209,
      0.24407333135604858,
      -0.34274566173553467,
      -0.23245221376419067,
      -0.46423476934432983,
      -0.011003070510923862,
      0.17430730164051056,
      -0.05603224039077759,
      0.21012789011001587,
      0.08556994050741196,
      -0.0009629659471102059
    ],
    [
      0.11569526791572571,
      -0.44913655519485474,
      0.20099855959415436,
      0.004038271028548479,
      -0.2686513364315033,
      0.10158946365118027,
      -0.19856952130794525,
      0.13998405635356903,
      0.29337701201438904,
      0.11546272039413452,
      -0.23599587380886078,
      0.07989787310361862,
      0.27908849716186523,
      0.23422406613826752,
      0.085285484790802,
      -0.23645398020744324,
      0.3777585029602051,
      -0.021103957667946815,
      -0.31585025787353516,
      -0.2813713252544403,
      0.13280193507671356,
      0.3081819713115692,
      -0.10202421993017197,
      0.3313002586364746,
      0.039955023676157,
      -0.23781181871891022,
      -0.27188554406166077,
      0.15760651230812073,
      0.28969013690948486,
      -0.14412955939769745,
      0.1723102182149887,
      -0.19833961129188538
    ],
    [
      0.015110433101654053,
      0.15589886903762817,
      -0.4154350757598877,
      -0.28702330589294434,
      0.004442164674401283,
      -0.5022978782653809,
      -0.3038223683834076,
      0.0809326171875,
      0.22820565104484558,
      -0.3681911528110504,
      -0.07407017797231674,
      0.22287502884864807,
      -0.10389436781406403,
      0.17930178344249725,
      0.1830115169286728,
      0.45044800639152527,
      0.6567826271057129,
      -0.32331863045692444,
      -0.047631748020648956,
      -0.1402071714401245,
      0.6082039475440979,
      -0.12455523014068604,
      -0.6679484844207764,
      -0.03837784752249718,
      0.02634306810796261,
      -0.06018978729844093,
      -0.028990281745791435,
      0.5129107236862183,
      -0.0643002986907959,
      -0.07144758850336075,
      0.1489776372909546,
      0.04124172031879425
    ],
    [
      -0.03376730903983116,
      -0.1801721155643463,
      0.40189194679260254,
      -0.05486305430531502,
      0.20267757773399353,
      0.26222437620162964,
      0.09056918323040009,
      -0.18346375226974487,
      0.14675483107566833,
      0.0524793341755867,
      -0.12935955822467804,
      0.17670230567455292,
      0.10265598446130753,
      0.1584099978208542,
      0.1294989138841629,
      -0.012246674858033657,
      -0.04335249215364456,
      -0.0028283139690756798,
      0.3559029698371887,
      -0.15204443037509918,
      -0.3274643123149872,
      -0.4189528822898865,
      -0.40479233860969543,
      0.008682893589138985,
      -0.10688237845897675,
      0.05691583454608917,
      -0.005861494690179825,
      -0.5289879441261292,
      0.12049809098243713,
      -0.2778308391571045,
      -0.04627225920557976,
      0.15068992972373962
    ],
    [
      0.31834203004837036,
      -0.10671550035476685,
      -0.06562050431966782,
      0.22839497029781342,
      0.27697762846946716,
      -0.05726783350110054,
      0.0018172211712226272,
      0.17968107759952545,
      0.20351430773735046,
      0.13042105734348297,
      0.327729195356369,
      -0.12026111036539078,
      -0.22253593802452087,
      -0.26908883452415466,
      0.025432251393795013,
      -0.16995012760162354,
      -0.06190504506230354,
      0.04305016249418259,
      0.31082263588905334,
      0.394630491733551,
      -0.09195027500391006,
      0.06629106402397156,
      0.1342073231935501,
      -0.028995035216212273,
      -0.09712274372577667,
      0.28791117668151855,
      0.31146737933158875,
      0.27259349822998047,
      0.20350317656993866,
      0.08179400116205215,
      0.2378871738910675,
      0.22435951232910156
    ],
    [
      -0.13031500577926636,
      -0.11817599087953568,
      0.2634873688220978,
      -0.07267803698778152,
      -0.009550351649522781,
      -0.0013393323170021176,
      0.10953085869550705,
      -0.0007299492135643959,
      -0.45303040742874146,
      0.133213073015213,
      -0.17574109137058258,
      0.16263967752456665,
      -0.21017082035541534,
      -0.06380249559879303,
      -0.09563592821359634,
      0.36619076132774353,
      -0.21785393357276917,
      -0.2043401151895523,
      -0.25658413767814636,
      0.13760294020175934,
      0.0979970321059227,
      0.34919968247413635,
      0.12701240181922913,
      -0.38313403725624084,
      -0.004626129288226366,
      -0.19432058930397034,
      0.10146046429872513,
      0.2410469800233841,
      -0.2704025208950043,
      0.023677218705415726,
      -0.06762063503265381,
      0.0572269931435585
    ],
    [
      -0.000916987017262727,
      0.14711852371692657,
      0.30915436148643494,
      -0.1503715068101883,
      0.18419435620307922,
      0.2881631553173065,
      0.05427302420139313,
      0.11986970901489258,
      -0.2990175485610962,
      0.16242127120494843,
      0.04766057804226875,
      0.10088150203227997,
      -0.153376042842865,
      -0.22853095829486847,
      -0.41631731390953064,
      -0.08760722726583481,
      0.002302266890183091,
      0.3129277527332306,
      0.31482386589050293,
      -0.10851562023162842,
      -0.4856148660182953,
      0.018442176282405853,
      0.11352283507585526,
      -0.20124535262584686,
      -0.08408042788505554,
      0.05136551335453987,
      0.11962523311376572,
      0.038295112550258636,
      -0.11914457380771637,
      -0.12400281429290771,
      -0.2050536423921585,
      0.15740881860256195
    ],
    [
      0.20661011338233948,
      0.5723746418952942,
      -0.023465408012270927,
      -0.12328536063432693,
      0.2966829538345337,
      -0.013621542602777481,
      -0.0007346246275119483,
      -0.37038281559944153,
      -0.014688801020383835,
      0.1605987250804901,
      -0.046386417001485825,
      -0.22610943019390106,
      -0.2048686444759369,
      0.049556925892829895,
      0.0855383425951004,
      -0.11306298524141312,
      -0.3260287046432495,
      0.28025317192077637,
      0.08932845294475555,
      -0.03851325809955597,
      0.3894486427307129,
      0.04525148496031761,
      0.11427215486764908,
      -0.5182811617851257,
      -0.01592518389225006,
      0.1057288646697998,
      0.30170387029647827,
      -0.007023362908512354,
      0.28000617027282715,
      -0.09703034162521362,
      -0.22382831573486328,
      -0.14337752759456635
    ],
    [
      0.20550189912319183,
      -0.25390341877937317,
      0.2401108741760254,
      -0.16352801024913788,
      -0.2283760905265808,
      0.16958452761173248,
      -0.17836956679821014,
      -0.10658241808414459,
      -0.14000946283340454,
      -0.012903363443911076,
      -0.2906205654144287,
      -0.1903068870306015,
      0.08393853902816772,
      0.21046091616153717,
      0.37510988116264343,
      -0.15254007279872894,
      -0.1400681734085083,
      -0.18977423012256622,
      -0.3754492402076721,
      -0.43668606877326965,
      -0.10022290050983429,
      -0.0143026914447546,
      0.023380300030112267,
      -0.1051667332649231,
      0.04307793453335762,
      -0.28558966517448425,
      -0.025060122832655907,
      0.11808785051107407,
      0.03425868600606918,
      -0.03209330141544342,
      0.12010867893695831,
      -0.3379219174385071
    ],
    [
      0.4897201657295227,
      -0.13708001375198364,
      0.07351027429103851,
      0.06048242375254631,
      -0.023536881431937218,
      0.21239042282104492,
      0.09246955811977386,
      0.197600319981575,
      0.030351202934980392,
      0.16760976612567902,
      0.02130628377199173,
      0.27186572551727295,
      -0.2799987494945526,
      -0.17759372293949127,
      0.20507287979125977,
      -0.2016342580318451,
      0.0945291817188263,
      -0.34274065494537354,
      -0.03216750547289848,
      0.21207015216350555,
      0.05155235156416893,
      -0.3213840425014496,
      -0.42236605286598206,
      0.6069654226303101,
      0.11372856050729752,
      0.09789232164621353,
      -0.30240052938461304,
      -0.45876026153564453,
      -0.09182185679674149,
      -0.42079800367355347,
      0.19917936623096466,
      0.3318200409412384
    ],
    [
      0.168132483959198,
      0.08266503363847733,
      -0.11363264918327332,
      -0.06516288965940475,
      -0.2598932981491089,
      -0.029574815183877945,
      -0.05272620916366577,
      -0.08708848059177399,
      0.03875426575541496,
      0.12629958987236023,
      -0.3221980333328247,
      0.31067702174186707,
      0.22610890865325928,
      0.3687768280506134,
      -0.1323445737361908,
      -0.22940514981746674,
      0.3169625699520111,
      0.18171510100364685,
      -0.10326747596263885,
      -0.003570533124729991,
      0.3265712857246399,
      -0.12375831604003906,
      -0.14235742390155792,
      0.06982684135437012,
      0.28655073046684265,
      -0.0915626510977745,
      -0.10126781463623047,
      0.352311372756958,
      -0.14010345935821533,
      -0.032311249524354935,
      -0.01638542301952839,
      0.056825097650289536
    ],
    [
      -0.0959392860531807,
      -0.02165158838033676,
      0.12571340799331665,
      0.18793313205242157,
      -0.13085997104644775,
      -0.14448682963848114,
      -0.41946178674697876,
      -0.020163312554359436,
      0.2751298248767853,
      0.10600994527339935,
      -0.20362626016139984,
      -0.28076982498168945,
      -0.49025166034698486,
      0.045659832656383514,
      0.22582419216632843,
      -0.42722052335739136,
      0.11405899375677109,
      0.07340506464242935,
      0.009123108349740505,
      0.41323375701904297,
      0.3906511664390564,
      -0.33524003624916077,
      -0.25412797927856445,
      -0.2760707437992096,
      0.001674303668551147,
      -0.16062846779823303,
      -0.10187280178070068,
      0.1629875749349594,
      0.10703599452972412,
      -0.18343327939510345,
      0.006031430326402187,
      -0.20142553746700287
    ],
    [
      -0.39627325534820557,
      -0.12761393189430237,
      -0.009814086370170116,
      0.23531511425971985,
      0.10603926330804825,
      0.06025435030460358,
      -0.007488708943128586,
      0.3163321614265442,
      -0.009332893416285515,
      0.18301580846309662,
      -0.04207664728164673,
      0.274023175239563,
      -0.34403955936431885,
      -0.0692208781838417,
      -0.27794164419174194,
      -0.06269846111536026,
      0.129646435379982,
      0.08311249315738678,
      0.0732295960187912,
      -0.23321928083896637,
      0.2665836811065674,
      -0.1311858743429184,
      0.23271505534648895,
      -0.44212353229522705,
      0.24421773850917816,
      -0.11035260558128357,
      -0.0018181722844019532,
      0.16899694502353668,
      0.3882323205471039,
      -0.1500423103570938,
      -0.16443036496639252,
      -0.2920662760734558
    ],
    [
      0.005076040979474783,
      -0.07223165780305862,
      -0.13519054651260376,
      0.2278614640235901,
      -0.05877412483096123,
      0.21499471366405487,
      -0.07534493505954742,
      -0.1550712138414383,
      0.19415831565856934,
      0.07708489894866943,
      -0.03421385958790779,
      0.16045613586902618,
      -0.3139881193637848,
      -0.23178614675998688,
      -0.022521888837218285,
      -0.07033489644527435,
      -0.3055957555770874,
      0.0804566890001297,
      0.0820222795009613,
      0.3986976444721222,
      0.13055530190467834,
      0.21656519174575806,
      0.03807307779788971,
      0.030236991122364998,
      0.24189700186252594,
      0.01765916310250759,
      -0.06664229929447174,
      0.24369016289710999,
      -0.09263677150011063,
      -0.21067273616790771,
      0.1903645247220993,
      0.07412878423929214
    ],
    [
      0.059468962252140045,
      -0.3742178976535797,
      -0.006570098455995321,
      -0.22322708368301392,
      0.21100424230098724,
      -0.4359804391860962,
      -0.05139026790857315,
      0.17469516396522522,
      -0.2776869535446167,
      0.14221616089344025,
      0.16375866532325745,
      -0.12416782975196838,
      0.024080824106931686,
      0.16907653212547302,
      0.21347931027412415,
      0.07686182856559753,
      -0.003955047577619553,
      -0.1772066056728363,
      -0.37545347213745117,
      -0.11078845709562302,
      -0.02649998851120472,
      -0.18008962273597717,
      -0.18416152894496918,
      -0.3142554461956024,
      -0.011492266319692135,
      -0.2341729998588562,
      -0.026742985472083092,
      0.19742009043693542,
      -0.34574154019355774,
      -0.2114000916481018,
      0.057136427611112595,
      -0.12556782364845276
    ],
    [
      0.18905062973499298,
      -0.32952699065208435,
      0.12452705949544907,
      -0.155923530459404,
      -0.09466162323951721,
      0.1597406417131424,
      0.01731093041598797,
      0.19121195375919342,
      -0.19192096590995789,
      -0.14868149161338806,
      -0.17584198713302612,
      -0.28009626269340515,
      -0.22146101295948029,
      0.46359530091285706,
      0.3972865343093872,
      0.12983854115009308,
      -0.11407648026943207,
      0.17985227704048157,
      -0.10204515606164932,
      0.21628576517105103,
      0.009160930290818214,
      0.18739765882492065,
      -0.029767341911792755,
      0.015067110769450665,
      -0.17017877101898193,
      -0.2784574031829834,
      0.23390120267868042,
      0.2542719841003418,
      0.3272327482700348,
      -0.07992918789386749,
      0.09447840601205826,
      -0.09744782745838165
    ],
    [
      0.42533499002456665,
      0.3516850769519806,
      0.3377189040184021,
      -0.05194736272096634,
      -0.017687974497675896,
      -0.14439712464809418,
      -0.18991443514823914,
      0.06722209602594376,
      -0.34207651019096375,
      0.18603463470935822,
      -0.12452906370162964,
      0.0033882323186844587,
      -0.18686732649803162,
      0.08345872908830643,
      0.16035620868206024,
      -0.14317648112773895,
      0.12053537368774414,
      -0.03925837203860283,
      -0.052866801619529724,
      0.019775012508034706,
      -0.36893004179000854,
      0.295488566160202,
      0.19848841428756714,
      0.26314204931259155,
      0.11806415766477585,
      -0.07167123258113861,
      -0.2098195105791092,
      -0.018237117677927017,
      -0.40302759408950806,
      0.20476104319095612,
      0.19768337905406952,
      0.16327090561389923
    ],
    [
      -0.054522208869457245,
      -0.3053207993507385,
      0.04316103085875511,
      0.23039239645004272,
      0.17679856717586517,
      0.18396583199501038,
      -0.12766771018505096,
      -0.045885879546403885,
      -0.4518906772136688,
      0.08783475309610367,
      -0.16864065825939178,
      0.1402469128370285,
      0.1708335131406784,
      0.27114611864089966,
      -0.011997252702713013,
      0.0027654096484184265,
      -0.3706129789352417,
      -0.014867700636386871,
      0.12044121325016022,
      0.10936743766069412,
      0.16963456571102142,
      0.28103768825531006,
      -0.04383857175707817,
      0.05928712338209152,
      -0.055916544049978256,
      -0.049022749066352844,
      0.47614073753356934,
      0.03861279413104057,
      -0.07326021790504456,
      -0.009112288244068623,
      -0.3141353726387024,
      -0.1740538328886032
    ]
  ],
  "b2": [
    0.04883098974823952,
    0.10630715638399124,
    -0.045290473848581314,
    -0.08997601270675659,
    0.013299818150699139,
    0.07866916805505753,
    0.07403022795915604,
    -0.0018231624271720648,
    0.06597499549388885,
    0.26749488711357117,
    -0.1580321341753006,
    0.06829578429460526,
    0.030774960294365883,
    -0.032541461288928986,
    0.12667076289653778,
    0.04612253978848457,
    0.04853823035955429,
    0.051520444452762604,
    0.046335142105817795,
    0.25298282504081726,
    0.12233880162239075,
    -0.14377227425575256,
    -0.250061571598053,
    0.1697404533624649,
    -0.3598974943161011,
    0.08051460236310959,
    -0.04932183027267456,
    0.0745663195848465,
    -0.134949192404747,
    -0.10545829683542252,
    0.056126564741134644,
    -0.013278805650770664
  ],
  "W3": [
    [
      0.3204193711280823,
      -0.496062695980072,
      -0.6184542775154114,
      0.21606653928756714,
      0.037539537996053696,
      -0.32092082500457764,
      0.7104457020759583,
      -0.16516104340553284,
      0.0522262305021286,
      -0.24827006459236145,
      0.22796063125133514,
      0.09038197249174118,
      0.013612208887934685,
      0.010876387357711792,
      -0.10629299283027649,
      -0.05298139527440071,
      0.07930585741996765,
      -0.33986997604370117,
      -0.06663021445274353,
      0.18921305239200592,
      0.11684265732765198,
      -0.052352506667375565,
      0.11320694535970688,
      -0.27392876148223877,
      0.08179958164691925,
      -0.39236244559288025,
      0.22129957377910614,
      -0.02992364950478077,
      0.10233115404844284,
      -0.39743828773498535,
      0.09036032110452652,
      -0.36426883935928345
    ],
    [
      0.22358912229537964,
      0.12354117631912231,
      -0.5251504182815552,
      -0.2594633400440216,
      -0.44822248816490173,
      -0.18370452523231506,
      0.4255850911140442,
      0.009557039476931095,
      -0.4447530210018158,
      0.3641846776008606,
      -0.42184558510780334,
      0.09084287285804749,
      0.2846441864967346,
      0.23146043717861176,
      0.5241732001304626,
      0.4622017741203308,
      -0.4281715154647827,
      0.0539361909031868,
      0.21820470690727234,
      0.4136998951435089,
      0.3869437873363495,
      -0.24604277312755585,
      -0.11927228420972824,
      -0.07833921909332275,
      -0.399649977684021,
      -0.10673072934150696,
      0.1470487266778946,
      0.16095034778118134,
      -0.2795003056526184,
      -0.06927980482578278,
      0.17289352416992188,
      0.16024315357208252
    ],
    [
      -0.4178708791732788,
      0.40780404210090637,
      -0.22158384323120117,
      0.28475072979927063,
      0.6662784218788147,
      -0.7655677795410156,
      -0.03172141686081886,
      0.12209291011095047,
      -0.27300360798835754,
      0.08094491064548492,
      0.7046642303466797,
      0.13514132797718048,
      0.06300056725740433,
      0.23591922223567963,
      0.19633780419826508,
      -0.6634872555732727,
      0.14678135514259338,
      -0.8229264616966248,
      0.553722620010376,
      0.30036285519599915,
      -0.26579874753952026,
      0.5430651903152466,
      -0.3838084936141968,
      -0.5575450658798218,
      0.3139834702014923,
      0.38796454668045044,
      0.6623842120170593,
      0.292087584733963,
      -0.05728946998715401,
      0.5420780181884766,
      -0.7517264485359192,
      0.25433504581451416
    ],
    [
      -0.0689300000667572,
      0.10975158959627151,
      -0.3332688808441162,
      0.3882869482040405,
      0.19390363991260529,
      0.15629495680332184,
      0.5943577289581299,
      0.656671941280365,
      -0.12307579070329666,
      -0.5387585759162903,
      0.21417081356048584,
      -0.5857720971107483,
      -0.5725063681602478,
      0.4934464991092682,
      -0.35315975546836853,
      -0.6669735312461853,
      -0.5645778179168701,
      0.04521489515900612,
      0.6064909100532532,
      -0.4527072310447693,
      0.572580099105835,
      0.38088151812553406,
      -0.8079192042350769,
      -0.01931566558778286,
      -0.3674967288970947,
      0.6815896034240723,
      -0.18890875577926636,
      0.5445342063903809,
      -0.7721264362335205,
      -0.4387451708316803,
      0.11600740253925323,
      -0.208624005317688
    ]
  ],
  "b3": [
    -0.05259490758180618,
    0.1741563230752945,
    -0.05801522731781006,
    0.1030411347746849
  ],
  "loss": [
    0.14503225659219815,
    0.04964707575328205,
    0.024747686858366553,
    0.0174306710541714,
    0.012895362631839123,
    0.009827929801152399,
    0.007593930399577532,
    0.00608339776469317,
    0.005088800888708127,
    0.0044100179542770745,
    0.003908762328917094,
    0.003508841096066005,
    0.0031761670681936223,
    0.0028940190357042454,
    0.0026532502675503827,
    0.0024479316324730114,
    0.0022728225409255607,
    0.002122603360476205,
    0.0019923745743913707,
    0.001877982320972175,
    0.0017760167027604655,
    0.0016837858025350475,
    0.0015992870328426804,
    0.0015211019843783496,
    0.0014482705815420818,
    0.0013802465622402018,
    0.0013168657625058024,
    0.00125822152594559,
    0.001204433213344947,
    0.0011554362634862109,
    0.0011108929718050473,
    0.0010702785824659735,
    0.001033040746170584,
    0.000998718974577579,
    0.0009669577444323554,
    0.0009374637336458406,
    0.0009099706998139958,
    0.0008842276985368309,
    0.0008600115703908765,
    0.0008371329879429098,
    0.0008154369363096304,
    0.00079479446681251,
    0.0007750946165071495,
    0.0007562366169319527,
    0.0007381309473463002,
    0.0007207050769769315,
    0.0007039149820792815,
    0.0006877506108745971,
    0.0006722406833865708,
    0.0006574379864278377,
    0.0006434017397103682,
    0.000630170037116581,
    0.0006177453939190379,
    0.0006060945001774512,
    0.0005951622655889618,
    0.0005848849316732542,
    0.0005751942142610677,
    0.0005660168303404047,
    0.0005572741327644811,
    0.0005488830508424837,
    0.0005407598388869484,
    0.0005328240013763466,
    0.0005250116675294217,
    0.0005172943494818312,
    0.0005096930858815627,
    0.0005022550246307912,
    0.0004950166723920986,
    0.00048798603575050947,
    0.0004811537450266423,
    0.00047450710192043475,
    0.0004680373916753091,
    0.00046173941256624643,
    0.00045561167665991454,
    0.0004496543396531446,
    0.0004438678289001733,
    0.0004382525416986027,
    0.00043280687725113934,
    0.0004275272171764213,
    0.00042240748420919685,
    0.00041743928418977054,
    0.0004126131014432065,
    0.0004079174812735194,
    0.0004033426941012814,
    0.0003988818327906345,
    0.00039453084264096105,
    0.0003902911016883168,
    0.00038616537748176985,
    0.00038215949154532395,
    0.00037827950063729077,
    0.00037452955839831876,
    0.0003709134150215375,
    0.00036743099759578834,
    0.00036407961949537693,
    0.00036085383808746147,
    0.00035774611512265223,
    0.0003547464913307998,
    0.0003518450635272616,
    0.0003490300992953486,
    0.0003462918711236506,
    0.00034362223169366536
  ],
  "vloss": [
    0.2765477723663762,
    0.10276148397298086,
    0.045792325089375176,
    0.0300203111865336,
    0.021647883501524728,
    0.01690442589599462,
    0.013497938568304692,
    0.011066664581275767,
    0.009430033853277564,
    0.008282945241912134,
    0.0074352769103522105,
    0.006766857834355463,
    0.006217210875114515,
    0.005758685317622232,
    0.005375489373580508,
    0.00505690324851977,
    0.004793809372044745,
    0.00457583230343603,
    0.0043917045363092,
    0.0042306285135314935,
    0.00408350986184641,
    0.0039440983618121775,
    0.003809438480640806,
    0.0036791050820500545,
    0.003553774386611102,
    0.003434244286923093,
    0.0033212396831783864,
    0.0032154842268764263,
    0.003117489312509341,
    0.0030271831728030173,
    0.002943689120002091,
    0.002865648627491845,
    0.0027918387488517467,
    0.0027216151259684316,
    0.0026548473646731247,
    0.0025916318104247608,
    0.002532049267929757,
    0.002476057284400754,
    0.002423506095683912,
    0.0023741554233267727,
    0.0023277061665707846,
    0.002283810515932384,
    0.0022420932710658583,
    0.002202180276591597,
    0.0021637489615906297,
    0.002126580610084126,
    0.0020906183684322364,
    0.002055999725208884,
    0.002023046319317516,
    0.0019921827666361685,
    0.001963799290630656,
    0.0019380665177041443,
    0.0019148502407395946,
    0.0018937460512721113,
    0.0018742050247272431,
    0.0018556845922527525,
    0.0018377193513775378,
    0.0018199562570468213,
    0.0018021590589168703,
    0.0017841998085800913,
    0.0017660274606896564,
    0.0017476235959856283,
    0.0017289849163803627,
    0.001710126380549766,
    0.00169114257906109,
    0.0016721629498143947,
    0.0016532724018491405,
    0.0016344843256991311,
    0.0016157899503707,
    0.0015971969031462713,
    0.0015787494821346453,
    0.0015605090468722796,
    0.0015425527412194892,
    0.0015249576477106615,
    0.0015078009770756278,
    0.001491147383473747,
    0.0014750447929448758,
    0.0014595242956558997,
    0.0014445829011882389,
    0.0014301953016824665,
    0.0014163099424747219,
    0.0014028563039443856,
    0.0013897568704643553,
    0.0013769478408946832,
    0.0013643767701328865,
    0.0013520228998718917,
    0.001339879444761512,
    0.0013279583238597428,
    0.0013162786365553205,
    0.0013048530835519721,
    0.0012936991683783986,
    0.00128282335451028,
    0.0012722252005395213,
    0.001261900067003721,
    0.001251842629114565,
    0.0012420453917695255,
    0.001232507457254022,
    0.0012232259385720162,
    0.0012142087651314103,
    0.0012054676548619422
  ],
  "alpha": 0.9
}