{
  "name": "double integrator",
  "W1": [
    [
      -0.13510218262672424,
      -0.22531917691230774,
      -0.015278358943760395,
      -0.12491296976804733,
      -0.005047874990850687
    ],
    [
      0.20579014718532562,
      -0.051536645740270615,
      0.16333915293216705,
      -0.02964198961853981,
      0.0023839164059609175
    ],
    [
      -0.280520498752594,
      0.058092907071113586,
      0.13719990849494934,
      -0.08892713487148285,
      0.001302419463172555
    ],
    [
      0.032009024173021317,
      0.22771628201007843,
      0.08297210931777954,
      -0.06409064680337906,
      0.0016484921798110008
    ],
    [
      0.3674498200416565,
      -0.45392081141471863,
      0.19216208159923553,
      -0.3684139847755432,
      -0.05318983644247055
    ],
    [
      -0.002362762810662389,
      -0.13722127676010132,
      0.1581161618232727,
      -0.040773410350084305,
      0.011157156899571419
    ],
    [
      0.4732067286968231,
      -0.4931142032146454,
      0.07010858505964279,
      -0.17184625566005707,
      0.13504114747047424
    ],
    [
      0.17560769617557526,
      -0.12901993095874786,
      0.20277093350887299,
      -0.07151632755994797,
      0.008720099925994873
    ],
    [
      -0.4947853982448578,
      0.7821284532546997,
      -0.2615690231323242,
      -0.10698971897363663,
      0.0019029603572562337
    ],
    [
      -0.21831165254116058,
      -0.006569201592355967,
      -1.2335543632507324,
      0.008725814521312714,
      -0.09605000913143158
    ],
    [
      -0.05938992649316788,
      -0.3007061183452606,
      0.030805792659521103,
      -0.08597172796726227,
      9.055118425749242e-05
    ],
    [
      0.18443860113620758,
      1.0146013498306274,
      0.11868567019701004,
      0.07757280021905899,
      0.041604191064834595
    ],
    [
      0.09096235781908035,
      0.08870347589254379,
      0.06918659806251526,
      0.14365975558757782,
      -0.0011656240094453096
    ],
    [
      0.3659243881702423,
      -0.2362993061542511,
      0.5518105030059814,
      0.30084264278411865,
      0.10750870406627655
    ],
    [
      -0.12072266638278961,
      0.0040334677323699,
      -0.12433306127786636,
      0.11104559898376465,
      0.08778665959835052
    ],
    [
      -0.01471842359751463,
      0.019395500421524048,
      0.02603510208427906,
      -0.006219407543540001,
      -0.045463576912879944
    ],
    [
      0.11762778460979462,
      -0.33134129643440247,
      -0.0989019051194191,
      -0.18149974942207336,
      -0.08854302763938904
    ],
    [
      0.050903595983982086,
      -0.2590940594673157,
      0.49225690960884094,
      0.17961665987968445,
      -0.07977105677127838
    ],
    [
      0.18869811296463013,
      0.25005707144737244,
      0.003387914737686515,
      0.10084780305624008,
      0.0033214082941412926
    ],
    [
      0.02387450449168682,
      -0.22481271624565125,
      0.08906255662441254,
      0.09531357139348984,
      4.456963506527245e-05
    ],
    [
      -0.17983655631542206,
      -0.014871230348944664,
      -0.04669630527496338,
      0.15299516916275024,
      0.02016155794262886
    ],
    [
      -0.07744375616312027,
      0.005921174772083759,
      -0.05534514784812927,
      -0.14282429218292236,
      -0.0017037387005984783
    ],
    [
      -0.1794610172510147,
      -0.0797683373093605,
      -0.09669658541679382,
      0.16758881509304047,
      0.022757362574338913
    ],
    [
      0.2807530164718628,
      -0.24053366482257843,
      0.5919476747512817,
      -0.4094289541244507,
      0.0008632024982944131
    ],
    [
      0.04546597599983215,
      -0.247422456741333,
      -0.0075433445163071156,
      0.06574154645204544,
      -0.01720004715025425
    ],
    [
      0.3592948317527771,
      -0.3497251272201538,
      0.331116259098053,
      -0.0813230648636818,
      0.10882078856229782
    ],
    [
      -0.139717236161232,
      0.3604884147644043,
      0.059205714613199234,
      0.11037416756153107,
      0.003535257885232568
    ],
    [
      -0.40112313628196716,
      -0.3544955253601074,
      -0.1098787859082222,
      -0.08266004920005798,
      0.0886629968881607
    ],
    [
      0.1717023253440857,
      -0.3075476586818695,
      0.147296741604805,
      -0.42246437072753906,
      -0.012352894060313702
    ],
    [
      0.06459298729896545,
      0.29167118668556213,
      0.26707661151885986,
      -0.006166430655866861,
      0.016588451340794563
    ],
    [
      0.07102980464696884,
      0.21390461921691895,
      -0.06989885866641998,
      -0.07456915080547333,
      -0.004519821610301733
    ],
    [
      0.36192235350608826,
      0.046308211982250214,
      -0.06722202152013779,
      -0.08108065277338028,
      0.0031423266045749187
    ]
  ],
  "b1": [
    -0.26787152886390686,
    0.12427601963281631,
    0.047245848923921585,
    0.2708550691604614,
    0.19617003202438354,
    0.23865358531475067,
    -0.048882804811000824,
    -0.07710500806570053,
    -0.18323035538196564,
    0.16217578947544098,
    -0.02466699108481407,
    0.09653236716985703,
    -0.3682088851928711,
    -0.13130441308021545,
    -0.1908068209886551,
    0.0005053781787864864,
    0.3956439197063446,
    0.27437299489974976,
    -0.6090303063392639,
    0.28955429792404175,
    -0.2650218605995178,
    -0.011588827706873417,
    0.3167315423488617,
    0.153243750333786,
    0.3209015727043152,
    0.2510201632976532,
    -0.6852426528930664,
    0.04494099318981171,
    -0.35640260577201843,
    0.30381089448928833,
    -0.5623243451118469,
    0.406520813703537
  ],
  "W2": [
    [
      0.05264202505350113,
      -0.3077922761440277,
      0.13562288880348206,
      -0.3544995188713074,
      0.04173928126692772,
      -0.09421619027853012,
      -0.15350845456123352,
      0.16853269934654236,
      0.004321167711168528,
      -0.24808800220489502,
      -0.22421753406524658,
      -0.3829961121082306,
      0.2592245638370514,
      -0.13185152411460876,
      0.02048376388847828,
      0.032375067472457886,
      -0.25589630007743835,
      -0.11974498629570007,
      0.20942477881908417,
      -0.13210371136665344,
      0.5195752382278442,
      -0.03958813101053238,
      0.13752703368663788,
      -0.2589564323425293,
      -0.10087046772241592,
      0.2201625555753708,
      0.41033315658569336,
      -0.09503494203090668,
      0.10824230313301086,
      0.0349883958697319,
      0.04012170806527138,
      0.050220947712659836
    ],
    [
      -0.1324661374092102,
      0.09538359940052032,
      -0.42394518852233887,
      0.08461938053369522,
      0.012587391771376133,
      -0.18742579221725464,
      0.2189653068780899,
      -0.17619945108890533,
      0.22950239479541779,
      -0.22351153194904327,
      -0.3528098464012146,
      -0.1134447306394577,
      0.2577836215496063,
      0.03227837383747101,
      -0.019647778943181038,
      0.07439173758029938,
      -0.11998932808637619,
      -0.1234513446688652,
      0.060031794011592865,
      -0.2905072569847107,
      -0.10501644015312195,
      -0.1721077263355255,
      -0.0611366368830204,
      -0.3136979639530182,
      0.22663550078868866,
      0.09669890254735947,
      0.22854727506637573,
      -0.044079624116420746,
      0.13198934495449066,
      -0.2584270238876343,
      0.4613494277000427,
      0.2374790757894516
    ],
    [
      0.3410715162754059,
      0.47727978229522705,
      0.1181301549077034,
      -0.05406218767166138,
      -0.07797521352767944,
      0.13015632331371307,
      -0.20069432258605957,
      0.22448623180389404,
      0.3932356536388397,
      0.31435367465019226,
      0.46926119923591614,
      0.11754247546195984,
      -0.39062145352363586,
      0.030210277065634727,
      0.2855331599712372,
      -0.191818505525589,
      0.27877193689346313,
      -0.05430828407406807,
      -0.11108075082302094,
      0.1236998438835144,
      -0.4010738730430603,
      0.12868233025074005,
      -0.3993489444255829,
      -0.5406576991081238,
      0.22729428112506866,
      -0.21101592481136322,
      -0.0187054630368948,
      -0.06500780582427979,
      -0.08418393135070801,
      0.15162131190299988,
      0.26978421211242676,
      0.1992843747138977
    ],
    [
      0.3081279993057251,
      0.025829512625932693,
      -0.4657580852508545,
      -0.695357084274292,
      0.1988590657711029,
      -0.3417384922504425,
      0.04901605844497681,
      0.22901324927806854,
      0.008581976406276226,
      -0.2799619734287262,
      0.42938321828842163,
      -0.14246612787246704,
      -0.015849048271775246,
      0.33764851093292236,
      -0.13706865906715393,
      0.4561721682548523,
      -0.14901569485664368,
      -0.17694362998008728,
      -0.4574226438999176,
      0.5776458978652954,
      -0.4862509071826935,
      0.17494840919971466,
      -0.2181548774242401,
      0.16437941789627075,
      0.6399659514427185,
      -0.04820510745048523,
      -0.26489824056625366,
      0.166701540350914,
      -0.06255314499139786,
      -0.4259978234767914,
      -0.5769525766372681,
      -0.23825500905513763
    ],
    [
      0.5272390842437744,
      -0.10584267973899841,
      -0.5384445786476135,
      -0.2582012116909027,
      -0.06402996927499771,
      0.3396591544151306,
      0.0002500621194485575,
      0.4213002920150757,
      0.14286567270755768,
      0.18021324276924133,
      0.5359322428703308,
      0.4464278817176819,
      -0.014233291149139404,
      -0.017058873549103737,
      0.05556540563702583,
      -0.23347076773643494,
      -0.19728341698646545,
      -0.023040037602186203,
      -0.34900030493736267,
      0.01876872032880783,
      -0.2562626004219055,
      -0.09368277341127396,
      0.0413661003112793,
      0.40438583493232727,
      0.27687692642211914,
      0.16264115273952484,
      -0.13876235485076904,
      -0.11253580451011658,
      0.1085282638669014,
      -0.08723942190408707,
      -0.11193288117647171,
      -0.11676262319087982
    ],
    [
      0.34905022382736206,
      0.06432868540287018,
      -0.07649670541286469,
      -0.030558522790670395,
      0.04599924013018608,
      -0.18889208137989044,
      -0.1453227698802948,
      -0.14384858310222626,
      -0.004641796462237835,
      0.0280839242041111,
      0.13357193768024445,
      0.27839237451553345,
      0.012919659726321697,
      -0.073662668466568,
      0.04473467916250229,
      0.05163160711526871,
      -0.03403688222169876,
      -0.15516714751720428,
      0.19606608152389526,
      -0.17489807307720184,
      0.14889901876449585,
      0.46327826380729675,
      -0.06741434335708618,
      -0.2912118136882782,
      -0.023039381951093674,
      0.16139771044254303,
      -0.2642505466938019,
      -0.023673878982663155,
      0.1659550666809082,
      0.305139422416687,
      0.2728421688079834,
      -0.25251418352127075
    ],
    [
      -0.1913541704416275,
      -0.10242853313684464,
      0.1904112547636032,
      -0.268401175737381,
      -0.16532035171985626,
      0.2715795338153839,
      0.32785168290138245,
      -0.10058581084012985,
      0.23155662417411804,
      0.09122633934020996,
      -0.046135030686855316,
      -0.017531588673591614,
      0.19678497314453125,
      -0.4751509428024292,
      0.006188492756336927,
      0.11178773641586304,
      -0.27973127365112305,
      -0.2958059310913086,
      -0.012727078050374985,
      0.2692321538925171,
      0.08000759035348892,
      -0.2448914647102356,
      -0.09468358010053635,
      -0.14136271178722382,
      0.17175258696079254,
      0.16865859925746918,
      -0.14510317146778107,
      0.05743906646966934,
      -0.28343719244003296,
      0.04737706854939461,
      -0.22738784551620483,
      -0.13040703535079956
    ],
    [
      0.1892765313386917,
      -0.7080768346786499,
      -0.060426175594329834,
      -0.24814963340759277,
      -0.1912699043750763,
      0.13632549345493317,
      0.2609740197658539,
      -0.17330646514892578,
      -0.37385812401771545,
      -0.2504327595233917,
      0.2520582973957062,
      0.06926487386226654,
      -0.36593392491340637,
      0.43773970007896423,
      0.0471588559448719,
      -0.010524814948439598,
      -0.35405513644218445,
      0.16188864409923553,
      -0.23210999369621277,
      -0.31737732887268066,
      -0.10369507968425751,
      0.2363240271806717,
      -0.34120163321495056,
      -0.3045426607131958,
      0.016862353309988976,
      0.16347958147525787,
      -0.5062950253486633,
      -0.16591691970825195,
      0.21892723441123962,
      -0.1187676340341568,
      -0.07250896096229553,
      -0.08397859334945679
    ],
    [
      -0.03873058035969734,
      -0.3597107231616974,
      0.11543190479278564,
      -0.31753960251808167,
      -0.06059371680021286,
      0.16376151144504547,
      0.06981454789638519,
      -0.20320168137550354,
      0.09915217012166977,
      0.07253193110227585,
      0.34181368350982666,
      0.015533708967268467,
      -0.20342405140399933,
      0.09521082043647766,
      0.2501280605792999,
      0.26622316241264343,
      0.2943090796470642,
      0.05748521909117699,
      -0.6589111685752869,
      0.1980479508638382,
      -0.2746407985687256,
      -0.09475740790367126,
      0.4951511025428772,
      0.012250345200300217,
      0.09150119870901108,
      0.1459759771823883,
      -0.5563615560531616,
      0.01702379621565342,
      -0.16599588096141815,
      0.14492835104465485,
      -0.6124979257583618,
      0.44082772731781006
    ],
    [
      -0.09302470088005066,
      0.4781173765659332,
      0.007182515226304531,
      -0.2684033215045929,
      0.17050379514694214,
      0.18212927877902985,
      -0.05185684934258461,
      0.2456304281949997,
      -0.4570310413837433,
      0.24450653791427612,
      -0.25227090716362,
      -0.29133638739585876,
      0.4932483732700348,
      -0.12908893823623657,
      0.0256396122276783,
      -0.04931158572435379,
      -0.11328787356615067,
      -0.05546187236905098,
      0.12335462868213654,
      0.12928080558776855,
      0.18548962473869324,
      -0.22555150091648102,
      -0.3783315122127533,
      0.08227027952671051,
      0.02646985836327076,
      -0.03124990500509739,
      -0.13083414733409882,
      -0.10572651028633118,
      6.436224066419527e-05,
      -0.21389824151992798,
      0.31262117624282837,
      0.00995106901973486
    ],
    [
      -0.22281710803508759,
      -0.8571010828018188,
      -0.09167899936437607,
      -0.12152201682329178,
      0.15669363737106323,
      -0.6491780281066895,
      0.07752951979637146,
      -0.20906151831150055,
      -0.1830308437347412,
      -0.3955041170120239,
      -0.4072832465171814,
      -0.18099437654018402,
      0.33448031544685364,
      0.07764266431331635,
      0.029321519657969475,
      0.15825913846492767,
      -0.18360105156898499,
      -0.23891696333885193,
      -0.0034557448234409094,
      -0.31286510825157166,
      0.24209508299827576,
      0.2105710357427597,
      0.41040781140327454,
      0.263298362493515,
      -0.0995144248008728,
      0.09062712639570236,
      -0.37589722871780396,
      0.10791194438934326,
      0.4253746271133423,
      -0.38236910104751587,
      0.10663248598575592,
      -0.39402395486831665
    ],
    [
      0.16950957477092743,
      -0.426026314496994,
      -0.47114306688308716,
      0.024319279938936234,
      0.14756891131401062,
      -0.034669093787670135,
      -0.3316166400909424,
      0.10313958674669266,
      -0.029864512383937836,
      0.06907213479280472,
      0.06997428089380264,
      0.06976692378520966,
      -0.28857186436653137,
      -0.27689045667648315,
      -0.2361818552017212,
      -0.17083941400051117,
      -0.11283127218484879,
      0.2708732783794403,
      0.09298810362815857,
      -0.2960461974143982,
      -0.00996981468051672,
      0.10029608756303787,
      0.32052722573280334,
      0.10436713695526123,
      -0.01843813620507717,
      -0.2197890728712082,
      0.1281912475824356,
      -0.021957144141197205,
      -0.17446783185005188,
      -0.05344557389616966,
      0.10942817479372025,
      -0.017908986657857895
    ],
    [
      -0.5217472314834595,
      0.14073674380779266,
      0.18350493907928467,
      -0.19700194895267487,
      -0.2284235954284668,
      0.23491929471492767,
      -0.1298275738954544,
      -0.19664031267166138,
      0.22649119794368744,
      -0.13533976674079895,
      -0.21900911629199982,
      0.14479729533195496,
      0.10482493042945862,
      -0.18999941647052765,
      -0.210182324051857,
      -0.1563444286584854,
      0.0008393484749831259,
      -0.08066564798355103,
      -0.2824575901031494,
      0.32848602533340454,
      -0.13811445236206055,
      -0.3977774977684021,
      0.4876372516155243,
      0.03211469203233719,
      0.0464952252805233,
      -0.3118632137775421,
      0.05110309273004532,
      0.16524095833301544,
      -0.13007374107837677,
      0.2924942076206207,
      -0.5127794146537781,
      0.20724225044250488
    ],
    [
      0.3886752724647522,
      -0.18854832649230957,
      -0.36436307430267334,
      -0.5214794874191284,
      -0.055765002965927124,
      0.028807135298848152,
      -0.22338514029979706,
      -0.14388544857501984,
      0.1743903011083603,
      0.10737714171409607,
      0.10765960812568665,
      0.25197288393974304,
      0.060897547751665115,
      -0.2468520849943161,
      -0.04823990538716316,
      -0.03716221824288368,
      0.2756706774234772,
      0.04132581874728203,
      -0.38964343070983887,
      0.6438765525817871,
      0.10493532568216324,
      -0.33454179763793945,
      -0.08861259371042252,
      0.3270133137702942,
      0.18866035342216492,
      0.1250491440296173,
      -0.2615354657173157,
      0.1505041867494583,
      0.33830252289772034,
      -0.04817356541752815,
      -0.34919336438179016,
      -0.48671814799308777
    ],
    [
      0.09425369650125504,
      -0.03604162484407425,
      -0.16506733000278473,
      0.001607634942047298,
      -0.2619393765926361,
      -0.2582820951938629,
      -0.32073357701301575,
      -0.257367879152298,
      0.26425856351852417,
      0.2272319197654724,
      0.18004441261291504,
      -0.07228250801563263,
      -0.20483191311359406,
      -0.025456681847572327,
      -0.1274406909942627,
      -0.11403266340494156,
      0.08211101591587067,
      0.17086461186408997,
      -0.33516520261764526,
      -0.041567038744688034,
      0.2541113793849945,
      -0.12320926040410995,
      0.0029116570949554443,
      0.1508602797985077,
      0.0006062454194761813,
      -0.0007835534634068608,
      -0.217763751745224,
      -0.12951038777828217,
      -0.13468588888645172,
      0.031777095049619675,
      0.06988554447889328,
      0.04596264660358429
    ],
    [
      0.27575889229774475,
      -0.42634379863739014,
      0.8411506414413452,
      0.11741675436496735,
      -0.0171083714812994,
      0.1293499767780304,
      -0.06298325210809708,
      -0.004011575598269701,
      0.07547295838594437,
      -0.01337908860296011,
      0.0470350980758667,
      -0.14707301557064056,
      -0.0013227754971012473,
      -0.11593476682901382,
      0.025447120890021324,
      0.16113324463367462,
      -0.09844853729009628,
      -0.13420623540878296,
      0.03581573814153671,
      0.06897589564323425,
      -0.010411195456981659,
      -0.07073775678873062,
      -0.24577687680721283,
      -0.2517452538013458,
      0.06991409510374069,
      0.023818835616111755,
      0.3379732072353363,
      0.12780267000198364,
      -0.05779380723834038,
      -0.07133586704730988,
      0.2452608048915863,
      -0.43793028593063354
    ],
    [
      0.3567175269126892,
      0.09156712889671326,
      -0.306507408618927,
      -0.3187938630580902,
      -0.017956051975488663,
      -0.2505064010620117,
      0.13400040566921234,
      -0.24701999127864838,
      0.013318056240677834,
      -0.13774019479751587,
      0.05485056713223457,
      -0.012871729210019112,
      -0.12394222617149353,
      0.0433807298541069,
      -0.08131922781467438,
      -0.31358811259269714,
      0.03884294629096985,
      -0.036156997084617615,
      -0.31621071696281433,
      0.01642470806837082,
      0.13675034046173096,
      -0.4396207630634308,
      -0.09149259328842163,
      -0.1455557495355606,
      0.07641861587762833,
      -0.11828962713479996,
      -0.12426741421222687,
      -0.13158127665519714,
      0.06927812099456787,
      -0.11020273715257645,
      -0.37638095021247864,
      -0.08142224699258804
    ],
    [
      -0.08879759907722473,
      -0.218137726187706,
      0.28186163306236267,
      -0.05498998239636421,
      0.1315748244524002,
      -0.24535898864269257,
      0.019931621849536896,
      -0.027168137952685356,
      0.09672510623931885,
      0.12151241302490234,
      -0.3574599027633667,
      -0.09900567680597305,
      -0.038542862981557846,
      0.04825010895729065,
      0.09136828035116196,
      -0.0417943075299263,
      0.008873766288161278,
      0.10975420475006104,
      0.29288381338119507,
      0.02151886746287346,
      -0.09432264417409897,
      0.47697943449020386,
      0.1615571677684784,
      0.26214635372161865,
      -0.09997888654470444,
      -0.12038929760456085,
      0.14477163553237915,
      -0.23141977190971375,
      0.15347564220428467,
      -0.07071050256490707,
      0.3344149589538574,
      -0.12821908295154572
    ],
    [
      -0.07938674837350845,
      -0.31000685691833496,
      -0.7362603545188904,
      -0.2672017514705658,
      0.19622381031513214,
      -0.3120248019695282,
      0.17033986747264862,
      -0.08123113214969635,
      -0.3099885880947113,
      -0.10481743514537811,
      -0.4530247747898102,
      -0.35152798891067505,
      0.1788664013147354,
      0.02402688004076481,
      0.2175886631011963,
      0.13555635511875153,
      0.05843460559844971,
      -0.0814855620265007,
      0.5450659394264221,
      -0.214311882853508,
      0.05110091343522072,
      -0.21717214584350586,
      0.16431157290935516,
      0.20037159323692322,
      0.08680432289838791,
      0.17567875981330872,
      -0.24127987027168274,
      0.05357176437973976,
      0.25457069277763367,
      -0.2634044289588928,
      0.43444108963012695,
      0.09564030915498734
    ],
    [
      0.5458526611328125,
      -0.13925373554229736,
      0.49532943964004517,
      0.1701083928346634,
      0.20532085001468658,
      0.267372190952301,
      -0.02645999751985073,
      -0.01846388541162014,
      -0.24803946912288666,
      0.1432853490114212,
      -0.02398042194545269,
      0.1374131590127945,
      -0.1545475274324417,
      0.12618319690227509,
      -0.041778311133384705,
      -0.35086655616760254,
      0.02900923416018486,
      0.2121868133544922,
      -0.10495565086603165,
      -0.28681832551956177,
      0.17054767906665802,
      0.31248143315315247,
      0.07988618314266205,
      0.2847292125225067,
      -0.29073992371559143,
      -0.2903366982936859,
      0.39215609431266785,
      -0.2567233741283417,
      -0.009637309238314629,
      -0.013783922418951988,
      -0.23915939033031464,
      -0.440091609954834
    ],
    [
      0.3876745402812958,
      0.09641052782535553,
      -0.35499730706214905,
      -0.5672385692596436,
      -0.05466988682746887,
      0.27441051602363586,
      0.17459510266780853,
      0.012425003573298454,
      -0.3821936845779419,
      -0.037686124444007874,
      0.33537933230400085,
      -0.324930340051651,
      0.022158831357955933,
      0.053063925355672836,
      -0.09345691651105881,
      -0.026956213638186455,
      -0.10600318759679794,
      0.1190389096736908,
      -0.06441959738731384,
      0.35102176666259766,
      0.03464236855506897,
      0.6191803216934204,
      0.15718363225460052,
      -0.05947626382112503,
      0.19698435068130493,
      -0.1662123203277588,
      0.0440889336168766,
      -0.39445385336875916,
      0.005768011789768934,
      0.15103143453598022,
      0.13094665110111237,
      0.4031715393066406
    ],
    [
      0.32779213786125183,
      -0.19947457313537598,
      -0.018526801839470863,
      0.0021250059362500906,
      0.17141491174697876,
      -0.3019617795944214,
      0.16398127377033234,
      -0.321880578994751,
      0.2116706520318985,
      -0.4962819218635559,
      -0.08285798877477646,
      -0.14796626567840576,
      0.01622861437499523,
      0.3761553168296814,
      -0.06377509981393814,
      -0.060512736439704895,
      -0.2588019371032715,
      -0.07090237736701965,
      -0.34664496779441833,
      0.0618155337870121,
      -0.10489287227392197,
      0.33480414748191833,
      -0.40407687425613403,
      -0.382723867893219,
      0.09326793998479843,
      0.19363313913345337,
      0.14863556623458862,
      0.11799433082342148,
      -0.1696052998304367,
      -0.08436581492424011,
      0.1706041842699051,
      -0.2697855532169342
    ],
    [
      0.2905867397785187,
      0.7152937650680542,
      0.3487617075443268,
      0.23177701234817505,
      0.11568543314933777,
      0.4466630816459656,
      -0.24046793580055237,
      0.3080226182937622,
      0.049897368997335434,
      0.31347140669822693,
      -0.1176498681306839,
      0.05184955894947052,
      0.4359583556652069,
      0.024632608518004417,
      -0.13158276677131653,
      0.22182144224643707,
      -0.034297190606594086,
      0.3123374581336975,
      -0.12518517673015594,
      0.512827455997467,
      0.14519228041172028,
      -0.09624527394771576,
      0.22875428199768066,
      -0.13824959099292755,
      -0.08795138448476791,
      -0.53630530834198,
      0.008586936630308628,
      0.10852473229169846,
      0.06467065215110779,
      0.1273391991853714,
      -0.12430250644683838,
      0.20630881190299988
    ],
    [
      -0.032358646392822266,
      -0.637277364730835,
      -0.05910656601190567,
      -0.0857759565114975,
      0.06031379476189613,
      -0.27939870953559875,
      0.04043494537472725,
      0.13092118501663208,
      -0.2643943428993225,
      -0.11258148401975632,
      -0.2799082398414612,
      -0.1066642701625824,
      0.18974041938781738,
      0.415600061416626,
      0.054143354296684265,
      -0.047333575785160065,
      -0.16711899638175964,
      -0.09733497351408005,
      -0.1231788620352745,
      0.1169719472527504,
      0.30326271057128906,
      -0.381784051656723,
      -0.18098053336143494,
      0.14696823060512543,
      0.06708048284053802,
      0.2774207293987274,
      0.5032705664634705,
      0.21954220533370972,
      0.16916799545288086,
      0.33347511291503906,
      0.3048546612262726,
      -0.2514920234680176
    ],
    [
      0.3334437608718872,
      -0.5314121246337891,
      0.07823394984006882,
      -0.3829672932624817,
      0.2542346715927124,
      -0.25560781359672546,
      -0.0028659303206950426,
      0.03694892302155495,
      -0.18181636929512024,
      0.3150188624858856,
      -0.2205325961112976,
      -0.07792874425649643,
      -0.030882257968187332,
      0.15445847809314728,
      -0.05803003907203674,
      -0.24715226888656616,
      0.1488640159368515,
      0.011248226277530193,
      0.0773514062166214,
      -0.21612896025180817,
      0.2585906982421875,
      0.09708677232265472,
      -0.11276471614837646,
      -0.15129102766513824,
      -0.020274285227060318,
      -0.16148732602596283,
      0.12702983617782593,
      -0.051516223698854446,
      -0.12898282706737518,
      -0.2794189453125,
      0.21654023230075836,
      -0.36306747794151306
    ],
    [
      0.2691054344177246,
      -0.30273300409317017,
      0.1878816932439804,
      -0.21475356817245483,
      0.4450559616088867,
      -0.0025785171892493963,
      -0.15080145001411438,
      0.3895523250102997,
      -0.37859344482421875,
      0.1925014853477478,
      -0.13156723976135254,
      0.042414356023073196,
      -0.10080904513597488,
      0.04511236771941185,
      -0.1599261462688446,
      -0.18530379235744476,
      -0.017998268827795982,
      0.2520972788333893,
      -0.2939606308937073,
      -0.3478972613811493,
      -0.05310877412557602,
      0.15830352902412415,
      0.002664208645001054,
      0.04598308727145195,
      -0.04155983775854111,
      0.16725380718708038,
      0.284747838973999,
      0.1885158121585846,
      0.3019307553768158,
      -0.2854997515678406,
      0.3188335597515106,
      0.02751500904560089
    ],
    [
      0.16680918633937836,
      -0.2835591435432434,
      0.2802402675151825,
      -0.051771994680166245,
      -0.08566510677337646,
      -0.29431354999542236,
      8.330610580742359e-05,
      0.39050188660621643,
      0.20509788393974304,
      -0.35332876443862915,
      0.11023439466953278,
      -0.14231668412685394,
      -0.10238827764987946,
      -0.07838677614927292,
      -0.10354036837816238,
      0.25905999541282654,
      -0.2433798462152481,
      -0.2204696238040924,
      0.37424495816230774,
      -0.049159880727529526,
      -0.15398545563220978,
      0.08624066412448883,
      -0.42185693979263306,
      0.5353339314460754,
      -0.11146601289510727,
      0.13750605285167694,
      -0.0709485411643982,
      0.031173666939139366,
      -0.28447213768959045,
      -0.11007843166589737,
      0.15128134191036224,
      -0.3187437057495117
    ],
    [
      -0.2924719750881195,
      0.1052907183766365,
      0.03262334316968918,
      0.18833988904953003,
      0.18450066447257996,
      -0.31308647990226746,
      0.12779225409030914,
      -0.03450581803917885,
      -0.020678268745541573,
      -0.3227022886276245,
      0.1817765235900879,
      -0.41571831703186035,
      0.4650452435016632,
      0.38930758833885193,
      -0.09749548137187958,
      0.03233860060572624,
      0.13344380259513855,
      -0.2956567108631134,
      0.24073128402233124,
      0.23208430409431458,
      0.13115420937538147,
      -0.14956042170524597,
      0.09843102097511292,
      0.13653796911239624,
      0.2945568263530731,
      0.2850545346736908,
      -0.06386172771453857,
      -0.012212753295898438,
      -0.09629572182893753,
      0.17549553513526917,
      0.2777489423751831,
      -0.30788454413414
    ],
    [
      0.2539644241333008,
      -0.15852482616901398,
      -0.30374643206596375,
      0.07749485224485397,
      0.3172060549259186,
      -0.045973412692546844,
      0.10075385868549347,
      0.019510051235556602,
      -0.2572498917579651,
      -0.14197984337806702,
      0.03701154142618179,
      -0.01967611350119114,
      0.28795912861824036,
      0.03429756686091423,
      0.034270163625478745,
      -0.09144391864538193,
      0.3163931965827942,
      -0.18579687178134918,
      0.3269810080528259,
      0.643603503704071,
      0.3997301161289215,
      -0.4891202747821808,
      0.2283208966255188,
      0.19487538933753967,
      0.226088747382164,
      -0.10308139026165009,
      0.2294607311487198,
      0.01384706236422062,
      0.48339056968688965,
      -0.49227452278137207,
      -0.07988337427377701,
      -0.7747223973274231
    ],
    [
      0.38952746987342834,
      0.4187765419483185,
      -0.3635980784893036,
      -0.409405916929245,
      0.18746137619018555,
      0.15807269513607025,
      -0.18949346244335175,
      0.2552736699581146,
      0.16945794224739075,
      -0.07330609112977982,
      -0.01956145279109478,
      0.3595823347568512,
      -0.4951726794242859,
      0.12251275032758713,
      0.060920991003513336,
      0.21834486722946167,
      -0.22606141865253448,
      -0.36991310119628906,
      -0.1032613217830658,
      0.5633970499038696,
      -0.008098237216472626,
      0.1343405544757843,
      -0.348038911819458,
      -0.0779031366109848,
      0.40081408619880676,
      0.09959910064935684,
      -0.7043166160583496,
      0.3634435534477234,
      0.10522805154323578,
      -0.49044159054756165,
      -0.12073230743408203,
      -0.09099169820547104
    ],
    [
      -0.23631960153579712,
      -0.19724461436271667,
      -0.0039172908291220665,
      0.4787183105945587,
      -0.30419859290122986,
      0.0178740955889225,
      -0.17445282638072968,
      -0.2557678818702698,
      0.14558058977127075,
      -0.11283056437969208,
      -0.15323814749717712,
      -0.052831362932920456,
      0.37129339575767517,
      0.01161433756351471,
      -0.1638643592596054,
      0.08685904741287231,
      0.15015219151973724,
      0.1772003173828125,
      0.10831429809331894,
      -0.341835618019104,
      -0.11750861257314682,
      -0.21361158788204193,
      -0.1450708955526352,
      0.1257072240114212,
      0.1015336737036705,
      -0.2885949909687042,
      0.31388697028160095,
      -0.02237328514456749,
      0.21667832136154175,
      -0.013315771706402302,
      0.189573734998703,
      0.3316510021686554
    ],
    [
      0.3062922954559326,
      -0.14553038775920868,
      0.32203781604766846,
      0.09860064089298248,
      0.2023959904909134,
      -0.07207702100276947,
      -0.11199649423360825,
      -0.16759860515594482,
      0.2845035195350647,
      -0.26645204424858093,
      0.005820471327751875,
      0.010010705329477787,
      0.010943898931145668,
      0.3991181254386902,
      -0.12978538870811462,
      0.2910314202308655,
      0.07665585726499557,
      0.10201758146286011,
      -0.2788003981113434,
      -0.072081558406353,
      -0.32286539673805237,
      0.19186535477638245,
      -0.13490965962409973,
      0.21566011011600494,
      0.10038704425096512,
      0.17589272558689117,
      0.004554889630526304,
      -0.03712878376245499,
      -0.017140978947281837,
      0.14142219722270966,
      0.1485043466091156,
      0.24874576926231384
    ]
  ],
  "b2": [
    -0.058930713683366776,
    0.029746677726507187,
    -0.31618669629096985,
    -0.21084050834178925,
    -0.2401154786348343,
    -0.13320784270763397,
    -0.010606865398585796,
    0.09017792344093323,
    0.11797809600830078,
    -0.07690981030464172,
    -0.07998726516962051,
    -0.13523869216442108,
    0.3787710964679718,
    -0.37488240003585815,
    0.21054799854755402,
    -0.032905884087085724,
    -0.05010643228888512,
    0.093074731528759,
    0.04195007309317589,
    -0.3315742611885071,
    -0.33167409896850586,
    0.05130503699183464,
    -0.24871259927749634,
    0.25024253129959106,
    -0.002808098215609789,
    0.023714402690529823,
    -0.17578256130218506,
    0.12357447296380997,
    -0.20508195459842682,
    -0.011658040806651115,
    0.4644540846347809,
    0.05497730150818825
  ],
  "W3": [
    [
      -0.18335865437984467,
      0.28551891446113586,
      0.13775785267353058,
      0.02828085422515869,
      0.041977182030677795,
      0.18777164816856384,
      -0.45005670189857483,
      -0.04172839969396591,
      -0.4539524018764496,
      0.5583478808403015,
      -0.3781130909919739,
      0.15017379820346832,
      -0.20485712587833405,
      0.2503991425037384,
      -0.3673192858695984,
      -0.9637473821640015,
      -0.30704614520072937,
      -0.12989774346351624,
      0.39948248863220215,
      -0.5159943699836731,
      -0.15709678828716278,
      0.024561427533626556,
      -0.022449331358075142,
      0.09987286478281021,
      -0.3246840834617615,
      -0.28778815269470215,
      0.027482198551297188,
      -0.02787739224731922,
      -0.22691793739795685,
      0.22296547889709473,
      0.163264200091362,
      -0.16469113528728485
    ],
    [
      -0.2606132924556732,
      0.11122897267341614,
      -0.31946662068367004,
      -0.18015865981578827,
      -0.6383314728736877,
      -0.12245404720306396,
      -0.07819540053606033,
      0.09199600666761398,
      -0.5234155058860779,
      0.2645412087440491,
      0.047686900943517685,
      -0.05217880383133888,
      0.06665091216564178,
      -0.37915775179862976,
      -0.13637416064739227,
      0.26765841245651245,
      -0.6042309999465942,
      0.5209673643112183,
      0.08954043686389923,
      -0.2649904191493988,
      -0.7479203343391418,
      -0.1295698881149292,
      -0.15371279418468475,
      0.03247278928756714,
      -0.021202977746725082,
      0.2754068970680237,
      -0.16836215555667877,
      -0.01783314161002636,
      -0.05888659134507179,
      -0.22206276655197144,
      0.26275625824928284,
      -0.013753941282629967
    ],
    [
      0.3927942216396332,
      -0.7063560485839844,
      0.1236596554517746,
      -0.3064063787460327,
      0.16731400787830353,
      -0.55707186460495,
      0.09380903095006943,
      -0.4420667290687561,
      -0.31157222390174866,
      0.6226455569267273,
      -0.6103936433792114,
      -0.6936916708946228,
      0.5884417295455933,
      -0.2579750120639801,
      -1.1159566640853882,
      0.31496739387512207,
      -0.3498610258102417,
      -0.26502615213394165,
      -0.6313559412956238,
      0.49660345911979675,
      -0.05483226478099823,
      -0.3005181550979614,
      0.7030673623085022,
      0.31462010741233826,
      -0.7414141297340393,
      -0.09561923146247864,
      0.537770688533783,
      0.3406606912612915,
      0.22681447863578796,
      0.002485239412635565,
      -0.44404852390289307,
      -0.16605913639068604
    ],
    [
      0.7303339838981628,
      0.09799958020448685,
      -0.6470446586608887,
      0.6814279556274414,
      -0.4376639127731323,
      -0.7391883134841919,
      0.5808109641075134,
      -0.6277292370796204,
      -0.0019085330422967672,
      0.5020042061805725,
      0.12296878546476364,
      -0.09572947025299072,
      0.7331442832946777,
      0.5347914695739746,
      0.059430334717035294,
      -0.1578582525253296,
      0.12371304631233215,
      -0.1548890471458435,
      0.22748656570911407,
      -0.12515579164028168,
      0.09281842410564423,
      -0.7277706861495972,
      0.509536862373352,
      0.7858775854110718,
      0.10323082655668259,
      -0.5798786282539368,
      -0.3996981084346771,
      0.6784148216247559,
      0.6774234175682068,
      -0.8474451303482056,
      0.17675721645355225,
      -0.8163740038871765
    ]
  ],
  "b3": [
    -0.1500500589609146,
    0.44142502546310425,
    -0.14474143087863922,
    0.17437408864498138
  ],
  "loss": [
    0.8023883154216621,
    0.1321543356517352,
    0.06875680452018666,
    0.04552137086145757,
    0.0333046077472058,
    0.025773330506732844,
    0.020881817983103075,
    0.017537529487440008,
    0.015080107538129337,
    0.013182885756707816,
    0.011670685290439343,
    0.010440692842599847,
    0.009417008042787313,
    0.008538971429516096,
    0.007777018005158641,
    0.007108858158538905,
    0.006510949292229877,
    0.005976286760241713,
    0.005499996467863509,
    0.005073512800923449,
    0.004697054392939511,
    0.004364666619429565,
    0.004069791298856477,
    0.003803949692502058,
    0.0035603056212927357,
    0.003334231965103148,
    0.003136584525799706,
    0.002968422755917085,
    0.002821877559610931,
    0.002690731276050515,
    0.0025682037891480527,
    0.00245559800324762,
    0.0023543459959737014,
    0.0022640236384177115,
    0.0021841831134917725,
    0.002115481512841403,
    0.0020562885158488782,
    0.002002686925975251,
    0.001952050122695038,
    0.0019035868378220282,
    0.0018571797682376374,
    0.0018127996817427282,
    0.0017703949209871574,
    0.0017299100503632438,
    0.0016912763983869116,
    0.0016544223508390132,
    0.0016192745793194348,
    0.001585777396723556,
    0.0015538956808779317,
    0.001523626440671034,
    0.0014949973041698936,
    0.0014680680955539824,
    0.0014429409738589865,
    0.0014197477894413169,
    0.0013986326824427426,
    0.0013796856048776092,
    0.0013628703118229168,
    0.001347979574001372,
    0.0013346598061616533,
    0.0013224665627127425,
    0.0013109242174669774,
    0.0012995935160991696,
    0.001288150906995205,
    0.0012764633565893746,
    0.0012645799145805843,
    0.001252655424000945,
    0.001240858092560735,
    0.0012293141872717008,
    0.0012180936743052804,
    0.001207225823236513,
    0.0011967130199298567,
    0.0011865424627709824,
    0.0011767007894637313,
    0.0011671672299642176,
    0.0011579225930680487,
    0.001148947988007248,
    0.0011402215361071978,
    0.0011317251840713045,
    0.0011234410750105219,
    0.0011153568340800813,
    0.0011074640111647092,
    0.0010997544128864927,
    0.0010922278229156205,
    0.0010848827596419142,
    0.0010777196712297155,
    0.0010707377646429535,
    0.0010639392055617506,
    0.0010573257239749573,
    0.0010508981897059822,
    0.0010446606381395082,
    0.001038613231728613,
    0.0010327579886853485,
    0.001027095042835364,
    0.0010216200014058683,
    0.0010163297156395856,
    0.0010112164373779144,
    0.001006269003396266,
    0.0010014772176093953,
    0.0009968289248804684,
    0.00099231296358734,
    0.0009879192536269936,
    0.0009836400617825262,
    0.0009794645176866435,
    0.0009753885086043045,
    0.0009714053659038092,
    0.0009675137638883566,
    0.0009637113610854916,
    0.0009599915379762283,
    0.0009563559080041679,
    0.0009528021020222306,
    0.0009493297863757887,
    0.0009459361269927328,
    0.0009426235929346322,
    0.0009393890279083973,
    0.0009362327148101897,
    0.0009331541862896605,
    0.0009301537077676802,
    0.000927227154101101,
    0.0009243701009230184,
    0.0009215785835944448,
    0.0009188396910368672,
    0.0009161391671590362,
    0.000913460812452762,
    0.0009107917835968866,
    0.0009081244932184788,
    0.0009054598680060215,
    0.000902811999129058,
    0.0009001955378109761,
    0.0008976380142615069,
    0.0008951570515862494,
    0.0008927707070879045,
    0.0008904917512630899,
    0.0008883269012715443,
    0.0008862797395912432,
    0.0008843422917076774,
    0.0008824938940094961,
    0.0008806991718518562,
    0.0008789068351039272,
    0.000877070759391548,
    0.000875163956780376,
    0.0008732047413970923,
    0.0008712385675781185,
    0.0008693213753325662,
    0.0008674999828924358,
    0.00086579841780847,
    0.0008642207821399747,
    0.0008627572110526671,
    0.00086139000582296,
    0.0008600922766986297,
    0.0008588392851855869,
    0.0008576020185977367,
    0.0008563592748162462,
    0.0008550956303917614,
    0.0008538061630306835,
    0.0008524904771461262,
    0.0008511519181411131,
    0.0008497960051759687,
    0.0008484315166285905,
    0.0008470605793523386,
    0.0008456867637852113,
    0.0008443151446477888,
    0.0008429452092232601,
    0.0008415777496382015,
    0.0008402151323545175,
    0.000838854001315104,
    0.0008374981260939897,
    0.000836143061925603,
    0.0008347915910625099,
    0.0008334410709028903,
    0.000832092446498358,
    0.000830744300358111,
    0.0008293973057031204,
    0.0008280485615701071,
    0.0008267018693870687,
    0.0008253544219336444,
    0.0008240055868944702,
    0.0008226569877175886,
    0.00082130844007874,
    0.0008199598423743737,
    0.000818610277357428,
    0.000817261329107818,
    0.0008159131774889483,
    0.0008145633714775613,
    0.0008132160105993708,
    0.000811869622837202,
    0.0008105225913260213,
    0.000809176848330632,
    0.0008078321078149505,
    0.0008064882503536605,
    0.0008051458521333102,
    0.0008038043965392543,
    0.0008024642864993005,
    0.0008011246110462318,
    0.0007997873988079803,
    0.0007984507152893153,
    0.0007971142185418838,
    0.0007957794620042911,
    0.0007944455277581818,
    0.000793112091806896,
    0.000791780136318093,
    0.0007904515899619062,
    0.0007891213781476836,
    0.0007877943362906254,
    0.0007864685960720678,
    0.0007851438587013469,
    0.0007838200683311568,
    0.0007824982929464785,
    0.0007811774817777664,
    0.0007798594850620637,
    0.0007785432980242712,
    0.0007772291504850381,
    0.0007759171648147111,
    0.0007746082567661818,
    0.0007732999075588374,
    0.0007719947296945542,
    0.000770694123492008,
    0.0007693966403426852,
    0.0007681012008929212,
    0.0007668105941623556,
    0.0007655241914302938,
    0.0007642418878774714,
    0.0007629640858903301,
    0.0007616905824133504,
    0.0007604229647096785,
    0.0007591611279600503,
    0.0007579057992188609,
    0.0007566561384919623,
    0.0007554128132726744,
    0.0007541770621736802,
    0.0007529488265542265,
    0.0007517285053901494,
    0.0007505154218008448,
    0.000749311572646894,
    0.0007481161519535817,
    0.0007469313975975854,
    0.000745754488218067,
    0.0007445863575196112,
    0.0007434284637037351,
    0.0007422803057687858,
    0.0007411424603127497,
    0.0007400141681240971,
    0.0007388947314904639,
    0.0007377862924234554,
    0.000736686339548344,
    0.0007355939236558264,
    0.0007345114998402312,
    0.0007334375537279161,
    0.0007323719791245475,
    0.0007313130372928018,
    0.00073026251110215,
    0.0007292190575970467,
    0.0007281811422000741,
    0.0007271490131599768,
    0.0007261243691746564,
    0.0007251040901359201,
    0.0007240879977828064,
    0.0007230776851385945,
    0.000722071579881837,
    0.0007210681007044124,
    0.0007200709978427593,
    0.0007190752470965631,
    0.0007180844675184787,
    0.0007170967349425371,
    0.0007161105732588372,
    0.0007151289488493127,
    0.0007141490366393555,
    0.0007131734724095752,
    0.0007121980941822889,
    0.0007112261980312594,
    0.000710256453939586,
    0.000709289281141017,
    0.0007083243999984136,
    0.0007073619882963353,
    0.0007064002493604805,
    0.0007054420230988832,
    0.0007044847932861774,
    0.0007035317469325534,
    0.0007025791366383297,
    0.0007016283288435044,
    0.0007006802777054656,
    0.0006997339926870371,
    0.0006987896419148109,
    0.0006978442229410575,
    0.0006969030892897925,
    0.0006959634007281627,
    0.0006950254836673204,
    0.0006940900493321221,
    0.0006931536116077215,
    0.0006922195603757635,
    0.0006912873621093327,
    0.0006903560139930743,
    0.0006894270808992414,
    0.0006884974773454035,
    0.0006875688587959823,
    0.0006866419156224202,
    0.0006857160546067982,
    0.0006847896925570413,
    0.0006838659738237073,
    0.000682942337269716,
    0.0006820185950735842
  ],
  "vloss": [
    0.3511572480201721,
    0.12958601117134094,
    0.07580526173114777,
    0.05135691165924072,
    0.03770610690116882,
    0.028988191857933998,
    0.023168865591287613,
    0.019169127568602562,
    0.016317814588546753,
    0.014130956493318081,
    0.012354739010334015,
    0.010905468836426735,
    0.009712154977023602,
    0.00872564222663641,
    0.00789994653314352,
    0.007192540913820267,
    0.006572419311851263,
    0.0060103959403932095,
    0.0054913791827857494,
    0.00503136171028018,
    0.004646650981158018,
    0.004328766372054815,
    0.0040610781870782375,
    0.0038182083517313004,
    0.003554971655830741,
    0.003294584108516574,
    0.0030748972203582525,
    0.002878804923966527,
    0.002730307402089238,
    0.0025977524928748608,
    0.0024453725200146437,
    0.0022990431170910597,
    0.002185079036280513,
    0.002085000742226839,
    0.0019889138638973236,
    0.001903122290968895,
    0.0018273325404152274,
    0.0017571604112163186,
    0.0016905555967241526,
    0.00162720016669482,
    0.0015671547735109925,
    0.0015104140620678663,
    0.001456845668144524,
    0.0014062519185245037,
    0.001358437235467136,
    0.0013132557505741715,
    0.0012706316774711013,
    0.001230539521202445,
    0.0011929793981835246,
    0.0011579344281926751,
    0.0011253486154600978,
    0.0010951115982607007,
    0.001067067263647914,
    0.001040995237417519,
    0.001016597612760961,
    0.0009934798581525683,
    0.0009711491875350475,
    0.0009490693919360638,
    0.0009268387220799923,
    0.0009044192847795784,
    0.0008822446689009666,
    0.0008610662189312279,
    0.0008415534975938499,
    0.0008239842136390507,
    0.0008082293788902462,
    0.0007939565111882985,
    0.0007808240479789674,
    0.0007685617893002927,
    0.0007569768349640071,
    0.0007459380431100726,
    0.000735353329218924,
    0.0007251551724039018,
    0.0007152958423830569,
    0.0007057398906908929,
    0.0006964620552025735,
    0.0006874435348436236,
    0.0006786718731746078,
    0.0006701421807520092,
    0.000661845610011369,
    0.0006537800072692335,
    0.0006459421128965914,
    0.0006383272120729089,
    0.0006309308810159564,
    0.0006237474735826254,
    0.0006167698884382844,
    0.0006099924794398248,
    0.0006034058169461787,
    0.0005970012280158699,
    0.0005907724262215197,
    0.0005847117281518877,
    0.0005788136622868478,
    0.0005730719421990216,
    0.0005674854619428515,
    0.000562050030566752,
    0.0005567654152400792,
    0.0005516307428479195,
    0.0005466439761221409,
    0.0005418052314780653,
    0.0005371121224015951,
    0.000532563601154834,
    0.0005281566991470754,
    0.0005238899611867964,
    0.0005197586724534631,
    0.0005157598061487079,
    0.0005118917324580252,
    0.0005081490962766111,
    0.0005045289290137589,
    0.0005010284367017448,
    0.0004976431373506784,
    0.0004943683743476868,
    0.0004912003059871495,
    0.0004881353524979204,
    0.00048516743117943406,
    0.0004822917398996651,
    0.0004795026034116745,
    0.0004767948412336409,
    0.00047416076995432377,
    0.00047159573296085,
    0.0004690932692028582,
    0.00046664869296364486,
    0.0004642550484277308,
    0.0004619070969056338,
    0.00045960216084495187,
    0.00045733441947959363,
    0.00045510270865634084,
    0.00045290510752238333,
    0.00045074414811097085,
    0.00044862134382128716,
    0.0004465386737138033,
    0.000444498349679634,
    0.00044250060454942286,
    0.00044054590398445725,
    0.0004386336077004671,
    0.000436761969467625,
    0.000434928952017799,
    0.00043313062633387744,
    0.0004313636163715273,
    0.00042962428415194154,
    0.00042790904990397394,
    0.00042621660395525396,
    0.0004245446471031755,
    0.0004228944890201092,
    0.0004212661588098854,
    0.0004196605586912483,
    0.00041807760135270655,
    0.0004165178688708693,
    0.0004149806627538055,
    0.00041346653597429395,
    0.00041197348036803305,
    0.00041049905121326447,
    0.0004090441798325628,
    0.00040760659612715244,
    0.0004061846120748669,
    0.0004047794209327549,
    0.00040339070255868137,
    0.000402017351007089,
    0.00040065922075882554,
    0.0003993158752564341,
    0.00039798623765818775,
    0.0003966699296142906,
    0.0003953666891902685,
    0.00039407439180649817,
    0.00039279303746297956,
    0.000391523091821,
    0.0003902626340277493,
    0.0003890127409249544,
    0.00038777280133217573,
    0.0003865419130306691,
    0.0003853204834740609,
    0.000384109269361943,
    0.0003829083580058068,
    0.0003817153337877244,
    0.00038053211756050587,
    0.0003793594369199127,
    0.00037819569115526974,
    0.00037704099668189883,
    0.0003758967504836619,
    0.0003747612645383924,
    0.00037363613955676556,
    0.0003725193382706493,
    0.0003714126069098711,
    0.0003703157708514482,
    0.00036922827712260187,
    0.0003681503876578063,
    0.00036708268453367054,
    0.0003660245274659246,
    0.0003649753052741289,
    0.00036393714253790677,
    0.00036290782736614347,
    0.0003618887858465314,
    0.0003608798433560878,
    0.0003598794573917985,
    0.0003588897525332868,
    0.00035790979745797813,
    0.000356939883204177,
    0.00035597855458036065,
    0.00035502685932442546,
    0.0003540854377206415,
    0.00035315260174684227,
    0.0003522277984302491,
    0.0003513142582960427,
    0.00035040744114667177,
    0.0003495098790153861,
    0.0003486215427983552,
    0.00034774033701978624,
    0.00034686815342865884,
    0.0003460022562649101,
    0.00034514444996602833,
    0.0003442944143898785,
    0.00034345127642154694,
    0.00034261419204995036,
    0.0003417846164666116,
    0.0003409611526876688,
    0.0003401435387786478,
    0.0003393320366740227,
    0.0003385256277397275,
    0.00033772518509067595,
    0.00033692934084683657,
    0.0003361388808116317,
    0.0003353530482854694,
    0.0003345715522300452,
    0.0003337954985909164,
    0.0003330229956191033,
    0.0003322542761452496,
    0.0003314900095574558,
    0.0003307290899101645,
    0.0003299719246570021,
    0.0003292190085630864,
    0.000328468915540725,
    0.0003277220530435443,
    0.0003269791486673057,
    0.00032623898005113006,
    0.00032550212927162647,
    0.00032476894557476044,
    0.00032403887598775327,
    0.0003233117167837918,
    0.00032258842838928103,
    0.00032186717726290226,
    0.0003211498842574656,
    0.0003204351232852787,
    0.0003197244950570166,
    0.0003190166025888175,
    0.00031831240630708635,
    0.00031761149875819683,
    0.0003169144911225885,
    0.0003162201901432127,
    0.0003155303711537272,
    0.000314842676743865,
    0.00031415963894687593,
    0.0003134793369099498,
    0.00031280386610887945,
    0.00031213118927553296,
    0.0003114627324976027,
    0.00031079721520654857,
    0.00031013559782877564,
    0.0003094777639489621,
    0.000308822636725381,
    0.0003081715840380639,
    0.00030752329621464014,
    0.0003068787045776844,
    0.00030623734346590936,
    0.00030559964943677187,
    0.0003049650986213237,
    0.00030433357460424304,
    0.00030370443710125983,
    0.00030307864653877914,
    0.0003024565812665969,
    0.0003018357092514634,
    0.0003012188244611025,
    0.0003006045299116522,
    0.0002999938151333481,
    0.00029938420630060136,
    0.0002987778279930353,
    0.0002981737197842449,
    0.00029757164884358644,
    0.0002969721972476691,
    0.0002963750739581883,
    0.00029578100657090545,
    0.0002951880160253495,
    0.00029459784855134785,
    0.00029400995117612183,
    0.0002934242656920105,
    0.0002928399189841002,
    0.0002922583953477442,
    0.0002916789089795202,
    0.0002911014889832586,
    0.0002905266301240772,
    0.00028995308093726635,
    0.0002893820928875357,
    0.0002888127928599715,
    0.00028824590845033526,
    0.00028768114862032235,
    0.00028711769846268,
    0.0002865576825570315,
    0.00028599848155863583,
    0.00028544195811264217,
    0.00028488744283095,
    0.00028433511033654213,
    0.00028378533897921443,
    0.00028323705191724
  ],
  "tloss": [
    0.4186455309391022,
    0.16742250323295593,
    0.10498613119125366,
    0.0747094452381134,
    0.05715494230389595,
    0.04604361578822136,
    0.038536395877599716,
    0.03311930224299431,
    0.029134849086403847,
    0.026019206270575523,
    0.02342798374593258,
    0.021209144964814186,
    0.019274944439530373,
    0.01759476028382778,
    0.016131794080138206,
    0.01485070027410984,
    0.013729440979659557,
    0.012712850235402584,
    0.011763072572648525,
    0.010907331481575966,
    0.010192682035267353,
    0.009597938507795334,
    0.009039091877639294,
    0.008464807644486427,
    0.007882053032517433,
    0.007361762225627899,
    0.006910985801368952,
    0.006468880455940962,
    0.006059691309928894,
    0.005690006539225578,
    0.005367143079638481,
    0.005107976030558348,
    0.004889396019279957,
    0.004675485193729401,
    0.004468981176614761,
    0.004281553905457258,
    0.00410875491797924,
    0.003945014905184507,
    0.0037899573799222708,
    0.003644628217443824,
    0.003509513335302472,
    0.003384391311556101,
    0.0032685664482414722,
    0.0031611479353159666,
    0.003061255207285285,
    0.0029681327287107706,
    0.0028811993543058634,
    0.0028000285383313894,
    0.0027242943178862333,
    0.0026537091471254826,
    0.002587986411526799,
    0.002526793396100402,
    0.0024697703775018454,
    0.0024164856877177954,
    0.0023663982283324003,
    0.0023188183549791574,
    0.002272912999615073,
    0.0022278456017374992,
    0.002183044794946909,
    0.0021385038271546364,
    0.0020948811434209347,
    0.002053247531875968,
    0.002014542929828167,
    0.001979161286726594,
    0.0019469106337055564,
    0.0019172898028045893,
    0.001889759092591703,
    0.0018638697220012546,
    0.0018393011996522546,
    0.0018158163875341415,
    0.0017932510236278176,
    0.00177147111389786,
    0.0017503725830465555,
    0.0017298691673204303,
    0.001709883683361113,
    0.001690361648797989,
    0.0016712533542886376,
    0.001652533421292901,
    0.0016341785667464137,
    0.0016161883249878883,
    0.0015985604841262102,
    0.0015813099453225732,
    0.0015644453233107924,
    0.001547985477373004,
    0.001531943678855896,
    0.001516335061751306,
    0.0015011705690994859,
    0.001486455905251205,
    0.0014721963088959455,
    0.0014583910815417767,
    0.0014450381277129054,
    0.0014321251073852181,
    0.0014196471311151981,
    0.0014075888320803642,
    0.0013959348434582353,
    0.001384673872962594,
    0.0013737905537709594,
    0.001363273593597114,
    0.0013531100703403354,
    0.0013432871783152223,
    0.0013337963027879596,
    0.0013246266171336174,
    0.0013157661305740476,
    0.0013072098372504115,
    0.0012989420210942626,
    0.0012909601209685206,
    0.00128324911929667,
    0.0012758023804053664,
    0.0012686129193753004,
    0.0012616653693839908,
    0.001254955306649208,
    0.0012484727194532752,
    0.0012422045692801476,
    0.001236140844412148,
    0.0012302686227485538,
    0.0012245805701240897,
    0.0012190573615953326,
    0.0012136859586462379,
    0.0012084547197446227,
    0.001203348278068006,
    0.0011983485892415047,
    0.0011934411013498902,
    0.0011886152205988765,
    0.001183863845653832,
    0.0011791877914220095,
    0.0011745900847017765,
    0.0011700827162712812,
    0.0011656758142635226,
    0.0011613811366260052,
    0.0011572041548788548,
    0.0011531482450664043,
    0.0011492130579426885,
    0.0011453971965238452,
    0.0011416912311688066,
    0.001138085382990539,
    0.0011345654493197799,
    0.0011311102425679564,
    0.001127705443650484,
    0.0011243500048294663,
    0.0011210598750039935,
    0.001117865089327097,
    0.0011147957993671298,
    0.0011118775000795722,
    0.001109121716581285,
    0.0011065270518884063,
    0.0011040865210816264,
    0.0011017837096005678,
    0.0010995971970260143,
    0.0010975045152008533,
    0.0010954788886010647,
    0.00109349493868649,
    0.0010915308957919478,
    0.001089571276679635,
    0.0010876053711399436,
    0.0010856339940801263,
    0.0010836587753146887,
    0.0010816828580573201,
    0.001079714042134583,
    0.0010777584975585341,
    0.0010758200660347939,
    0.0010739092249423265,
    0.001072021434083581,
    0.0010701612336561084,
    0.0010683344444260001,
    0.0010665355948731303,
    0.0010647665476426482,
    0.001063027884811163,
    0.0010613169288262725,
    0.0010596340289339423,
    0.0010579780209809542,
    0.0010563492542132735,
    0.0010547430720180273,
    0.001053161104209721,
    0.0010516055626794696,
    0.001050070859491825,
    0.0010485572274774313,
    0.0010470658307895064,
    0.0010455944575369358,
    0.0010441428748890758,
    0.0010427128290757537,
    0.0010412998963147402,
    0.0010399076854810119,
    0.0010385304922237992,
    0.0010371753014624119,
    0.001035835943184793,
    0.0010345116024836898,
    0.0010332020465284586,
    0.0010319099528715014,
    0.0010306299664080143,
    0.0010293642990291119,
    0.001028111088089645,
    0.0010268682381138206,
    0.0010256366804242134,
    0.0010244137374684215,
    0.0010231997584924102,
    0.0010219933465123177,
    0.0010207932209596038,
    0.0010195983340963721,
    0.0010184100829064846,
    0.0010172226466238499,
    0.0010160389356315136,
    0.0010148569708690047,
    0.0010136771015822887,
    0.001012496999464929,
    0.0010113146854564548,
    0.0010101331863552332,
    0.0010089491261169314,
    0.001007760874927044,
    0.0010065690148621798,
    0.0010053743608295918,
    0.0010041744681075215,
    0.0010029715485870838,
    0.0010017611784860492,
    0.0010005428921431303,
    0.000999320880509913,
    0.000998090603388846,
    0.0009968540398404002,
    0.0009956087451428175,
    0.000994357280433178,
    0.000993097317405045,
    0.0009918295545503497,
    0.0009905531769618392,
    0.0009892686503008008,
    0.0009879752760753036,
    0.0009866735199466348,
    0.0009853626834228635,
    0.0009840427665039897,
    0.0009827149333432317,
    0.0009813768556341529,
    0.0009800315601751208,
    0.0009786778828129172,
    0.0009773153578862548,
    0.0009759453241713345,
    0.0009745691786520183,
    0.0009731865720823407,
    0.0009717941284179688,
    0.0009703973191790283,
    0.0009689947473816574,
    0.0009675854234956205,
    0.0009661727817729115,
    0.0009647567057982087,
    0.0009633383015170693,
    0.0009619172778911889,
    0.0009604941005818546,
    0.000959071156103164,
    0.0009576496668159962,
    0.0009562278282828629,
    0.0009548072121106088,
    0.000953389797359705,
    0.0009519747691228986,
    0.0009505656780675054,
    0.000949159380979836,
    0.0009477591374889016,
    0.0009463613969273865,
    0.0009449710487388074,
    0.0009435873362235725,
    0.000942207348998636,
    0.0009408332407474518,
    0.000939465535338968,
    0.0009381046402268112,
    0.000936748634558171,
    0.0009353993809781969,
    0.000934056646656245,
    0.0009327181614935398,
    0.0009313844493590295,
    0.0009300559759140015,
    0.000928731809835881,
    0.0009274132899008691,
    0.0009260967490263283,
    0.0009247843991033733,
    0.0009234770550392568,
    0.000922167208045721,
    0.0009208619012497365,
    0.0009195585735142231,
    0.0009182555950246751,
    0.0009169512777589262,
    0.0009156478918157518,
    0.0009143438073806465,
    0.0009130369289778173,
    0.0009117272566072643,
    0.0009104188648052514,
    0.0009091037209145725,
    0.0009077856666408479,
    0.0009064636542461812,
    0.0009051374508999288,
    0.000903806125279516,
    0.0009024692699313164,
    0.0009011257789097726,
    0.0008997747790999711,
    0.0008984186570160091,
    0.0008970548515208066,
    0.0008956833044067025,
    0.0008943025022745132,
    0.000892914307769388,
    0.0008915163925848901,
    0.0008901107939891517,
    0.0008886949508450925,
    0.0008872703765518963,
    0.0008858356741257012,
    0.0008843913674354553
  ],
  "alpha": 0.2
}