{
  "name": "double integrator",
  "W1": [
    [
      0.662955641746521,
      -0.2349195033311844,
      0.055336739867925644,
      0.35637515783309937,
      0.1146157905459404
    ],
    [
      0.3405608832836151,
      -0.5919252634048462,
      0.15136732161045074,
      0.08579490333795547,
      0.09960637241601944
    ],
    [
      -0.08965309709310532,
      0.06980226933956146,
      -0.17150579392910004,
      0.26816773414611816,
      0.02276078797876835
    ],
    [
      -0.19754409790039062,
      0.03626134619116783,
      -0.029026374220848083,
      0.1759330779314041,
      0.020961426198482513
    ],
    [
      0.36260315775871277,
      -0.15655286610126495,
      0.562147319316864,
      -0.14536342024803162,
      0.12249576300382614
    ],
    [
      -0.36884772777557373,
      0.4799356758594513,
      -0.27457672357559204,
      0.09916352480649948,
      -0.060466114431619644
    ],
    [
      -0.5104971528053284,
      -0.6943510174751282,
      -0.28173208236694336,
      0.00849244836717844,
      -0.022504927590489388
    ],
    [
      -0.041952814906835556,
      0.7495648860931396,
      -0.20796220004558563,
      -0.195179283618927,
      -0.04098556190729141
    ],
    [
      0.0552821084856987,
      0.3323563039302826,
      -0.2633669674396515,
      0.3594675660133362,
      -0.08290168642997742
    ],
    [
      -0.16996516287326813,
      0.416910320520401,
      -0.12276358902454376,
      -0.0500858873128891,
      -0.10641967505216599
    ],
    [
      -0.6385839581489563,
      0.548699676990509,
      -0.5824345946311951,
      -0.08530378341674805,
      -0.16881011426448822
    ],
    [
      -0.11412564665079117,
      -0.16484099626541138,
      0.1335296779870987,
      -0.03041882812976837,
      0.0005511424387805164
    ],
    [
      -0.25447821617126465,
      0.17391440272331238,
      -0.10425442457199097,
      0.07858643680810928,
      0.06366509944200516
    ],
    [
      -0.12419043481349945,
      -0.49465233087539673,
      0.3317031264305115,
      -0.024772662669420242,
      0.10930192470550537
    ],
    [
      0.07998073846101761,
      -0.31604817509651184,
      -0.01148905884474516,
      -0.09443221241235733,
      -0.0012703980319201946
    ],
    [
      0.12053301930427551,
      0.4607984125614166,
      -0.13130538165569305,
      0.05239435285329819,
      -0.0018591344123706222
    ],
    [
      0.110375314950943,
      -0.06401178985834122,
      -0.16408617794513702,
      0.0735088512301445,
      -0.008550956845283508
    ],
    [
      -0.1299913078546524,
      0.03898126631975174,
      0.5669519305229187,
      0.21867309510707855,
      -0.037415552884340286
    ],
    [
      -0.2581949830055237,
      -0.42988282442092896,
      -0.019067639485001564,
      0.4018668830394745,
      0.1227097436785698
    ],
    [
      0.1601799875497818,
      0.08242285996675491,
      0.25390663743019104,
      -0.1427636742591858,
      0.010560011491179466
    ],
    [
      -0.12573905289173126,
      -0.005139198619872332,
      -0.05260545015335083,
      -0.13383956253528595,
      -0.0003645774850156158
    ],
    [
      0.04437343403697014,
      -0.24225449562072754,
      0.21628201007843018,
      -0.028953583911061287,
      -0.0018991093384101987
    ],
    [
      0.1208658441901207,
      0.067279152572155,
      0.069108746945858,
      0.12180162966251373,
      0.0006390585331246257
    ],
    [
      0.02621717005968094,
      -0.1238904595375061,
      0.18194827437400818,
      0.001549183507449925,
      0.009593192487955093
    ],
    [
      -0.1042632907629013,
      0.18202978372573853,
      -0.0726134404540062,
      -0.12727616727352142,
      -0.00641796737909317
    ],
    [
      0.5288402438163757,
      -0.08826826512813568,
      0.022900907322764397,
      9.410094207851216e-05,
      0.0038470164872705936
    ],
    [
      0.04541567340493202,
      -0.16564327478408813,
      0.02767193131148815,
      -0.24946801364421844,
      0.0694504901766777
    ],
    [
      0.10869647562503815,
      -0.12149534374475479,
      -0.10477937757968903,
      0.07544805854558945,
      0.010526146739721298
    ],
    [
      -0.10814044624567032,
      0.3256910741329193,
      -0.1787215769290924,
      -0.08217363804578781,
      0.01672709919512272
    ],
    [
      -0.054428599774837494,
      0.5326354503631592,
      -0.14899101853370667,
      0.3344462513923645,
      -0.020809471607208252
    ],
    [
      0.028566652908921242,
      0.4745762050151825,
      0.3364061713218689,
      0.04265942797064781,
      0.02654990740120411
    ],
    [
      0.08580970764160156,
      0.582719624042511,
      -0.05020960420370102,
      -0.006086038891226053,
      0.02398497238755226
    ]
  ],
  "b1": [
    -0.09573441743850708,
    0.034861572086811066,
    0.039010949432849884,
    -0.48095646500587463,
    0.17363332211971283,
    0.12450198829174042,
    0.7343403100967407,
    0.6743858456611633,
    -0.2753243148326874,
    -0.6415067315101624,
    0.0012780558317899704,
    -0.14356906712055206,
    -0.22526009380817413,
    -0.2585113048553467,
    -0.0719161108136177,
    -1.003958821296692,
    0.13248760998249054,
    0.09724114090204239,
    0.24570909142494202,
    -0.6463310718536377,
    0.1746537983417511,
    0.5944756865501404,
    -0.03701672703027725,
    0.2118978053331375,
    -0.04460153356194496,
    0.11619989573955536,
    -0.2780458331108093,
    -0.04402199387550354,
    0.28492704033851624,
    -0.366062730550766,
    0.6458083987236023,
    0.1355196237564087
  ],
  "W2": [
    [
      0.01654692552983761,
      -0.0037007101345807314,
      -0.15481992065906525,
      -0.004265110939741135,
      -0.008399343118071556,
      -0.12762005627155304,
      -0.007914097048342228,
      -0.20622533559799194,
      -0.14653486013412476,
      0.029851039871573448,
      0.07870844751596451,
      0.06226687505841255,
      -0.02639068104326725,
      0.0368550643324852,
      0.07648531347513199,
      -0.23707956075668335,
      -0.230109304189682,
      -0.4057730436325073,
      -0.06720320880413055,
      -0.047197192907333374,
      -0.006016680505126715,
      0.24689321219921112,
      0.1962471455335617,
      0.42088672518730164,
      -0.1078406423330307,
      -0.009055166505277157,
      0.3787221908569336,
      -0.1422770768404007,
      -0.26998019218444824,
      -0.09073518216609955,
      0.20807456970214844,
      -0.08661385625600815
    ],
    [
      0.1268518567085266,
      -0.11914649605751038,
      -0.16766183078289032,
      0.06507694721221924,
      0.08971346914768219,
      -0.1521608680486679,
      0.19783617556095123,
      -0.35242778062820435,
      0.0046957703307271,
      0.07158216089010239,
      0.0010454020230099559,
      0.0434298999607563,
      -0.02939338982105255,
      0.1640680730342865,
      0.20464184880256653,
      -0.0690285712480545,
      0.14949819445610046,
      -0.32334157824516296,
      -0.21367090940475464,
      -0.19477298855781555,
      -0.536934494972229,
      -0.26808962225914,
      -0.05102676898241043,
      -0.3022834062576294,
      -0.47563478350639343,
      -0.6758968830108643,
      -0.34045636653900146,
      0.6838329434394836,
      -0.4197397530078888,
      -0.2854081392288208,
      -0.4592289328575134,
      -0.6508303284645081
    ],
    [
      -0.0054748267866671085,
      -0.13052955269813538,
      -0.4121844172477722,
      -0.06893103569746017,
      -0.24966460466384888,
      -0.21670064330101013,
      0.20065326988697052,
      -0.1564779430627823,
      -0.14039529860019684,
      0.031966615468263626,
      0.021860109642148018,
      0.04312031716108322,
      0.10171458125114441,
      0.03938106819987297,
      0.2432653307914734,
      0.05694421008229256,
      -0.22600442171096802,
      -0.20527726411819458,
      0.3477254807949066,
      0.773937463760376,
      0.41795220971107483,
      -0.3334977924823761,
      -0.6289302110671997,
      0.07110641896724701,
      0.18418332934379578,
      0.34806111454963684,
      -0.3477420508861542,
      -0.2606484889984131,
      -0.31677699089050293,
      -0.08224792778491974,
      -0.722089946269989,
      -0.15491536259651184
    ],
    [
      -0.3274412453174591,
      0.023300837725400925,
      0.00020827207481488585,
      -0.0769614577293396,
      -0.37584322690963745,
      0.2329639047384262,
      0.08887333422899246,
      0.07809153199195862,
      0.2222602367401123,
      0.23676247894763947,
      0.12324263155460358,
      0.2580970525741577,
      -0.06918077170848846,
      -0.15902259945869446,
      -0.2837558090686798,
      0.005379264708608389,
      -0.18219035863876343,
      -0.08632189780473709,
      -0.013069724664092064,
      -0.10062117129564285,
      0.27390480041503906,
      0.27319321036338806,
      0.016324851661920547,
      -0.06355150789022446,
      0.045013632625341415,
      0.057217229157686234,
      -0.15069939196109772,
      0.24642175436019897,
      0.2862667143344879,
      -0.27680960297584534,
      0.07587700337171555,
      0.04704717919230461
    ],
    [
      0.4208920896053314,
      0.1215045154094696,
      -0.5165881514549255,
      -0.2473004311323166,
      -0.08536072820425034,
      -0.3224487900733948,
      0.3452603220939636,
      -0.5114834904670715,
      0.20666134357452393,
      -0.02943401224911213,
      -0.07887212932109833,
      -0.2229638248682022,
      0.10306251049041748,
      0.035726141184568405,
      0.26338863372802734,
      -0.13349343836307526,
      -0.15791034698486328,
      0.040277037769556046,
      0.14284561574459076,
      -0.38218098878860474,
      0.3250618278980255,
      -0.12674832344055176,
      -0.7026828527450562,
      -0.12326668202877045,
      0.14462779462337494,
      0.22700560092926025,
      0.17109528183937073,
      -0.3249582052230835,
      -0.19608540832996368,
      -0.16768363118171692,
      -0.4670605957508087,
      -0.1942056119441986
    ],
    [
      0.22563929855823517,
      0.04891984537243843,
      0.09889953583478928,
      -0.0991557240486145,
      0.311217337846756,
      0.11042320728302002,
      -0.059710726141929626,
      0.13165636360645294,
      0.05031922459602356,
      -0.15019479393959045,
      0.20116865634918213,
      -0.15510591864585876,
      -0.1464771181344986,
      -0.03471887856721878,
      0.14037416875362396,
      -0.4519064128398895,
      0.503193199634552,
      -0.11497969180345535,
      -0.005113230086863041,
      -0.1404743492603302,
      0.2107030749320984,
      0.17683950066566467,
      0.037874605506658554,
      0.11342769116163254,
      -0.04659176617860794,
      0.46819156408309937,
      0.05428087338805199,
      0.017313608899712563,
      0.017019597813487053,
      0.017464658245444298,
      -0.03946175426244736,
      -0.21069347858428955
    ],
    [
      -0.13285650312900543,
      -0.3559417426586151,
      0.16427619755268097,
      0.11095316708087921,
      -0.0616491362452507,
      0.25781571865081787,
      -0.14902594685554504,
      -0.15236864984035492,
      0.09559856355190277,
      0.008417368866503239,
      0.13032004237174988,
      -0.17640355229377747,
      0.17873482406139374,
      0.11670209467411041,
      0.04498758539557457,
      -0.10062003135681152,
      0.5162951946258545,
      0.3405272960662842,
      -0.11352170258760452,
      0.03782010078430176,
      0.01823137141764164,
      -0.2538064420223236,
      0.025670422241091728,
      -0.30512624979019165,
      0.21949079632759094,
      0.1410835236310959,
      -0.04267222061753273,
      -0.19091206789016724,
      -0.0002913295174948871,
      -0.07192318886518478,
      -0.20982132852077484,
      -0.3580714762210846
    ],
    [
      -0.14154599606990814,
      0.04489855095744133,
      -0.031182195991277695,
      0.35506561398506165,
      -0.11127309501171112,
      -0.2476845681667328,
      -0.31710100173950195,
      -0.5085357427597046,
      -0.11490374803543091,
      0.1233583390712738,
      0.07257136702537537,
      0.4994811415672302,
      0.1893678605556488,
      -0.06538397818803787,
      0.40479081869125366,
      -0.08330994844436646,
      0.17441463470458984,
      -0.13556042313575745,
      -0.10512962192296982,
      0.04298219084739685,
      0.20441724359989166,
      0.0694359689950943,
      0.052735693752765656,
      -0.1370394229888916,
      0.16217027604579926,
      -0.21299755573272705,
      0.17458362877368927,
      0.23740556836128235,
      0.01977553591132164,
      0.14980362355709076,
      -0.07310277223587036,
      -0.3426780700683594
    ],
    [
      -0.10291764885187149,
      0.2622098922729492,
      0.16332238912582397,
      0.3098352253437042,
      -0.046595729887485504,
      -0.03716396912932396,
      -0.5850277543067932,
      0.34855085611343384,
      -0.0819481611251831,
      -0.10309208929538727,
      -0.11277072131633759,
      -0.126582071185112,
      -0.013353975489735603,
      -0.13206516206264496,
      0.1264389455318451,
      0.09354107826948166,
      0.017507607117295265,
      0.17457619309425354,
      0.06320232152938843,
      -0.34439149498939514,
      0.23079438507556915,
      -0.5998438596725464,
      -0.2887604236602783,
      -0.24275358021259308,
      0.5010060667991638,
      -0.6096848249435425,
      -0.0025669573806226254,
      0.12832196056842804,
      0.06700755655765533,
      0.032081130892038345,
      0.1782347708940506,
      0.24837779998779297
    ],
    [
      0.05542626604437828,
      -0.008081250824034214,
      -0.3807244300842285,
      -0.4812106490135193,
      0.20394833385944366,
      0.1468004286289215,
      0.06541144102811813,
      -0.12979243695735931,
      -0.3545032739639282,
      -0.07068932056427002,
      -0.1143159419298172,
      -0.2215099334716797,
      -0.17843838036060333,
      0.0609014518558979,
      -0.24554914236068726,
      -0.31353986263275146,
      -0.366085022687912,
      -0.15673917531967163,
      0.15503060817718506,
      0.3186880350112915,
      0.3499765396118164,
      0.2620202600955963,
      -0.05249813571572304,
      -0.3349802494049072,
      0.13906516134738922,
      -0.17492040991783142,
      -0.06637592613697052,
      -0.2252509593963623,
      0.01396565604954958,
      0.09897781908512115,
      -0.07251569628715515,
      0.1348755955696106
    ],
    [
      -0.2616700232028961,
      0.09504849463701248,
      0.33494874835014343,
      0.023422744125127792,
      0.13305151462554932,
      -0.08328751474618912,
      -0.2396935075521469,
      -0.0321277417242527,
      -0.148513525724411,
      0.2501222789287567,
      0.165424644947052,
      -0.6214458346366882,
      -0.4128838777542114,
      -0.013522722758352757,
      -0.5960521697998047,
      0.6565121412277222,
      0.0935540720820427,
      0.07169157266616821,
      -0.3949437737464905,
      0.046053364872932434,
      -0.09571315348148346,
      0.057266924530267715,
      0.4067484140396118,
      -0.06617245078086853,
      0.006260510068386793,
      -0.598589301109314,
      -0.1607276350259781,
      -0.37219902873039246,
      0.39128577709198,
      0.2942869961261749,
      0.395065575838089,
      0.10047637671232224
    ],
    [
      0.06087611988186836,
      0.3586888909339905,
      -0.0077970921993255615,
      0.10755743831396103,
      0.17115409672260284,
      -0.020076371729373932,
      -0.42788857221603394,
      -0.18660113215446472,
      0.17923331260681152,
      0.09412314742803574,
      0.1739443838596344,
      -0.17936116456985474,
      -0.11797834932804108,
      -0.10809262096881866,
      -0.4604633152484894,
      0.44163650274276733,
      -0.5175749063491821,
      -0.2047901451587677,
      0.10046801716089249,
      0.1797727346420288,
      0.3102249503135681,
      -0.002652011578902602,
      -0.31046947836875916,
      0.13430052995681763,
      0.1072435975074768,
      -0.0020087971352040768,
      0.23385284841060638,
      -0.7701956629753113,
      0.015565791167318821,
      0.422268271446228,
      0.3284577429294586,
      0.5016307830810547
    ],
    [
      -0.24014480412006378,
      0.14159941673278809,
      0.11452966183423996,
      0.27905240654945374,
      -0.04027516767382622,
      -0.06367448717355728,
      0.10063338279724121,
      -0.3194366991519928,
      -0.2962934970855713,
      0.253063827753067,
      -0.08668544143438339,
      0.0005443840054795146,
      -0.06844302266836166,
      0.27646470069885254,
      -0.08789225667715073,
      -0.454568088054657,
      0.4433888792991638,
      -0.09863626211881638,
      0.08502712845802307,
      -0.44252628087997437,
      -0.3310151696205139,
      -0.1286834478378296,
      0.31358325481414795,
      -0.11269276589155197,
      -0.6126539707183838,
      0.2499263435602188,
      0.17649979889392853,
      -0.009732203558087349,
      -0.2554550766944885,
      -0.42123711109161377,
      0.09716605395078659,
      -0.10464383661746979
    ],
    [
      0.038070302456617355,
      0.07001865655183792,
      -0.1589343249797821,
      -0.9529598951339722,
      -0.10145986825227737,
      -0.29738420248031616,
      0.33122193813323975,
      0.11671137809753418,
      -0.23827232420444489,
      0.18412736058235168,
      -0.176511749625206,
      0.1947011798620224,
      -0.034829091280698776,
      -0.09984897822141647,
      0.3989177942276001,
      -0.6713504791259766,
      0.29774749279022217,
      -0.22062066197395325,
      0.4244980216026306,
      -0.6438360810279846,
      0.22080902755260468,
      0.5527945756912231,
      -0.3739984333515167,
      -0.13787516951560974,
      -0.30573996901512146,
      0.3179176151752472,
      -0.21708767116069794,
      0.14777866005897522,
      0.030827881768345833,
      -0.3464165925979614,
      -0.22730226814746857,
      0.28313589096069336
    ],
    [
      -0.04902632534503937,
      0.15622566640377045,
      -0.578061580657959,
      -0.14398612082004547,
      -0.05745890736579895,
      -0.014726257883012295,
      0.1938985139131546,
      -0.09248801320791245,
      -0.09759341925382614,
      -0.05709967762231827,
      0.24313165247440338,
      0.19182708859443665,
      -0.3229769766330719,
      0.3109501004219055,
      0.011591384187340736,
      0.33861061930656433,
      -0.012817129492759705,
      0.12276268750429153,
      0.06634528934955597,
      0.021456323564052582,
      0.023866115137934685,
      -0.15865379571914673,
      -0.2026413530111313,
      -0.15697145462036133,
      0.15047846734523773,
      -0.002954387106001377,
      -0.07305080443620682,
      0.00256139412522316,
      0.31569594144821167,
      -0.16953188180923462,
      -0.2520492374897003,
      0.18640859425067902
    ],
    [
      0.04068627208471298,
      0.20991773903369904,
      0.17298832535743713,
      -0.1885996162891388,
      0.17131955921649933,
      -0.146325021982193,
      0.1994345337152481,
      0.10167372226715088,
      -0.072292260825634,
      0.15427465736865997,
      -0.2122052013874054,
      0.07074093818664551,
      -0.07940300554037094,
      -0.12280513346195221,
      0.009995582513511181,
      0.05243426561355591,
      0.23949745297431946,
      -0.06154904142022133,
      0.04285819083452225,
      -0.4078613221645355,
      0.1314297467470169,
      -0.37131360173225403,
      -0.17157605290412903,
      -0.27747559547424316,
      0.025911059230566025,
      -0.5027021765708923,
      0.02310750260949135,
      0.007678378839045763,
      -0.02356487140059471,
      0.3150874674320221,
      0.010706075467169285,
      -0.25467807054519653
    ],
    [
      0.30802425742149353,
      -0.028307074680924416,
      0.19930608570575714,
      -0.4088997542858124,
      0.25895094871520996,
      -0.23955665528774261,
      -0.0652255266904831,
      0.15928342938423157,
      -0.1963612288236618,
      -0.24601979553699493,
      -0.09375546127557755,
      -0.18900413811206818,
      -0.2371390163898468,
      -0.02947748452425003,
      0.22230756282806396,
      0.011768572963774204,
      0.28358781337738037,
      -0.08060277253389359,
      -0.029734482988715172,
      -0.3916357457637787,
      0.17579881846904755,
      -0.43798866868019104,
      -0.2909197211265564,
      -0.43352606892585754,
      0.1439468115568161,
      -0.03565504774451256,
      0.325461208820343,
      -0.11739018559455872,
      0.04860270023345947,
      0.08548282831907272,
      0.4264719784259796,
      0.13065120577812195
    ],
    [
      -0.2698131799697876,
      -0.02051379904150963,
      0.17393581569194794,
      -0.5294893383979797,
      -0.2138119637966156,
      -0.13639108836650848,
      0.40687891840934753,
      0.2600569725036621,
      -0.043490029871463776,
      -0.09997931867837906,
      0.06761342287063599,
      0.20168627798557281,
      -0.004941966850310564,
      -0.10330821573734283,
      0.1746315062046051,
      -0.35178300738334656,
      0.1682944893836975,
      0.10420933365821838,
      0.33688241243362427,
      -0.28800371289253235,
      0.3939550817012787,
      0.10339042544364929,
      -0.43066105246543884,
      0.11299929022789001,
      0.1177796721458435,
      0.18932707607746124,
      -0.13195835053920746,
      0.015236557461321354,
      0.2600176930427551,
      -0.14035816490650177,
      0.23457679152488708,
      0.11023619771003723
    ],
    [
      -0.0854763612151146,
      -0.0155487647280097,
      0.023020973429083824,
      0.4180367588996887,
      -0.024036632850766182,
      -0.1951155960559845,
      -0.5218244194984436,
      0.2785412669181824,
      0.030254654586315155,
      0.0158807672560215,
      0.5589303970336914,
      -0.3662351369857788,
      0.6797628998756409,
      0.11880996078252792,
      -0.5970110297203064,
      0.6196115612983704,
      -0.26455751061439514,
      0.3336518406867981,
      -0.11335500329732895,
      -0.05820871889591217,
      0.031727198511362076,
      0.02861865796148777,
      0.09482773393392563,
      0.2216838002204895,
      0.16122452914714813,
      0.08329474925994873,
      -0.03318733349442482,
      -0.4269696772098541,
      0.36228621006011963,
      0.19632087647914886,
      0.6837605237960815,
      0.7186539173126221
    ],
    [
      -0.1562005877494812,
      0.36256757378578186,
      -0.2925674021244049,
      -0.39506685733795166,
      -0.16277217864990234,
      0.106835275888443,
      0.04065629839897156,
      0.04171169921755791,
      -0.23013432323932648,
      -0.16948583722114563,
      0.03756614774465561,
      0.035308197140693665,
      -0.23054204881191254,
      0.01047633308917284,
      0.17451471090316772,
      -0.06537819653749466,
      0.19172389805316925,
      0.130127415060997,
      0.337688684463501,
      0.3733460009098053,
      0.1046387180685997,
      0.0599108561873436,
      -0.37743714451789856,
      -0.0367492251098156,
      0.2505500316619873,
      0.5371370315551758,
      -0.14263330399990082,
      0.2019367665052414,
      0.1524096131324768,
      0.17709068953990936,
      0.1544751077890396,
      -0.005591395776718855
    ],
    [
      -0.03861834108829498,
      -0.08166030794382095,
      0.4341014325618744,
      -0.06575291603803635,
      -0.07928813993930817,
      0.0193032156676054,
      -0.11412906646728516,
      0.14076794683933258,
      0.04423709958791733,
      -0.06070828437805176,
      0.23170742392539978,
      0.3480871915817261,
      -0.07776541262865067,
      -0.17280511558055878,
      0.14407970011234283,
      -0.2046917825937271,
      -0.36541879177093506,
      0.12639284133911133,
      -0.11702646315097809,
      0.41175734996795654,
      0.31499484181404114,
      0.19974327087402344,
      -0.248480424284935,
      0.20225787162780762,
      0.3662973642349243,
      -0.6134239435195923,
      -0.27137291431427,
      0.13319426774978638,
      0.16249865293502808,
      -0.2540043294429779,
      0.049254409968853,
      0.029101470485329628
    ],
    [
      -0.07130002975463867,
      -0.005095247644931078,
      0.045368365943431854,
      -0.17952632904052734,
      0.12350217252969742,
      -0.1832657903432846,
      0.026095891371369362,
      -0.05813124030828476,
      0.1980617493391037,
      0.311994343996048,
      0.24578218162059784,
      -0.08631816506385803,
      -0.12766461074352264,
      0.2496040016412735,
      0.31681615114212036,
      0.30919408798217773,
      -0.363595187664032,
      0.12814076244831085,
      -0.36849671602249146,
      0.47622987627983093,
      0.33919861912727356,
      -0.175485759973526,
      -0.32003721594810486,
      -0.12185747921466827,
      0.2618483006954193,
      0.5537492632865906,
      -0.1946491301059723,
      -0.03725934401154518,
      0.25367170572280884,
      0.24329037964344025,
      -0.12424823641777039,
      0.007550005801022053
    ],
    [
      -0.10590895265340805,
      0.13831184804439545,
      -0.03909952938556671,
      0.652556300163269,
      -0.06087421625852585,
      0.028851203620433807,
      -0.02637585625052452,
      -0.2262459695339203,
      0.14177311956882477,
      -0.13283023238182068,
      -0.04151952266693115,
      -0.19005289673805237,
      -0.21680311858654022,
      0.15565665066242218,
      0.24380649626255035,
      0.6158583760261536,
      0.20724129676818848,
      -0.0880398079752922,
      -0.12180277705192566,
      -0.0818200334906578,
      -0.16634489595890045,
      -0.6790087819099426,
      -0.014734465628862381,
      -0.40201428532600403,
      0.026154382154345512,
      -0.21203477680683136,
      0.22919157147407532,
      0.22469647228717804,
      -0.07037738710641861,
      -0.0917465016245842,
      -0.6355266571044922,
      -0.05432608723640442
    ],
    [
      0.09763089567422867,
      0.1080518439412117,
      -0.06946999579668045,
      -0.07049945741891861,
      0.06534850597381592,
      0.32653939723968506,
      0.33514806628227234,
      0.10245972126722336,
      -0.1070735976099968,
      0.1073913425207138,
      -0.1918107569217682,
      -0.2518535256385803,
      0.14518769085407257,
      -0.0042074210941791534,
      0.18327324092388153,
      -0.5247771739959717,
      0.17819178104400635,
      -0.06646449118852615,
      -0.057816050946712494,
      -0.5155270099639893,
      0.1342596560716629,
      -0.037539929151535034,
      -0.36526232957839966,
      0.028170593082904816,
      -0.3179694712162018,
      -0.03952479735016823,
      -0.03293236717581749,
      0.3435210883617401,
      0.006406730972230434,
      -0.15216168761253357,
      -0.07950945198535919,
      -0.17995063960552216
    ],
    [
      0.06562743335962296,
      -0.36020931601524353,
      0.002751935040578246,
      -0.34163010120391846,
      -0.10452438145875931,
      -0.15163658559322357,
      -0.15225523710250854,
      -0.1736684888601303,
      0.1634884625673294,
      -0.19125866889953613,
      0.09187062829732895,
      0.20118695497512817,
      0.009141943417489529,
      -0.02722896821796894,
      0.17536084353923798,
      -0.40311384201049805,
      -0.17079898715019226,
      -0.009923922829329967,
      -0.07877505570650101,
      0.31074273586273193,
      -0.015094153583049774,
      0.1832006275653839,
      -0.44978344440460205,
      -0.2039955109357834,
      0.047947850078344345,
      0.22482013702392578,
      0.06340241432189941,
      0.2038472443819046,
      0.05468748137354851,
      -0.472060889005661,
      -0.1078597754240036,
      -0.4984656274318695
    ],
    [
      0.028125708922743797,
      -0.1876908242702484,
      0.4207335114479065,
      0.5599305629730225,
      -0.2335669845342636,
      0.10512600094079971,
      -0.05147441104054451,
      0.48933473229408264,
      0.15490782260894775,
      -0.07527804374694824,
      0.05773063749074936,
      0.07009728252887726,
      0.0003855389659292996,
      -0.25930726528167725,
      0.19562622904777527,
      0.17151832580566406,
      -0.5163530111312866,
      0.26229211688041687,
      -0.2907618582248688,
      0.39203521609306335,
      -0.2961327135562897,
      0.15970748662948608,
      0.2243960052728653,
      -0.044125400483608246,
      -0.16312439739704132,
      0.1407095342874527,
      0.023860115557909012,
      -0.20718680322170258,
      -0.2121608853340149,
      0.16374455392360687,
      0.14999155700206757,
      0.1492161750793457
    ],
    [
      0.40912294387817383,
      -0.009492314420640469,
      -0.3557649254798889,
      -0.0007262406870722771,
      0.21142339706420898,
      -0.17171132564544678,
      -0.07827840000391006,
      -0.2926448881626129,
      -0.1394985467195511,
      0.010759220458567142,
      -0.22695285081863403,
      -0.008186539635062218,
      0.01678469032049179,
      -0.01429454144090414,
      -0.08748176693916321,
      0.3178468644618988,
      0.30286142230033875,
      -0.0775020644068718,
      -0.10980641096830368,
      -0.21438801288604736,
      0.33891382813453674,
      -0.31088459491729736,
      -0.11589016020298004,
      -0.43976452946662903,
      0.4066441059112549,
      -0.17419663071632385,
      0.16114282608032227,
      -0.1616775095462799,
      0.17272211611270905,
      0.000475620647193864,
      -0.17936290800571442,
      -0.06111115962266922
    ],
    [
      0.16543209552764893,
      0.2628715932369232,
      0.38299959897994995,
      0.46362847089767456,
      0.3070502281188965,
      -0.07189906388521194,
      0.03788089379668236,
      -0.025029506534337997,
      -0.39971089363098145,
      -0.1458256095647812,
      -0.031289007514715195,
      -0.3680972754955292,
      -0.10965676605701447,
      -0.06065841764211655,
      -0.3816576600074768,
      0.30530235171318054,
      0.25268787145614624,
      -0.10840155184268951,
      0.2762521803379059,
      -0.047743577510118484,
      -0.05122234672307968,
      0.09080134332180023,
      0.042542293667793274,
      -0.0641123354434967,
      -0.2533968389034271,
      -0.5723521113395691,
      -0.040411774069070816,
      0.167134627699852,
      -0.26357096433639526,
      -0.3826388120651245,
      -0.16373367607593536,
      -0.4334084391593933
    ],
    [
      -0.03896472975611687,
      -0.16114269196987152,
      -0.10636906325817108,
      0.24848198890686035,
      -0.05262980982661247,
      -0.2115345150232315,
      0.25276076793670654,
      -0.20029625296592712,
      -0.048075102269649506,
      0.1868838220834732,
      0.1621822863817215,
      0.42401430010795593,
      -0.2419966757297516,
      -0.0717441663146019,
      0.14619934558868408,
      0.13978326320648193,
      -0.5571305155754089,
      0.031514838337898254,
      0.17681017518043518,
      0.44380661845207214,
      -0.09181471168994904,
      0.10802529752254486,
      0.16658271849155426,
      0.26491203904151917,
      -0.08647903800010681,
      0.16963955760002136,
      0.17368002235889435,
      -0.3426777124404907,
      -0.5567600727081299,
      -0.09823614358901978,
      -0.11388499289751053,
      0.0842607244849205
    ],
    [
      0.07471457123756409,
      0.14997796714305878,
      -0.12020407617092133,
      0.11709824204444885,
      0.0656779333949089,
      0.09316316992044449,
      -0.05008944123983383,
      0.005471956450492144,
      -0.037856098264455795,
      -0.017547445371747017,
      -0.2361832559108734,
      -0.10905306041240692,
      -0.12443232536315918,
      0.05150602012872696,
      0.021474895998835564,
      0.18958421051502228,
      -0.07753303647041321,
      0.16449981927871704,
      0.08401451259851456,
      0.14845487475395203,
      0.07993704080581665,
      0.20014891028404236,
      -0.4494631588459015,
      -0.06981171667575836,
      -0.15194278955459595,
      -1.1875971555709839,
      0.05323565751314163,
      0.017440155148506165,
      -0.1393912434577942,
      -0.012446945533156395,
      -0.13810113072395325,
      0.05189216136932373
    ],
    [
      -0.057706840336322784,
      -0.051692940294742584,
      -0.02977837808430195,
      -0.6424406170845032,
      0.21248900890350342,
      0.26623401045799255,
      0.3018374443054199,
      0.4395672082901001,
      0.2336954027414322,
      -0.3570158779621124,
      -0.07596330344676971,
      -0.005930107552558184,
      0.02564884163439274,
      -0.07899022102355957,
      0.3399423360824585,
      -0.19418612122535706,
      -0.2285570651292801,
      0.20831143856048584,
      0.13793914020061493,
      0.32459837198257446,
      0.23033306002616882,
      0.5239944458007812,
      0.10323663055896759,
      0.3356783092021942,
      -0.16024474799633026,
      0.22100798785686493,
      -0.2774079442024231,
      -0.25220760703086853,
      0.2945235073566437,
      -0.38992220163345337,
      -0.11089532822370529,
      0.07172585278749466
    ],
    [
      -0.18368063867092133,
      -0.19231785833835602,
      0.0814913809299469,
      0.029083777219057083,
      0.03665238246321678,
      -0.06590358167886734,
      -0.04973406717181206,
      0.292459100484848,
      -0.12337374687194824,
      -0.08051694929599762,
      -0.28301626443862915,
      0.21913175284862518,
      0.09943297505378723,
      -0.05871444195508957,
      0.15202222764492035,
      0.4470723271369934,
      0.28243038058280945,
      0.07745597511529922,
      0.1127869188785553,
      -0.11580599844455719,
      0.049749329686164856,
      -0.0914323627948761,
      0.16941134631633759,
      -0.20855772495269775,
      0.055545639246702194,
      0.5312513709068298,
      -0.12643028795719147,
      0.08442718535661697,
      -0.31197690963745117,
      -0.008988148532807827,
      -0.2746732831001282,
      0.26180025935173035
    ]
  ],
  "b2": [
    -0.04290897771716118,
    -0.2542158365249634,
    -0.7199397087097168,
    -0.06487884372472763,
    0.2612772285938263,
    -0.021020373329520226,
    0.04427632316946983,
    -0.422538697719574,
    0.008542896248400211,
    0.26715800166130066,
    0.3462687134742737,
    -0.05493616685271263,
    0.2569592595100403,
    0.10322175920009613,
    -0.10241576284170151,
    0.14152631163597107,
    0.0231329258531332,
    -0.0024627766106277704,
    0.36225607991218567,
    -0.15997539460659027,
    -0.2248554527759552,
    -0.3446959853172302,
    -0.1465151160955429,
    0.1908089816570282,
    -0.47838836908340454,
    -0.034492745995521545,
    -0.08738195151090622,
    0.054484277963638306,
    -0.36951565742492676,
    -0.045544907450675964,
    -0.0043444256298244,
    -0.053121693432331085
  ],
  "W3": [
    [
      0.016019068658351898,
      -0.011557908728718758,
      -0.08371971547603607,
      -0.12210960686206818,
      -0.14249762892723083,
      0.134367436170578,
      0.11331535875797272,
      -0.017084535211324692,
      -0.23884308338165283,
      -0.09439966827630997,
      -0.03633108735084534,
      0.09406968206167221,
      0.04506170004606247,
      0.10643704235553741,
      -0.039860110729932785,
      -0.3419327139854431,
      0.08901940286159515,
      -0.21293744444847107,
      0.01731746457517147,
      0.6069594621658325,
      -0.6294757723808289,
      0.2388540506362915,
      -0.13702858984470367,
      -0.30420470237731934,
      -0.03583142161369324,
      -0.1407122164964676,
      -0.056610383093357086,
      -0.2198106199502945,
      0.058316681534051895,
      -0.6082677245140076,
      0.041982609778642654,
      0.6098589897155762
    ],
    [
      -0.0947362557053566,
      -0.3306868374347687,
      -0.40389320254325867,
      0.33107277750968933,
      0.46449533104896545,
      -0.4433204233646393,
      0.06376586109399796,
      -0.50448077917099,
      -0.12177454680204391,
      0.2889302372932434,
      0.4746693968772888,
      0.3402553200721741,
      -0.23207572102546692,
      -0.361907035112381,
      0.2261827290058136,
      -0.030986450612545013,
      -0.13451163470745087,
      -0.26618266105651855,
      0.041780684143304825,
      -0.06578263640403748,
      -0.3067157566547394,
      -0.023750033229589462,
      -0.09808716177940369,
      -0.4656687080860138,
      -0.549209713935852,
      -0.10361539572477341,
      0.20363081991672516,
      0.06886380165815353,
      0.0254062470048666,
      -0.07586333900690079,
      -0.01183800958096981,
      0.2843547761440277
    ],
    [
      0.6298200488090515,
      -0.23465274274349213,
      -0.13849389553070068,
      -0.5524075031280518,
      -0.3031889498233795,
      -0.2931506037712097,
      -0.9800832867622375,
      0.21175111830234528,
      -0.4087335765361786,
      0.16195575892925262,
      -0.31903061270713806,
      0.3259109854698181,
      0.23063741624355316,
      -0.3841661810874939,
      -0.5365599393844604,
      -0.468558669090271,
      -0.5145763754844666,
      -0.4967935383319855,
      0.19445368647575378,
      0.045119039714336395,
      0.22866147756576538,
      -0.16092167794704437,
      -0.8882878422737122,
      -0.4037167429924011,
      -0.016192179173231125,
      0.28645816445350647,
      -0.6655229330062866,
      -0.16650639474391937,
      0.6981382369995117,
      0.21825316548347473,
      0.42232850193977356,
      -0.5334398150444031
    ],
    [
      -0.08022136986255646,
      0.7052753567695618,
      -0.883978545665741,
      -0.18948398530483246,
      -0.4176960289478302,
      0.12682294845581055,
      -0.13691657781600952,
      0.05706069990992546,
      -0.5972627997398376,
      -0.3163610100746155,
      0.6688974499702454,
      -0.5645310282707214,
      0.7014098167419434,
      -0.8448062539100647,
      -0.6695479154586792,
      -0.11007519066333771,
      -0.4930025041103363,
      -0.5100475549697876,
      -0.7292690277099609,
      -0.373208612203598,
      -0.25031548738479614,
      -0.7855687141418457,
      0.05444284528493881,
      -0.11603126674890518,
      -0.25906214118003845,
      0.6913307905197144,
      -0.843295156955719,
      0.8220030665397644,
      0.1747642457485199,
      -0.3576500415802002,
      -0.42691531777381897,
      -0.006034422665834427
    ]
  ],
  "b3": [
    0.014875771477818489,
    0.2555646002292633,
    -0.12323369830846786,
    0.2932201325893402
  ]
}